<?xml version="1.0" encoding="UTF-8"?>
<BIF VERSION="0.3"  xmlns="http://www.cs.ubc.ca/labs/lci/fopi/ve/XMLBIFv0_3"
xmlns:xsi="http://www.w3.org/2001/XMLSchema-instance"
xsi:schemaLocation="http://www.cs.ubc.ca/labs/lci/fopi/ve/XMLBIFv0_3 http://www.cs.ubc.ca/labs/lci/fopi/ve/XMLBIFv0_3/XMLBIFv0_3.xsd">
<NETWORK>
<NAME>road_scene_2_new</NAME>
<VARIABLE TYPE="nature">
	<NAME>car_in_frame(frames0,cars0)</NAME>
	<OUTCOME>T</OUTCOME>
	<PROPERTY> position=(6000.0,4000.0)</PROPERTY>
</VARIABLE>
<VARIABLE TYPE="nature">
	<NAME>Lane(frames0,cars0)</NAME>
	<OUTCOME>lane_left</OUTCOME>
	<OUTCOME>lane_middle</OUTCOME>
	<OUTCOME>lane_right</OUTCOME>
	<PROPERTY> position=(6200.0,4000.0)</PROPERTY>
</VARIABLE>
<VARIABLE TYPE="nature">
	<NAME>near_level(frames0,cars0)</NAME>
	<OUTCOME>1</OUTCOME>
	<OUTCOME>2</OUTCOME>
	<OUTCOME>3</OUTCOME>
	<OUTCOME>4</OUTCOME>
	<OUTCOME>5</OUTCOME>
	<PROPERTY> position=(6400.0,4000.0)</PROPERTY>
</VARIABLE>
<VARIABLE TYPE="nature">
	<NAME>Speed(frames0,cars0)</NAME>
	<OUTCOME>high</OUTCOME>
	<OUTCOME>low</OUTCOME>
	<OUTCOME>medium</OUTCOME>
	<PROPERTY> position=(6000.0,4200.0)</PROPERTY>
</VARIABLE>
<VARIABLE TYPE="nature">
	<NAME>speed_diff(frames0,cars0)</NAME>
	<OUTCOME>high</OUTCOME>
	<OUTCOME>low</OUTCOME>
	<OUTCOME>medium</OUTCOME>
	<PROPERTY> position=(6200.0,4200.0)</PROPERTY>
</VARIABLE>
<VARIABLE TYPE="nature">
	<NAME>car_in_frame(frames1,cars0)</NAME>
	<OUTCOME>T</OUTCOME>
	<PROPERTY> position=(6400.0,4200.0)</PROPERTY>
</VARIABLE>
<VARIABLE TYPE="nature">
	<NAME>Lane(frames1,cars0)</NAME>
	<OUTCOME>lane_left</OUTCOME>
	<OUTCOME>lane_middle</OUTCOME>
	<OUTCOME>lane_right</OUTCOME>
	<PROPERTY> position=(6000.0,4400.0)</PROPERTY>
</VARIABLE>
<VARIABLE TYPE="nature">
	<NAME>near_level(frames1,cars0)</NAME>
	<OUTCOME>1</OUTCOME>
	<OUTCOME>2</OUTCOME>
	<OUTCOME>3</OUTCOME>
	<OUTCOME>4</OUTCOME>
	<OUTCOME>5</OUTCOME>
	<PROPERTY> position=(6200.0,4400.0)</PROPERTY>
</VARIABLE>
<VARIABLE TYPE="nature">
	<NAME>Speed(frames1,cars0)</NAME>
	<OUTCOME>high</OUTCOME>
	<OUTCOME>low</OUTCOME>
	<OUTCOME>medium</OUTCOME>
	<PROPERTY> position=(6400.0,4400.0)</PROPERTY>
</VARIABLE>
<VARIABLE TYPE="nature">
	<NAME>speed_diff(frames1,cars0)</NAME>
	<OUTCOME>high</OUTCOME>
	<OUTCOME>low</OUTCOME>
	<OUTCOME>medium</OUTCOME>
	<PROPERTY> position=(6000.0,4600.0)</PROPERTY>
</VARIABLE>
<VARIABLE TYPE="nature">
	<NAME>ego_frame(frames0,ego_cars0)</NAME>
	<OUTCOME>T</OUTCOME>
	<PROPERTY> position=(6200.0,4600.0)</PROPERTY>
</VARIABLE>
<VARIABLE TYPE="nature">
	<NAME>Speed(frames0,ego_cars0)</NAME>
	<OUTCOME>high</OUTCOME>
	<OUTCOME>low</OUTCOME>
	<OUTCOME>medium</OUTCOME>
	<PROPERTY> position=(6400.0,4600.0)</PROPERTY>
</VARIABLE>
<VARIABLE TYPE="nature">
	<NAME>ego_frame(frames1,ego_cars0)</NAME>
	<OUTCOME>T</OUTCOME>
	<PROPERTY> position=(6000.0,4800.0)</PROPERTY>
</VARIABLE>
<VARIABLE TYPE="nature">
	<NAME>Speed(frames1,ego_cars0)</NAME>
	<OUTCOME>high</OUTCOME>
	<OUTCOME>low</OUTCOME>
	<OUTCOME>medium</OUTCOME>
	<PROPERTY> position=(6200.0,4800.0)</PROPERTY>
</VARIABLE>
<VARIABLE TYPE="nature">
	<NAME>succ_frame(frames0,frames1)</NAME>
	<OUTCOME>T</OUTCOME>
	<PROPERTY> position=(6400.0,4800.0)</PROPERTY>
</VARIABLE>
<DEFINITION>
	<FOR>car_in_frame(frames0,cars0)</FOR>
	<TABLE> 1.0</TABLE>
</DEFINITION>
<DEFINITION>
	<FOR>Lane(frames0,cars0)</FOR>
	<GIVEN>car_in_frame(frames0,cars0)</GIVEN>
	<GIVEN>car_in_frame(frames1,cars0)</GIVEN>
	<GIVEN>ego_frame(frames0,ego_cars0)</GIVEN>
	<GIVEN>ego_frame(frames1,ego_cars0)</GIVEN>
	<GIVEN>Lane(frames1,cars0)</GIVEN>
	<GIVEN>near_level(frames1,cars0)</GIVEN>
	<GIVEN>Speed(frames1,cars0)</GIVEN>
	<GIVEN>Speed(frames1,ego_cars0)</GIVEN>
	<GIVEN>speed_diff(frames0,cars0)</GIVEN>
	<GIVEN>speed_diff(frames1,cars0)</GIVEN>
	<GIVEN>succ_frame(frames0,frames1)</GIVEN>
	<TABLE> 0.941176 0.039216 0.019608 0.333334 0.333333 0.333333 0.333333 0.333334 0.333333 0.333333 0.333334 0.333333 0.97183 0.014085 0.014085 0.333333 0.333334 0.333333 0.333333 0.333333 0.333334 0.5 0.25 0.25 0.982249 0.011834 0.005917 0.949276 0.043478 0.007246 0.333334 0.333333 0.333333 0.333334 0.333333 0.333333 0.333333 0.333334 0.333333 0.333333 0.333333 0.333334 0.333334 0.333333 0.333333 0.333334 0.333333 0.333333 0.333333 0.333333 0.333334 0.333334 0.333333 0.333333 0.875 0.1125 0.0125 0.333334 0.333333 0.333333 0.5 0.25 0.25 0.333333 0.333333 0.333334 0.333333 0.333334 0.333333 0.333333 0.333334 0.333333 0.5 0.25 0.25 0.333333 0.333333 0.333334 0.888888 0.055556 0.055556 0.333333 0.333334 0.333333 0.333333 0.333334 0.333333 0.333334 0.333333 0.333333 0.333333 0.333334 0.333333 0.96129 0.032258 0.006452 0.333333 0.333334 0.333333 0.333334 0.333333 0.333333 0.333333 0.333334 0.333333 0.333333 0.333334 0.333333 0.333333 0.333334 0.333333 0.333333 0.333334 0.333333 0.5 0.25 0.25 0.333333 0.333334 0.333333 0.982558 0.011628 0.005814 0.5 0.25 0.25 0.5 0.25 0.25 0.714286 0.142857 0.142857 0.956896 0.034483 0.008621 0.333334 0.333333 0.333333 0.333334 0.333333 0.333333 0.333333 0.333333 0.333334 0.333334 0.333333 0.333333 0.952381 0.031746 0.015873 0.333334 0.333333 0.333333 0.333333 0.333333 0.333334 0.333334 0.333333 0.333333 0.875 0.0625 0.0625 0.333333 0.333334 0.333333 0.333333 0.333334 0.333333 0.333333 0.333333 0.333334 0.333333 0.333334 0.333333 0.897436 0.094017 0.008547 0.6 0.2 0.2 0.333333 0.333334 0.333333 0.666666 0.166667 0.166667 0.77612 0.208955 0.014925 0.942857 0.042857 0.014286 0.333333 0.333333 0.333334 0.714286 0.142857 0.142857 0.333334 0.333333 0.333333 0.333333 0.333334 0.333333 0.333333 0.333333 0.333334 0.5 0.25 0.25 0.333333 0.333334 0.333333 0.886139 0.108911 0.00495 0.5 0.25 0.25 0.333333 0.333334 0.333333 0.5 0.25 0.25 0.333334 0.333333 0.333333 0.846154 0.076923 0.076923 0.5 0.25 0.25 0.6 0.2 0.2 0.5 0.25 0.25 0.936306 0.057325 0.006369 0.956521 0.028986 0.014493 0.333333 0.333333 0.333334 0.5 0.25 0.25 0.333333 0.333334 0.333333 0.852941 0.117647 0.029412 0.5 0.25 0.25 0.6 0.2 0.2 0.333334 0.333333 0.333333 0.956044 0.032967 0.010989 0.966166 0.030075 0.003759 0.333334 0.333333 0.333333 0.333333 0.333334 0.333333 0.333334 0.333333 0.333333 0.333333 0.333334 0.333333 0.333334 0.333333 0.333333 0.333333 0.333334 0.333333 0.333334 0.333333 0.333333 0.333333 0.333333 0.333334 0.962791 0.032558 0.004651 0.333334 0.333333 0.333333 0.5 0.25 0.25 0.333333 0.333333 0.333334 0.333333 0.333334 0.333333 0.333333 0.333333 0.333334 0.6 0.2 0.2 0.333333 0.333333 0.333334 0.944444 0.027778 0.027778 0.333333 0.333333 0.333334 0.333333 0.333334 0.333333 0.333333 0.333334 0.333333 0.333334 0.333333 0.333333 0.962406 0.030075 0.007519 0.333334 0.333333 0.333333 0.333334 0.333333 0.333333 0.333333 0.333333 0.333334 0.333333 0.333333 0.333334 0.777778 0.111111 0.111111 0.333333 0.333334 0.333333 0.6 0.2 0.2 0.333334 0.333333 0.333333 0.968421 0.021053 0.010526 0.5 0.25 0.25 0.6 0.2 0.2 0.666666 0.166667 0.166667 0.98 0.01 0.01 0.333333 0.333334 0.333333 0.333333 0.333334 0.333333 0.333333 0.333333 0.333334 0.333333 0.333334 0.333333 0.959459 0.027027 0.013514 0.333333 0.333334 0.333333 0.333333 0.333333 0.333334 0.333333 0.333334 0.333333 0.714286 0.142857 0.142857 0.333334 0.333333 0.333333 0.333333 0.333334 0.333333 0.333333 0.333333 0.333334 0.333333 0.333334 0.333333 0.936782 0.057471 0.005747 0.5 0.25 0.25 0.333333 0.333334 0.333333 0.666666 0.166667 0.166667 0.882352 0.058824 0.058824 0.939759 0.048193 0.012048 0.333333 0.333334 0.333333 0.777778 0.111111 0.111111 0.333333 0.333334 0.333333 0.333333 0.333334 0.333333 0.333334 0.333333 0.333333 0.777778 0.111111 0.111111 0.333333 0.333334 0.333333 0.97546 0.018405 0.006135 0.846154 0.076923 0.076923 0.333333 0.333334 0.333333 0.75 0.125 0.125 0.333333 0.333333 0.333334 0.666666 0.166667 0.166667 0.6 0.2 0.2 0.333333 0.333334 0.333333 0.5 0.25 0.25 0.981013 0.012658 0.006329 0.7 0.2 0.1 0.333333 0.333334 0.333333 0.5 0.25 0.25 0.333334 0.333333 0.333333 0.75 0.125 0.125 0.333333 0.333334 0.333333 0.333334 0.333333 0.333333 0.333333 0.333333 0.333334 0.96875 0.015625 0.015625 0.982906 0.008547 0.008547 0.333333 0.333333 0.333334 0.333334 0.333333 0.333333 0.333333 0.333333 0.333334 0.333333 0.333334 0.333333 0.333333 0.333334 0.333333 0.333333 0.333334 0.333333 0.333333 0.333334 0.333333 0.333333 0.333333 0.333334 0.965035 0.027972 0.006993 0.333333 0.333333 0.333334 0.333333 0.333334 0.333333 0.333333 0.333334 0.333333 0.333333 0.333333 0.333334 0.333334 0.333333 0.333333 0.333333 0.333333 0.333334 0.333334 0.333333 0.333333 0.666667 0.222222 0.111111 0.333333 0.333334 0.333333 0.333333 0.333334 0.333333 0.333333 0.333333 0.333334 0.333334 0.333333 0.333333 0.958334 0.020833 0.020833 0.333333 0.333334 0.333333 0.333333 0.333333 0.333334 0.333334 0.333333 0.333333 0.333334 0.333333 0.333333 0.777778 0.111111 0.111111 0.333333 0.333334 0.333333 0.5 0.25 0.25 0.333333 0.333333 0.333334 0.968085 0.021277 0.010638 0.666666 0.166667 0.166667 0.5 0.25 0.25 0.666666 0.166667 0.166667 0.986206 0.006897 0.006897 0.333334 0.333333 0.333333 0.333334 0.333333 0.333333 0.333333 0.333334 0.333333 0.333333 0.333334 0.333333 0.96 0.026667 0.013333 0.5 0.25 0.25 0.333333 0.333333 0.333334 0.666666 0.166667 0.166667 0.882352 0.058824 0.058824 0.333333 0.333334 0.333333 0.333334 0.333333 0.333333 0.333333 0.333333 0.333334 0.333334 0.333333 0.333333 0.975806 0.016129 0.008065 0.333334 0.333333 0.333333 0.333334 0.333333 0.333333 0.333334 0.333333 0.333333 0.333333 0.333334 0.333333 0.963636 0.018182 0.018182 0.333333 0.333333 0.333334 0.666666 0.166667 0.166667 0.333333 0.333334 0.333333 0.333333 0.333333 0.333334 0.333333 0.333334 0.333333 0.666666 0.166667 0.166667 0.333333 0.333334 0.333333 0.933334 0.058333 0.008333 0.714286 0.142857 0.142857 0.333333 0.333334 0.333333 0.6 0.2 0.2 0.333334 0.333333 0.333333 0.833334 0.083333 0.083333 0.5 0.25 0.25 0.333333 0.333333 0.333334 0.333334 0.333333 0.333333 0.953846 0.030769 0.015385 0.5 0.25 0.25 0.333333 0.333334 0.333333 0.333333 0.333333 0.333334 0.333334 0.333333 0.333333 0.333333 0.333334 0.333333 0.333334 0.333333 0.333333 0.5 0.25 0.25 0.333333 0.333334 0.333333 0.666666 0.166667 0.166667 0.692308 0.230769 0.076923 0.333333 0.333333 0.333334 0.333333 0.333334 0.333333 0.333333 0.333334 0.333333 0.333334 0.333333 0.333333 0.333334 0.333333 0.333333 0.333334 0.333333 0.333333 0.333333 0.333334 0.333333 0.333333 0.333333 0.333334 0.714286 0.142857 0.142857 0.333333 0.333333 0.333334 0.333334 0.333333 0.333333 0.333333 0.333333 0.333334 0.333333 0.333333 0.333334 0.333333 0.333334 0.333333 0.333334 0.333333 0.333333 0.333333 0.333334 0.333333 0.333333 0.333334 0.333333 0.333333 0.333333 0.333334 0.333334 0.333333 0.333333 0.333333 0.333334 0.333333 0.333334 0.333333 0.333333 0.5 0.25 0.25 0.333333 0.333334 0.333333 0.333333 0.333334 0.333333 0.333333 0.333334 0.333333 0.333334 0.333333 0.333333 0.818182 0.090909 0.090909 0.333333 0.333334 0.333333 0.5 0.25 0.25 0.333333 0.333334 0.333333 0.636364 0.272727 0.090909 0.333334 0.333333 0.333333 0.333334 0.333333 0.333333 0.5 0.25 0.25 0.92 0.04 0.04 0.333333 0.333334 0.333333 0.333334 0.333333 0.333333 0.333333 0.333334 0.333333 0.333333 0.333334 0.333333 0.625 0.25 0.125 0.333333 0.333334 0.333333 0.333333 0.333334 0.333333 0.333333 0.333334 0.333333 0.333334 0.333333 0.333333 0.333334 0.333333 0.333333 0.333333 0.333333 0.333334 0.333333 0.333334 0.333333 0.333334 0.333333 0.333333 0.666666 0.166667 0.166667 0.333333 0.333334 0.333333 0.333334 0.333333 0.333333 0.333333 0.333334 0.333333 0.5 0.25 0.25 0.6 0.2 0.2 0.333333 0.333334 0.333333 0.333333 0.333334 0.333333 0.333333 0.333333 0.333334 0.333334 0.333333 0.333333 0.333334 0.333333 0.333333 0.5 0.25 0.25 0.333334 0.333333 0.333333 0.7 0.2 0.1 0.333334 0.333333 0.333333 0.333334 0.333333 0.333333 0.333333 0.333333 0.333334 0.333334 0.333333 0.333333 0.333333 0.333334 0.333333 0.333333 0.333333 0.333334 0.333334 0.333333 0.333333 0.333333 0.333334 0.333333 0.866666 0.066667 0.066667 0.333333 0.333333 0.333334 0.333333 0.333333 0.333334 0.333334 0.333333 0.333333 0.333333 0.333334 0.333333 0.333333 0.333334 0.333333 0.333334 0.333333 0.333333 0.333333 0.333334 0.333333 0.333333 0.333333 0.333334 0.333333 0.333333 0.333334 0.333333 0.333333 0.333334 0.333333 0.333333 0.333334 0.333334 0.333333 0.333333 0.333334 0.333333 0.333333 0.333333 0.333334 0.333333 0.333334 0.333333 0.333333 0.333333 0.333334 0.333333 0.333333 0.333334 0.333333 0.333333 0.333334 0.333333 0.333333 0.333333 0.333334 0.333333 0.333333 0.333334 0.333334 0.333333 0.333333 0.333333 0.333334 0.333333 0.333334 0.333333 0.333333 0.333333 0.333334 0.333333 0.333333 0.333333 0.333334 0.333333 0.333334 0.333333 0.333333 0.333333 0.333334 0.333333 0.333334 0.333333 0.333334 0.333333 0.333333 0.333333 0.333334 0.333333 0.333334 0.333333 0.333333 0.333334 0.333333 0.333333 0.333333 0.333334 0.333333 0.333333 0.333334 0.333333 0.333333 0.333334 0.333333 0.333333 0.333333 0.333334 0.333333 0.333334 0.333333 0.333333 0.333334 0.333333 0.333333 0.333333 0.333334 0.333333 0.333333 0.333334 0.333333 0.333334 0.333333 0.333333 0.333333 0.333334 0.333333 0.333334 0.333333 0.333333 0.333333 0.333334 0.333333 0.333334 0.333333 0.333333 0.333333 0.333334 0.333333 0.333333 0.333334 0.333333 0.333334 0.333333 0.333333 0.333334 0.333333 0.333333 0.333333 0.333334 0.333333 0.333333 0.333334 0.333333 0.333334 0.333333 0.333334 0.333333 0.333333 0.333333 0.333334 0.333333 0.333333 0.333333 0.333334 0.333333 0.333334 0.333333 0.333334 0.333333 0.333333 0.333333 0.333333 0.333334 0.333333 0.333334 0.333333 0.333333 0.333334 0.333333 0.333333 0.333333 0.333334 0.333333 0.333334 0.333333 0.333333 0.333334 0.333333 0.333333 0.333334 0.333333 0.333334 0.333333 0.333333 0.333334 0.333333 0.333333 0.333333 0.333333 0.333334 0.333333 0.333334 0.333333 0.333333 0.333334 0.333333 0.333334 0.333333 0.333333 0.333333 0.333333 0.333334 0.333333 0.333334 0.333333 0.333334 0.333333 0.333333 0.333333 0.333334 0.333333 0.333333 0.333334 0.333333 0.333333 0.333334 0.333333 0.333333 0.333333 0.333334 0.333333 0.333334 0.333333 0.333333 0.333334 0.333333 0.333333 0.333334 0.333333 0.333333 0.333334 0.333333 0.015625 0.9375 0.046875 0.333334 0.333333 0.333333 0.2 0.6 0.2 0.333333 0.333334 0.333333 0.005236 0.96335 0.031414 0.2 0.6 0.2 0.25 0.5 0.25 0.1 0.8 0.1 0.015873 0.973545 0.010582 0.009945 0.979005 0.01105 0.333333 0.333333 0.333334 0.333333 0.333334 0.333333 0.333333 0.333333 0.333334 0.333334 0.333333 0.333333 0.333334 0.333333 0.333333 0.333333 0.333333 0.333334 0.333334 0.333333 0.333333 0.333333 0.333334 0.333333 0.012407 0.977667 0.009926 0.333333 0.333334 0.333333 0.111111 0.777778 0.111111 0.333334 0.333333 0.333333 0.333333 0.333333 0.333334 0.333333 0.333334 0.333333 0.1 0.8 0.1 0.333333 0.333334 0.333333 0.024691 0.950618 0.024691 0.333333 0.333334 0.333333 0.333333 0.333334 0.333333 0.333333 0.333333 0.333334 0.333334 0.333333 0.333333 0.017182 0.975945 0.006873 0.333333 0.333333 0.333334 0.333334 0.333333 0.333333 0.333333 0.333334 0.333333 0.333334 0.333333 0.333333 0.012048 0.975904 0.012048 0.333333 0.333334 0.333333 0.117647 0.823529 0.058824 0.333333 0.333333 0.333334 0.002521 0.989076 0.008403 0.076923 0.846154 0.076923 0.125 0.75 0.125 0.038462 0.923076 0.038462 0.002101 0.995798 0.002101 0.333333 0.333334 0.333333 0.333334 0.333333 0.333333 0.333333 0.333334 0.333333 0.333334 0.333333 0.333333 0.005671 0.988658 0.005671 0.125 0.75 0.125 0.333333 0.333333 0.333334 0.083333 0.833334 0.083333 0.019231 0.961538 0.019231 0.333334 0.333333 0.333333 0.333334 0.333333 0.333333 0.333333 0.333334 0.333333 0.333333 0.333334 0.333333 0.023985 0.97417 0.001845 0.428572 0.285714 0.285714 0.333334 0.333333 0.333333 0.0625 0.875 0.0625 0.113043 0.843479 0.043478 0.001613 0.98871 0.009677 0.333333 0.333333 0.333334 0.030303 0.909091 0.060606 0.333333 0.333334 0.333333 0.333333 0.333334 0.333333 0.333333 0.333334 0.333333 0.030303 0.939394 0.030303 0.333334 0.333333 0.333333 0.021516 0.967214 0.01127 0.041667 0.916666 0.041667 0.333333 0.333333 0.333334 0.071429 0.857142 0.071429 0.333333 0.333334 0.333333 0.023256 0.953488 0.023256 0.125 0.75 0.125 0.142857 0.714286 0.142857 0.142857 0.714286 0.142857 0.01087 0.981884 0.007246 0.021739 0.945652 0.032609 0.333333 0.333334 0.333333 0.2 0.6 0.2 0.333333 0.333334 0.333333 0.027972 0.944056 0.027972 0.333334 0.333333 0.333333 0.2 0.6 0.2 0.2 0.6 0.2 0.02521 0.94958 0.02521 0.012821 0.976495 0.010684 0.333334 0.333333 0.333333 0.333333 0.333334 0.333333 0.333333 0.333334 0.333333 0.333333 0.333333 0.333334 0.333334 0.333333 0.333333 0.333333 0.333334 0.333333 0.333334 0.333333 0.333333 0.333333 0.333333 0.333334 0.018277 0.966057 0.015666 0.333333 0.333334 0.333333 0.333333 0.333334 0.333333 0.333333 0.333334 0.333333 0.333334 0.333333 0.333333 0.333333 0.333334 0.333333 0.125 0.75 0.125 0.333333 0.333333 0.333334 0.047619 0.904762 0.047619 0.333333 0.333334 0.333333 0.333333 0.333333 0.333334 0.333333 0.333334 0.333333 0.333334 0.333333 0.333333 0.023474 0.962441 0.014085 0.333334 0.333333 0.333333 0.333334 0.333333 0.333333 0.333333 0.333334 0.333333 0.333333 0.333334 0.333333 0.014085 0.97183 0.014085 0.333333 0.333333 0.333334 0.166667 0.666666 0.166667 0.333333 0.333334 0.333333 0.00381 0.988571 0.007619 0.142857 0.714286 0.142857 0.333333 0.333334 0.333333 0.041667 0.916666 0.041667 0.002762 0.986188 0.01105 0.333334 0.333333 0.333333 0.333333 0.333334 0.333333 0.333333 0.333333 0.333334 0.333333 0.333334 0.333333 0.004938 0.990124 0.004938 0.142857 0.714286 0.142857 0.333333 0.333334 0.333333 0.076923 0.846154 0.076923 0.037037 0.925926 0.037037 0.333333 0.333333 0.333334 0.333333 0.333334 0.333333 0.333333 0.333333 0.333334 0.333334 0.333333 0.333333 0.039773 0.954545 0.005682 0.2 0.6 0.2 0.333333 0.333334 0.333333 0.142857 0.714286 0.142857 0.021739 0.956522 0.021739 0.013123 0.963255 0.023622 0.333333 0.333334 0.333333 0.055556 0.833333 0.111111 0.333333 0.333334 0.333333 0.333334 0.333333 0.333333 0.333333 0.333333 0.333334 0.133333 0.8 0.066667 0.333334 0.333333 0.333333 0.005025 0.98995 0.005025 0.058824 0.882352 0.058824 0.333334 0.333333 0.333333 0.071429 0.857142 0.071429 0.333333 0.333334 0.333333 0.0625 0.875 0.0625 0.2 0.6 0.2 0.2 0.6 0.2 0.2 0.6 0.2 0.006652 0.988913 0.004435 0.052632 0.921052 0.026316 0.333334 0.333333 0.333333 0.2 0.6 0.2 0.333333 0.333334 0.333333 0.02 0.96 0.02 0.2 0.6 0.2 0.25 0.5 0.25 0.25 0.5 0.25 0.00885 0.955752 0.035398 0.00431 0.982759 0.012931 0.333333 0.333334 0.333333 0.333333 0.333334 0.333333 0.333333 0.333333 0.333334 0.333333 0.333333 0.333334 0.333333 0.333334 0.333333 0.333333 0.333334 0.333333 0.333334 0.333333 0.333333 0.333333 0.333334 0.333333 0.013333 0.933334 0.053333 0.333333 0.333333 0.333334 0.125 0.75 0.125 0.333333 0.333333 0.333334 0.333333 0.333334 0.333333 0.333333 0.333334 0.333333 0.111111 0.777778 0.111111 0.333333 0.333334 0.333333 0.011111 0.977778 0.011111 0.333333 0.333334 0.333333 0.333333 0.333334 0.333333 0.333333 0.333333 0.333334 0.333333 0.333333 0.333334 0.008 0.976 0.016 0.333333 0.333333 0.333334 0.333334 0.333333 0.333333 0.333333 0.333334 0.333333 0.333333 0.333333 0.333334 0.0625 0.875 0.0625 0.333333 0.333333 0.333334 0.25 0.5 0.25 0.333334 0.333333 0.333333 0.009709 0.980582 0.009709 0.166667 0.666666 0.166667 0.333334 0.333333 0.333333 0.083333 0.833334 0.083333 0.010309 0.984536 0.005155 0.333333 0.333334 0.333333 0.333334 0.333333 0.333333 0.333333 0.333334 0.333333 0.333333 0.333334 0.333333 0.006211 0.968944 0.024845 0.25 0.5 0.25 0.333333 0.333333 0.333334 0.111111 0.777778 0.111111 0.058824 0.882352 0.058824 0.333333 0.333334 0.333333 0.333333 0.333334 0.333333 0.333334 0.333333 0.333333 0.333333 0.333333 0.333334 0.010753 0.978494 0.010753 0.333334 0.333333 0.333333 0.333333 0.333334 0.333333 0.25 0.5 0.25 0.027027 0.945946 0.027027 0.018018 0.963964 0.018018 0.333333 0.333334 0.333333 0.090909 0.818182 0.090909 0.333333 0.333334 0.333333 0.333333 0.333334 0.333333 0.333334 0.333333 0.333333 0.090909 0.818182 0.090909 0.333333 0.333333 0.333334 0.010204 0.969388 0.020408 0.166667 0.666666 0.166667 0.333333 0.333334 0.333333 0.1 0.8 0.1 0.333333 0.333334 0.333333 0.142857 0.571429 0.285714 0.333333 0.333334 0.333333 0.2 0.6 0.2 0.333333 0.333333 0.333334 0.01005 0.974875 0.015075 0.017544 0.964912 0.017544 0.333333 0.333334 0.333333 0.25 0.5 0.25 0.333334 0.333333 0.333333 0.029412 0.941176 0.029412 0.333333 0.333334 0.333333 0.2 0.6 0.2 0.142857 0.714286 0.142857 0.004673 0.976635 0.018692 0.009804 0.98366 0.006536 0.333334 0.333333 0.333333 0.333333 0.333334 0.333333 0.333333 0.333333 0.333334 0.333333 0.333334 0.333333 0.333334 0.333333 0.333333 0.333333 0.333334 0.333333 0.333333 0.333334 0.333333 0.333333 0.333334 0.333333 0.004237 0.987288 0.008475 0.333334 0.333333 0.333333 0.333334 0.333333 0.333333 0.333333 0.333334 0.333333 0.333333 0.333334 0.333333 0.333333 0.333334 0.333333 0.2 0.6 0.2 0.333333 0.333334 0.333333 0.030303 0.939394 0.030303 0.333333 0.333334 0.333333 0.333333 0.333334 0.333333 0.333334 0.333333 0.333333 0.333334 0.333333 0.333333 0.006452 0.987096 0.006452 0.333334 0.333333 0.333333 0.333333 0.333333 0.333334 0.333333 0.333334 0.333333 0.333333 0.333334 0.333333 0.027027 0.945946 0.027027 0.333333 0.333334 0.333333 0.142857 0.714286 0.142857 0.333333 0.333333 0.333334 0.008889 0.984444 0.006667 0.333333 0.333334 0.333333 0.333333 0.333334 0.333333 0.090909 0.818182 0.090909 0.005747 0.988506 0.005747 0.333334 0.333333 0.333333 0.333334 0.333333 0.333333 0.333334 0.333333 0.333333 0.333333 0.333334 0.333333 0.005236 0.973822 0.020942 0.166667 0.666666 0.166667 0.333333 0.333334 0.333333 0.111111 0.777778 0.111111 0.043478 0.913044 0.043478 0.333333 0.333333 0.333334 0.333333 0.333334 0.333333 0.333333 0.333333 0.333334 0.333333 0.333334 0.333333 0.009804 0.980392 0.009804 0.2 0.6 0.2 0.333333 0.333334 0.333333 0.166667 0.666666 0.166667 0.04 0.92 0.04 0.012579 0.937107 0.050314 0.333334 0.333333 0.333333 0.071429 0.857142 0.071429 0.333333 0.333334 0.333333 0.333333 0.333334 0.333333 0.333333 0.333333 0.333334 0.083333 0.833334 0.083333 0.333333 0.333333 0.333334 0.015 0.9825 0.0025 0.090909 0.818182 0.090909 0.333333 0.333334 0.333333 0.2 0.6 0.2 0.333333 0.333334 0.333333 0.05 0.9 0.05 0.25 0.5 0.25 0.142857 0.714286 0.142857 0.333334 0.333333 0.333333 0.007067 0.985866 0.007067 0.083333 0.833334 0.083333 0.333333 0.333334 0.333333 0.333333 0.333334 0.333333 0.333334 0.333333 0.333333 0.142857 0.714286 0.142857 0.333334 0.333333 0.333333 0.333333 0.333334 0.333333 0.333333 0.333334 0.333333 0.027027 0.945946 0.027027 0.012048 0.975904 0.012048 0.333334 0.333333 0.333333 0.333333 0.333333 0.333334 0.333333 0.333334 0.333333 0.333334 0.333333 0.333333 0.333333 0.333334 0.333333 0.333334 0.333333 0.333333 0.333333 0.333333 0.333334 0.333333 0.333334 0.333333 0.021277 0.957446 0.021277 0.333333 0.333333 0.333334 0.25 0.5 0.25 0.333334 0.333333 0.333333 0.333333 0.333334 0.333333 0.333333 0.333334 0.333333 0.333333 0.333334 0.333333 0.333333 0.333334 0.333333 0.2 0.6 0.2 0.333334 0.333333 0.333333 0.333333 0.333334 0.333333 0.333334 0.333333 0.333333 0.333333 0.333333 0.333334 0.045455 0.90909 0.045455 0.333334 0.333333 0.333333 0.333333 0.333334 0.333333 0.333333 0.333333 0.333334 0.333333 0.333334 0.333333 0.333333 0.333334 0.333333 0.333333 0.333334 0.333333 0.333333 0.333334 0.333333 0.333333 0.333334 0.333333 0.011765 0.97647 0.011765 0.25 0.5 0.25 0.333334 0.333333 0.333333 0.2 0.6 0.2 0.013158 0.973684 0.013158 0.333333 0.333334 0.333333 0.333334 0.333333 0.333333 0.333334 0.333333 0.333333 0.333333 0.333334 0.333333 0.019231 0.961538 0.019231 0.333333 0.333334 0.333333 0.333333 0.333333 0.333334 0.333334 0.333333 0.333333 0.333333 0.333333 0.333334 0.333333 0.333334 0.333333 0.333333 0.333333 0.333334 0.333333 0.333333 0.333334 0.333333 0.333334 0.333333 0.05 0.9 0.05 0.333333 0.333334 0.333333 0.333334 0.333333 0.333333 0.25 0.5 0.25 0.071429 0.857142 0.071429 0.041667 0.916666 0.041667 0.333333 0.333333 0.333334 0.2 0.6 0.2 0.333333 0.333333 0.333334 0.333333 0.333334 0.333333 0.333334 0.333333 0.333333 0.142857 0.714286 0.142857 0.333333 0.333334 0.333333 0.005348 0.989304 0.005348 0.2 0.6 0.2 0.333333 0.333334 0.333333 0.333333 0.333334 0.333333 0.333333 0.333333 0.333334 0.333333 0.333333 0.333334 0.25 0.5 0.25 0.333333 0.333334 0.333333 0.333333 0.333334 0.333333 0.016667 0.966666 0.016667 0.011111 0.066667 0.922222 0.333334 0.333333 0.333333 0.25 0.25 0.5 0.333333 0.333333 0.333334 0.014286 0.114286 0.871428 0.2 0.2 0.6 0.2 0.2 0.6 0.25 0.25 0.5 0.017241 0.068966 0.913793 0.003257 0.039088 0.957655 0.333333 0.333334 0.333333 0.333333 0.333334 0.333333 0.333333 0.333334 0.333333 0.333333 0.333334 0.333333 0.333334 0.333333 0.333333 0.333333 0.333334 0.333333 0.333334 0.333333 0.333333 0.333334 0.333333 0.333333 0.004525 0.027149 0.968326 0.333333 0.333333 0.333334 0.2 0.2 0.6 0.333333 0.333334 0.333333 0.333333 0.333333 0.333334 0.333333 0.333334 0.333333 0.142857 0.142857 0.714286 0.333333 0.333334 0.333333 0.055556 0.055556 0.888888 0.333334 0.333333 0.333333 0.333334 0.333333 0.333333 0.333334 0.333333 0.333333 0.333333 0.333334 0.333333 0.038462 0.038462 0.923076 0.333333 0.333334 0.333333 0.333333 0.333333 0.333334 0.333333 0.333333 0.333334 0.333333 0.333334 0.333333 0.125 0.125 0.75 0.333333 0.333333 0.333334 0.333333 0.333334 0.333333 0.333334 0.333333 0.333333 0.002717 0.027174 0.970109 0.25 0.25 0.5 0.333334 0.333333 0.333333 0.142857 0.142857 0.714286 0.015152 0.015152 0.969696 0.333333 0.333334 0.333333 0.333333 0.333334 0.333333 0.333334 0.333333 0.333333 0.333333 0.333333 0.333334 0.008621 0.043103 0.948276 0.333334 0.333333 0.333333 0.333334 0.333333 0.333333 0.333333 0.333333 0.333334 0.333333 0.333333 0.333334 0.333333 0.333334 0.333333 0.333333 0.333334 0.333333 0.333333 0.333334 0.333333 0.333334 0.333333 0.333333 0.007246 0.014493 0.978261 0.25 0.25 0.5 0.333333 0.333333 0.333334 0.333333 0.333333 0.333334 0.1 0.5 0.4 0.005952 0.029762 0.964286 0.333333 0.333333 0.333334 0.083333 0.166667 0.75 0.333334 0.333333 0.333333 0.333334 0.333333 0.333333 0.333333 0.333334 0.333333 0.111111 0.222222 0.666667 0.333333 0.333334 0.333333 0.006098 0.04878 0.945122 0.2 0.2 0.6 0.333333 0.333333 0.333334 0.25 0.25 0.5 0.333333 0.333334 0.333333 0.142857 0.142857 0.714286 0.333333 0.333333 0.333334 0.25 0.25 0.5 0.25 0.25 0.5 0.008403 0.033613 0.957984 0.015625 0.0625 0.921875 0.333333 0.333333 0.333334 0.333333 0.333334 0.333333 0.333333 0.333334 0.333333 0.012821 0.038462 0.948717 0.333333 0.333333 0.333334 0.333333 0.333333 0.333334 0.2 0.2 0.6 0.008197 0.02459 0.967213 0.005405 0.027027 0.967568 0.333334 0.333333 0.333333 0.333333 0.333333 0.333334 0.333333 0.333334 0.333333 0.333333 0.333334 0.333333 0.333333 0.333334 0.333333 0.333333 0.333333 0.333334 0.333333 0.333333 0.333334 0.333333 0.333334 0.333333 0.005263 0.031579 0.963158 0.333333 0.333334 0.333333 0.25 0.25 0.5 0.333333 0.333334 0.333333 0.333333 0.333333 0.333334 0.333333 0.333334 0.333333 0.166667 0.166667 0.666666 0.333333 0.333333 0.333334 0.041667 0.041667 0.916666 0.333333 0.333334 0.333333 0.333333 0.333334 0.333333 0.333333 0.333333 0.333334 0.333333 0.333333 0.333334 0.02 0.06 0.92 0.333333 0.333334 0.333333 0.333333 0.333334 0.333333 0.333333 0.333333 0.333334 0.333333 0.333333 0.333334 0.333333 0.333334 0.333333 0.333333 0.333333 0.333334 0.333333 0.333334 0.333333 0.333333 0.333334 0.333333 0.004831 0.043478 0.951691 0.25 0.25 0.5 0.333333 0.333333 0.333334 0.166667 0.166667 0.666666 0.035714 0.071429 0.892857 0.333334 0.333333 0.333333 0.333334 0.333333 0.333333 0.333333 0.333334 0.333333 0.333333 0.333334 0.333333 0.009346 0.018692 0.971962 0.333334 0.333333 0.333333 0.333333 0.333333 0.333334 0.333333 0.333334 0.333333 0.333333 0.333333 0.333334 0.333333 0.333334 0.333333 0.333334 0.333333 0.333333 0.333333 0.333333 0.333334 0.333333 0.333334 0.333333 0.009709 0.009709 0.980582 0.333334 0.333333 0.333333 0.333333 0.333334 0.333333 0.333333 0.333334 0.333333 0.125 0.125 0.75 0.006211 0.049689 0.9441 0.333333 0.333334 0.333333 0.142857 0.142857 0.714286 0.333333 0.333334 0.333333 0.333333 0.333334 0.333333 0.333334 0.333333 0.333333 0.1 0.1 0.8 0.333334 0.333333 0.333333 0.004149 0.024896 0.970955 0.125 0.125 0.75 0.333333 0.333334 0.333333 0.166667 0.166667 0.666666 0.333333 0.333333 0.333334 0.333333 0.333334 0.333333 0.25 0.25 0.5 0.25 0.25 0.5 0.2 0.2 0.6 0.004464 0.008929 0.986607 0.022222 0.044444 0.933334 0.333333 0.333333 0.333334 0.25 0.25 0.5 0.333333 0.333334 0.333333 0.038462 0.038462 0.923076 0.25 0.5 0.25 0.25 0.25 0.5 0.25 0.25 0.5 0.011628 0.023256 0.965116 0.007812 0.023438 0.96875 0.333333 0.333333 0.333334 0.333334 0.333333 0.333333 0.333334 0.333333 0.333333 0.333333 0.333333 0.333334 0.333333 0.333334 0.333333 0.333333 0.333334 0.333333 0.333333 0.333334 0.333333 0.333333 0.333333 0.333334 0.014286 0.071429 0.914285 0.333333 0.333334 0.333333 0.333334 0.333333 0.333333 0.333333 0.333333 0.333334 0.333333 0.333334 0.333333 0.333334 0.333333 0.333333 0.2 0.2 0.6 0.333333 0.333334 0.333333 0.125 0.125 0.75 0.333333 0.333334 0.333333 0.333333 0.333334 0.333333 0.333333 0.333334 0.333333 0.333333 0.333333 0.333334 0.045455 0.045455 0.90909 0.333333 0.333333 0.333334 0.333334 0.333333 0.333333 0.333333 0.333334 0.333333 0.333333 0.333334 0.333333 0.333334 0.333333 0.333333 0.333333 0.333334 0.333333 0.333334 0.333333 0.333333 0.333333 0.333334 0.333333 0.004082 0.016327 0.979591 0.333333 0.333333 0.333334 0.333333 0.333334 0.333333 0.142857 0.142857 0.714286 0.013514 0.013514 0.972972 0.333333 0.333334 0.333333 0.333333 0.333333 0.333334 0.333333 0.333334 0.333333 0.333333 0.333334 0.333333 0.022222 0.088889 0.888889 0.333334 0.333333 0.333333 0.333333 0.333333 0.333334 0.333333 0.333334 0.333333 0.166667 0.166667 0.666666 0.333333 0.333333 0.333334 0.333334 0.333333 0.333333 0.333333 0.333333 0.333334 0.333333 0.333333 0.333334 0.022222 0.022222 0.955556 0.333334 0.333333 0.333333 0.333334 0.333333 0.333333 0.333333 0.333333 0.333334 0.055556 0.055556 0.888888 0.014706 0.073529 0.911765 0.333333 0.333333 0.333334 0.142857 0.142857 0.714286 0.333334 0.333333 0.333333 0.333334 0.333333 0.333333 0.333334 0.333333 0.333333 0.166667 0.166667 0.666666 0.333333 0.333334 0.333333 0.017544 0.070175 0.912281 0.25 0.25 0.5 0.333333 0.333333 0.333334 0.333333 0.333334 0.333333 0.333334 0.333333 0.333333 0.25 0.25 0.5 0.333333 0.333334 0.333333 0.333333 0.333334 0.333333 0.333333 0.333334 0.333333 0.015385 0.015385 0.96923 0.333333 0.333334 0.333333 0.333333 0.333333 0.333334 0.333334 0.333333 0.333333 0.333334 0.333333 0.333333 0.25 0.25 0.5 0.25 0.25 0.5 0.333334 0.333333 0.333333 0.333333 0.333334 0.333333 0.083333 0.083333 0.833334 0.058824 0.058824 0.882352 0.333333 0.333333 0.333334 0.333333 0.333334 0.333333 0.333333 0.333334 0.333333 0.333333 0.333333 0.333334 0.333333 0.333334 0.333333 0.333333 0.333333 0.333334 0.333333 0.333334 0.333333 0.333333 0.333333 0.333334 0.1 0.1 0.8 0.333333 0.333333 0.333334 0.25 0.25 0.5 0.333334 0.333333 0.333333 0.333333 0.333334 0.333333 0.333333 0.333334 0.333333 0.333333 0.333333 0.333334 0.333333 0.333334 0.333333 0.058824 0.058824 0.882352 0.333334 0.333333 0.333333 0.333334 0.333333 0.333333 0.333333 0.333334 0.333333 0.333334 0.333333 0.333333 0.166667 0.166667 0.666666 0.333333 0.333334 0.333333 0.333333 0.333333 0.333334 0.333333 0.333334 0.333333 0.333333 0.333333 0.333334 0.333333 0.333334 0.333333 0.333333 0.333334 0.333333 0.333333 0.333333 0.333334 0.333333 0.333333 0.333334 0.02381 0.071429 0.904761 0.333333 0.333334 0.333333 0.333333 0.333334 0.333333 0.25 0.25 0.5 0.166667 0.166667 0.666666 0.333333 0.333333 0.333334 0.333334 0.333333 0.333333 0.333333 0.333333 0.333334 0.333333 0.333333 0.333334 0.047619 0.190476 0.761905 0.333333 0.333333 0.333334 0.333333 0.333333 0.333334 0.333333 0.333333 0.333334 0.333334 0.333333 0.333333 0.333333 0.333334 0.333333 0.333333 0.333334 0.333333 0.333333 0.333334 0.333333 0.333333 0.333333 0.333334 0.125 0.125 0.75 0.333333 0.333334 0.333333 0.333333 0.333334 0.333333 0.333333 0.333334 0.333333 0.333333 0.333334 0.333333 0.04 0.16 0.8 0.333333 0.333334 0.333333 0.333333 0.333333 0.333334 0.333333 0.333334 0.333333 0.333334 0.333333 0.333333 0.333333 0.333333 0.333334 0.25 0.25 0.5 0.333333 0.333334 0.333333 0.0625 0.125 0.8125 0.333334 0.333333 0.333333 0.333333 0.333334 0.333333 0.333333 0.333334 0.333333 0.333334 0.333333 0.333333 0.333333 0.333334 0.333333 0.333333 0.333334 0.333333 0.333333 0.333333 0.333334 0.333333 0.333334 0.333333 0.2 0.2 0.6 0.333333 0.333334 0.333333 0.333333 0.333333 0.333334 0.333333 0.333334 0.333333 0.333333 0.333334 0.333333 0.333333 0.333334 0.333333 0.333333 0.333333 0.333334 0.333333 0.333334 0.333333 0.333333 0.333333 0.333334 0.333334 0.333333 0.333333 0.333333 0.333334 0.333333 0.333334 0.333333 0.333333 0.333333 0.333334 0.333333 0.333334 0.333333 0.333333 0.333333 0.333334 0.333333 0.333334 0.333333 0.333333 0.333333 0.333334 0.333333 0.333333 0.333334 0.333333 0.333334 0.333333 0.333333 0.333333 0.333334 0.333333 0.333333 0.333334 0.333333 0.333333 0.333333 0.333334 0.333333 0.333334 0.333333 0.333334 0.333333 0.333333 0.333334 0.333333 0.333333 0.333333 0.333333 0.333334 0.333333 0.333333 0.333334 0.333334 0.333333 0.333333 0.333333 0.333334 0.333333 0.333333 0.333334 0.333333 0.333333 0.333334 0.333333 0.333333 0.333334 0.333333 0.333333 0.333333 0.333334 0.333334 0.333333 0.333333 0.333333 0.333333 0.333334 0.333333 0.333334 0.333333 0.333334 0.333333 0.333333 0.333333 0.333333 0.333334 0.333334 0.333333 0.333333 0.333333 0.333334 0.333333 0.333333 0.333334 0.333333 0.333334 0.333333 0.333333 0.333334 0.333333 0.333333 0.333333 0.333333 0.333334 0.333334 0.333333 0.333333 0.333334 0.333333 0.333333 0.333333 0.333334 0.333333 0.333334 0.333333 0.333333 0.333333 0.333334 0.333333 0.333333 0.333333 0.333334 0.333333 0.333333 0.333334 0.333333 0.333334 0.333333 0.333333 0.333334 0.333333 0.333333 0.333334 0.333333 0.333333 0.333333 0.333334 0.333334 0.333333 0.333333 0.333333 0.333333 0.333334 0.333333 0.333333 0.333334 0.333333 0.333334 0.333333 0.333334 0.333333 0.333333 0.333333 0.333333 0.333334 0.333334 0.333333 0.333333 0.333334 0.333333 0.333333 0.333333 0.333334 0.333333 0.333333 0.333334 0.333333 0.333334 0.333333 0.333333 0.333333 0.333334 0.333333 0.333333 0.333333 0.333334 0.333334 0.333333 0.333333 0.333334 0.333333 0.333333 0.333334 0.333333 0.333333 0.333333 0.333334 0.333333 0.333333 0.333333 0.333334 0.333334 0.333333 0.333333 0.333333 0.333334 0.333333 0.333334 0.333333 0.333333 0.333333 0.333334 0.333333 0.333333 0.333334 0.333333 0.333333 0.333333 0.333334 0.333333 0.333333 0.333334 0.333333 0.333333 0.333334 0.333333 0.333334 0.333333</TABLE>
</DEFINITION>
<DEFINITION>
	<FOR>near_level(frames0,cars0)</FOR>
	<GIVEN>car_in_frame(frames0,cars0)</GIVEN>
	<GIVEN>car_in_frame(frames1,cars0)</GIVEN>
	<GIVEN>ego_frame(frames0,ego_cars0)</GIVEN>
	<GIVEN>ego_frame(frames1,ego_cars0)</GIVEN>
	<GIVEN>Lane(frames0,cars0)</GIVEN>
	<GIVEN>Lane(frames1,cars0)</GIVEN>
	<GIVEN>near_level(frames1,cars0)</GIVEN>
	<GIVEN>Speed(frames1,cars0)</GIVEN>
	<GIVEN>Speed(frames1,ego_cars0)</GIVEN>
	<GIVEN>speed_diff(frames0,cars0)</GIVEN>
	<GIVEN>speed_diff(frames1,cars0)</GIVEN>
	<TABLE> 0.997616 0.000596 0.000596 0.000596 0.000596 0.2 0.2 0.2 0.2 0.2 0.993068 0.001733 0.001733 0.001733 0.001733 0.2 0.2 0.2 0.2 0.2 0.748594 0.16556 0.084824 0.000511 0.000511 0.211312 0.629221 0.157895 0.000786 0.000786 0.2 0.2 0.2 0.2 0.2 0.988668 0.002833 0.002833 0.002833 0.002833 0.95152 0.048069 0.000137 0.000137 0.000137 0.400088 0.440053 0.155598 0.004114 0.000147 0.2 0.2 0.2 0.2 0.2 0.2 0.2 0.2 0.2 0.2 0.066667 0.422222 0.466667 0.022222 0.022222 0.2 0.2 0.2 0.2 0.2 0.2 0.2 0.2 0.2 0.2 0.718508 0.270936 0.009148 0.000704 0.000704 0.2 0.2 0.2 0.2 0.2 0.2 0.2 0.2 0.2 0.2 0.44714 0.336568 0.210419 0.005618 0.000255 0.2 0.2 0.2 0.2 0.2 0.983804 0.004049 0.004049 0.004049 0.004049 0.2 0.2 0.2 0.2 0.2 0.2 0.2 0.2 0.2 0.2 0.968752 0.007812 0.007812 0.007812 0.007812 0.740586 0.253138 0.002092 0.002092 0.002092 0.2 0.2 0.2 0.2 0.2 0.992972 0.001757 0.001757 0.001757 0.001757 0.2 0.2 0.2 0.2 0.2 0.2 0.2 0.2 0.2 0.2 0.2 0.2 0.2 0.2 0.2 0.2 0.2 0.2 0.2 0.2 0.479417 0.294859 0.212921 0.012606 0.000197 0.2 0.2 0.2 0.2 0.2 0.2 0.2 0.2 0.2 0.2 0.004975 0.9801 0.004975 0.004975 0.004975 0.2 0.2 0.2 0.2 0.2 0.142857 0.642856 0.071429 0.071429 0.071429 0.492956 0.464789 0.014085 0.014085 0.014085 0.235294 0.720588 0.014706 0.014706 0.014706 0.2 0.2 0.2 0.2 0.2 0.709457 0.224576 0.063056 0.002749 0.000162 0.378514 0.328815 0.251506 0.040663 0.000502 0.111111 0.555556 0.111111 0.111111 0.111111 0.844531 0.067194 0.085639 0.001318 0.001318 0.930085 0.06951 0.000135 0.000135 0.000135 0.2 0.2 0.2 0.2 0.2 0.862068 0.034483 0.034483 0.034483 0.034483 0.2 0.2 0.2 0.2 0.2 0.2 0.2 0.2 0.2 0.2 0.548614 0.397712 0.045755 0.007479 0.00044 0.12782 0.458646 0.338346 0.067669 0.007519 0.2 0.2 0.2 0.2 0.2 0.264344 0.609631 0.123975 0.001025 0.001025 0.932224 0.063939 0.001279 0.001279 0.001279 0.2 0.2 0.2 0.2 0.2 0.004717 0.004717 0.004717 0.981132 0.004717 0.2 0.2 0.2 0.2 0.2 0.2 0.2 0.2 0.2 0.2 0.619427 0.249236 0.129505 0.001527 0.000305 0.476825 0.371608 0.150731 0.000418 0.000418 0.2 0.2 0.2 0.2 0.2 0.766395 0.005572 0.177883 0.049721 0.000429 0.998164 0.000459 0.000459 0.000459 0.000459 0.826436 0.171839 0.000575 0.000575 0.000575 0.2 0.2 0.2 0.2 0.2 0.721133 0.277136 0.000577 0.000577 0.000577 0.267606 0.342723 0.380281 0.004695 0.004695 0.2 0.2 0.2 0.2 0.2 0.125364 0.467444 0.343052 0.063168 0.000972 0.725571 0.272911 0.000506 0.000506 0.000506 0.2 0.2 0.2 0.2 0.2 0.774329 0.225377 0.000098 0.000098 0.000098 0.846152 0.115385 0.012821 0.012821 0.012821 0.2 0.2 0.2 0.2 0.2 0.821535 0.175474 0.000997 0.000997 0.000997 0.2 0.2 0.2 0.2 0.2 0.670926 0.319489 0.003195 0.003195 0.003195 0.671719 0.292752 0.034581 0.000474 0.000474 0.914285 0.057143 0.009524 0.009524 0.009524 0.995116 0.001221 0.001221 0.001221 0.001221 0.940774 0.058839 0.000129 0.000129 0.000129 0.118934 0.702664 0.17784 0.000281 0.000281 0.2 0.2 0.2 0.2 0.2 0.116574 0.810056 0.072626 0.000372 0.000372 0.2 0.2 0.2 0.2 0.2 0.324826 0.457077 0.215777 0.00116 0.00116 0.005988 0.808383 0.173653 0.005988 0.005988 0.001076 0.75027 0.246502 0.001076 0.001076 0.873499 0.123228 0.001091 0.001091 0.001091 0.114818 0.713118 0.17141 0.000327 0.000327 0.158729 0.731873 0.107123 0.002204 0.000071 0.2 0.2 0.2 0.2 0.2 0.2 0.2 0.2 0.2 0.2 0.027193 0.704386 0.266667 0.000877 0.000877 0.2 0.2 0.2 0.2 0.2 0.2 0.2 0.2 0.2 0.2 0.019368 0.898527 0.081263 0.000421 0.000421 0.2 0.2 0.2 0.2 0.2 0.2 0.2 0.2 0.2 0.2 0.132463 0.749941 0.116888 0.000629 0.000079 0.2 0.2 0.2 0.2 0.2 0.170695 0.800603 0.02568 0.001511 0.001511 0.002247 0.991012 0.002247 0.002247 0.002247 0.2 0.2 0.2 0.2 0.2 0.003413 0.658703 0.317406 0.017065 0.003413 0.000403 0.844883 0.153908 0.000403 0.000403 0.2 0.2 0.2 0.2 0.2 0.00077 0.992301 0.005389 0.00077 0.00077 0.2 0.2 0.2 0.2 0.2 0.2 0.2 0.2 0.2 0.2 0.2 0.2 0.2 0.2 0.2 0.2 0.2 0.2 0.2 0.2 0.280711 0.432471 0.280352 0.006286 0.00018 0.2 0.2 0.2 0.2 0.2 0.2 0.2 0.2 0.2 0.2 0.695568 0.298651 0.001927 0.001927 0.001927 0.2 0.2 0.2 0.2 0.2 0.107143 0.785714 0.083333 0.011905 0.011905 0.146988 0.701204 0.142169 0.007229 0.00241 0.027855 0.345404 0.621169 0.002786 0.002786 0.2 0.2 0.2 0.2 0.2 0.194209 0.474387 0.297996 0.033185 0.000223 0.355904 0.468895 0.174355 0.000423 0.000423 0.0125 0.825 0.1375 0.0125 0.0125 0.601526 0.234155 0.15669 0.007042 0.000587 0.149009 0.729723 0.12074 0.000264 0.000264 0.2 0.2 0.2 0.2 0.2 0.236641 0.740457 0.007634 0.007634 0.007634 0.010753 0.612902 0.354839 0.010753 0.010753 0.2 0.2 0.2 0.2 0.2 0.398612 0.478877 0.116476 0.005733 0.000302 0.008547 0.247863 0.726496 0.008547 0.008547 0.2 0.2 0.2 0.2 0.2 0.162702 0.682209 0.153187 0.000951 0.000951 0.004695 0.492957 0.492958 0.004695 0.004695 0.2 0.2 0.2 0.2 0.2 0.00096 0.99616 0.00096 0.00096 0.00096 0.00369 0.98524 0.00369 0.00369 0.00369 0.2 0.2 0.2 0.2 0.2 0.140691 0.601445 0.250496 0.007226 0.000142 0.039755 0.951071 0.003058 0.003058 0.003058 0.2 0.2 0.2 0.2 0.2 0.432341 0.507727 0.059178 0.000377 0.000377 0.003891 0.968872 0.019455 0.003891 0.003891 0.163855 0.781327 0.053614 0.000602 0.000602 0.2 0.2 0.2 0.2 0.2 0.180896 0.779082 0.038954 0.000534 0.000534 0.006452 0.344086 0.64516 0.002151 0.002151 0.2 0.2 0.2 0.2 0.2 0.002242 0.38565 0.607624 0.002242 0.002242 0.185352 0.604788 0.199155 0.010423 0.000282 0.2 0.2 0.2 0.2 0.2 0.147586 0.56903 0.268484 0.014806 0.000094 0.031142 0.875433 0.086505 0.00346 0.00346 0.035714 0.857144 0.035714 0.035714 0.035714 0.084997 0.867514 0.044465 0.002722 0.000302 0.007634 0.351145 0.625953 0.007634 0.007634 0.007752 0.387597 0.565891 0.031008 0.007752 0.000665 0.588158 0.399867 0.010645 0.000665 0.002375 0.805227 0.187648 0.002375 0.002375 0.009615 0.96154 0.009615 0.009615 0.009615 0.164212 0.667171 0.158431 0.010048 0.000138 0.235465 0.406977 0.331395 0.023256 0.002907 0.2 0.2 0.2 0.2 0.2 0.014558 0.834266 0.135498 0.014558 0.00112 0.028571 0.085714 0.828573 0.028571 0.028571 0.005102 0.545918 0.438776 0.005102 0.005102 0.010526 0.073684 0.894738 0.010526 0.010526 0.019608 0.019608 0.490196 0.45098 0.019608 0.86266 0.124464 0.004292 0.004292 0.004292 0.000452 0.236438 0.732369 0.030289 0.000452 0.105041 0.215777 0.636575 0.042396 0.000211 0.2 0.2 0.2 0.2 0.2 0.2 0.2 0.2 0.2 0.2 0.003413 0.003413 0.78157 0.208191 0.003413 0.2 0.2 0.2 0.2 0.2 0.2 0.2 0.2 0.2 0.2 0.000927 0.071362 0.71455 0.212234 0.000927 0.2 0.2 0.2 0.2 0.2 0.2 0.2 0.2 0.2 0.2 0.174023 0.328444 0.475664 0.021736 0.000133 0.2 0.2 0.2 0.2 0.2 0.2 0.2 0.2 0.2 0.2 0.012987 0.012987 0.753247 0.207792 0.012987 0.2 0.2 0.2 0.2 0.2 0.2 0.2 0.2 0.2 0.2 0.00114 0.22691 0.586089 0.184721 0.00114 0.2 0.2 0.2 0.2 0.2 0.008403 0.008403 0.966388 0.008403 0.008403 0.2 0.2 0.2 0.2 0.2 0.2 0.2 0.2 0.2 0.2 0.2 0.2 0.2 0.2 0.2 0.2 0.2 0.2 0.2 0.2 0.309009 0.381479 0.294917 0.014092 0.000503 0.2 0.2 0.2 0.2 0.2 0.2 0.2 0.2 0.2 0.2 0.862068 0.034483 0.034483 0.034483 0.034483 0.2 0.2 0.2 0.2 0.2 0.020833 0.145833 0.791668 0.020833 0.020833 0.104101 0.550473 0.266562 0.077287 0.001577 0.001546 0.517774 0.25966 0.219474 0.001546 0.2 0.2 0.2 0.2 0.2 0.098355 0.353757 0.514996 0.03257 0.000322 0.355808 0.202275 0.432982 0.008123 0.000812 0.003425 0.681506 0.308219 0.003425 0.003425 0.293491 0.269822 0.330178 0.105917 0.000592 0.000118 0.227444 0.677503 0.094817 0.000118 0.2 0.2 0.2 0.2 0.2 0.049931 0.370319 0.435506 0.142857 0.001387 0.006757 0.52027 0.277027 0.189189 0.006757 0.2 0.2 0.2 0.2 0.2 0.162153 0.29078 0.498067 0.048678 0.000322 0.260674 0.310112 0.42472 0.002247 0.002247 0.2 0.2 0.2 0.2 0.2 0.291304 0.31884 0.312319 0.076812 0.000725 0.002008 0.407631 0.556224 0.032129 0.002008 0.2 0.2 0.2 0.2 0.2 0.013514 0.945944 0.013514 0.013514 0.013514 0.2 0.2 0.2 0.2 0.2 0.2 0.2 0.2 0.2 0.2 0.136598 0.436672 0.416605 0.009941 0.000184 0.2 0.2 0.2 0.2 0.2 0.2 0.2 0.2 0.2 0.2 0.373857 0.51554 0.108775 0.000914 0.000914 0.2 0.2 0.2 0.2 0.2 0.000721 0.081471 0.903388 0.013699 0.000721 0.2 0.2 0.2 0.2 0.2 0.000683 0.196721 0.80123 0.000683 0.000683 0.004367 0.248908 0.737991 0.004367 0.004367 0.2 0.2 0.2 0.2 0.2 0.120205 0.329923 0.544756 0.002558 0.002558 0.001021 0.213483 0.70378 0.080695 0.001021 0.2 0.2 0.2 0.2 0.2 0.000171 0.291909 0.701433 0.006316 0.000171 0.006757 0.013514 0.878377 0.094595 0.006757 0.2 0.2 0.2 0.2 0.2 0.001205 0.186747 0.721686 0.089157 0.001205 0.2 0.2 0.2 0.2 0.2 0.005 0.38 0.605 0.005 0.005 0.003906 0.25 0.679688 0.0625 0.003906 0.016949 0.050847 0.237288 0.677967 0.016949 0.011236 0.011236 0.955056 0.011236 0.011236 0.000401 0.291851 0.65275 0.054597 0.000401 0.076923 0.076923 0.384616 0.384615 0.076923 0.2 0.2 0.2 0.2 0.2 0.058824 0.058824 0.411763 0.411765 0.058824 0.028571 0.085714 0.828573 0.028571 0.028571 0.2 0.2 0.2 0.2 0.2 0.02 0.08 0.86 0.02 0.02 0.019608 0.019608 0.490196 0.45098 0.019608 0.2 0.2 0.2 0.2 0.2 0.013514 0.013514 0.499999 0.459459 0.013514 0.00369 0.01845 0.822878 0.151292 0.00369 0.2 0.2 0.2 0.2 0.2 0.2 0.2 0.2 0.2 0.2 0.009901 0.009901 0.762376 0.207921 0.009901 0.2 0.2 0.2 0.2 0.2 0.2 0.2 0.2 0.2 0.2 0.009901 0.089109 0.643564 0.247525 0.009901 0.2 0.2 0.2 0.2 0.2 0.2 0.2 0.2 0.2 0.2 0.275281 0.191011 0.44382 0.08427 0.005618 0.2 0.2 0.2 0.2 0.2 0.2 0.2 0.2 0.2 0.2 0.034483 0.034483 0.689654 0.206897 0.034483 0.2 0.2 0.2 0.2 0.2 0.2 0.2 0.2 0.2 0.2 0.071429 0.071429 0.285714 0.499999 0.071429 0.2 0.2 0.2 0.2 0.2 0.2 0.2 0.2 0.2 0.2 0.2 0.2 0.2 0.2 0.2 0.2 0.2 0.2 0.2 0.2 0.2 0.2 0.2 0.2 0.2 0.2 0.2 0.2 0.2 0.2 0.285714 0.228571 0.400001 0.057143 0.028571 0.2 0.2 0.2 0.2 0.2 0.2 0.2 0.2 0.2 0.2 0.2 0.2 0.2 0.2 0.2 0.2 0.2 0.2 0.2 0.2 0.011628 0.011628 0.011628 0.953488 0.011628 0.011765 0.011765 0.717646 0.247059 0.011765 0.007042 0.260563 0.274648 0.450705 0.007042 0.870293 0.004184 0.117155 0.004184 0.004184 0.087533 0.328912 0.477454 0.103448 0.002653 0.477367 0.020576 0.452675 0.045267 0.004115 0.004717 0.004717 0.768868 0.216981 0.004717 0.757427 0.00495 0.108911 0.123762 0.00495 0.000705 0.161495 0.677716 0.159379 0.000705 0.2 0.2 0.2 0.2 0.2 0.04 0.04 0.64 0.24 0.04 0.2 0.2 0.2 0.2 0.2 0.2 0.2 0.2 0.2 0.2 0.117949 0.364103 0.441025 0.071795 0.005128 0.2 0.2 0.2 0.2 0.2 0.2 0.2 0.2 0.2 0.2 0.071429 0.071429 0.285714 0.499999 0.071429 0.2 0.2 0.2 0.2 0.2 0.2 0.2 0.2 0.2 0.2 0.2 0.2 0.2 0.2 0.2 0.111111 0.111111 0.333334 0.333333 0.111111 0.2 0.2 0.2 0.2 0.2 0.243421 0.355263 0.355263 0.039474 0.006579 0.05 0.1 0.75 0.05 0.05 0.2 0.2 0.2 0.2 0.2 0.041667 0.833332 0.041667 0.041667 0.041667 0.035714 0.035714 0.464287 0.428571 0.035714 0.009091 0.009091 0.881818 0.090909 0.009091 0.2 0.2 0.2 0.2 0.2 0.003704 0.003704 0.888888 0.1 0.003704 0.2 0.2 0.2 0.2 0.2 0.2 0.2 0.2 0.2 0.2 0.034483 0.034483 0.689654 0.206897 0.034483 0.022727 0.022727 0.022727 0.909092 0.022727 0.2 0.2 0.2 0.2 0.2 0.009524 0.009524 0.038095 0.933333 0.009524 0.2 0.2 0.2 0.2 0.2 0.2 0.2 0.2 0.2 0.2 0.003484 0.003484 0.850175 0.139373 0.003484 0.2 0.2 0.2 0.2 0.2 0.2 0.2 0.2 0.2 0.2 0.008197 0.032787 0.819671 0.131148 0.008197 0.2 0.2 0.2 0.2 0.2 0.2 0.2 0.2 0.2 0.2 0.005587 0.005587 0.256983 0.726256 0.005587 0.2 0.2 0.2 0.2 0.2 0.2 0.2 0.2 0.2 0.2 0.2 0.2 0.2 0.2 0.2 0.2 0.2 0.2 0.2 0.2 0.2 0.2 0.2 0.2 0.2 0.2 0.2 0.2 0.2 0.2 0.2 0.2 0.2 0.2 0.2 0.2 0.2 0.2 0.2 0.2 0.2 0.2 0.2 0.2 0.2 0.2 0.2 0.2 0.2 0.2 0.2 0.2 0.2 0.2 0.2 0.2 0.2 0.2 0.2 0.2 0.2 0.2 0.2 0.2 0.2 0.2 0.2 0.2 0.2 0.2 0.2 0.2 0.2 0.2 0.2 0.2 0.2 0.2 0.2 0.2 0.2 0.2 0.2 0.2 0.2 0.2 0.2 0.2 0.2 0.2 0.2 0.2 0.2 0.2 0.2 0.2 0.2 0.2 0.2 0.2 0.2 0.2 0.2 0.2 0.2 0.2 0.2 0.2 0.2 0.2 0.2 0.2 0.2 0.2 0.2 0.2 0.2 0.2 0.2 0.2 0.2 0.2 0.2 0.2 0.2 0.2 0.2 0.2 0.2 0.2 0.2 0.2 0.2 0.2 0.2 0.2 0.2 0.2 0.2 0.2 0.2 0.2 0.2 0.2 0.2 0.2 0.2 0.2 0.2 0.2 0.2 0.2 0.2 0.2 0.2 0.2 0.2 0.2 0.2 0.2 0.2 0.2 0.2 0.2 0.2 0.2 0.2 0.2 0.2 0.2 0.2 0.2 0.2 0.2 0.2 0.2 0.2 0.2 0.2 0.2 0.2 0.2 0.2 0.2 0.2 0.2 0.2 0.2 0.2 0.2 0.2 0.2 0.2 0.2 0.2 0.2 0.2 0.2 0.2 0.2 0.2 0.2 0.2 0.2 0.2 0.2 0.2 0.2 0.2 0.2 0.2 0.2 0.2 0.2 0.2 0.2 0.2 0.2 0.2 0.2 0.2 0.2 0.2 0.2 0.2 0.2 0.2 0.2 0.2 0.2 0.2 0.2 0.2 0.2 0.2 0.2 0.2 0.2 0.2 0.2 0.2 0.2 0.2 0.2 0.2 0.2 0.2 0.2 0.2 0.2 0.2 0.2 0.2 0.2 0.2 0.2 0.2 0.2 0.2 0.2 0.2 0.2 0.2 0.2 0.2 0.2 0.2 0.2 0.2 0.2 0.2 0.2 0.2 0.2 0.2 0.2 0.2 0.2 0.2 0.2 0.2 0.2 0.2 0.2 0.2 0.2 0.2 0.2 0.2 0.2 0.2 0.2 0.2 0.2 0.2 0.2 0.2 0.2 0.2 0.2 0.2 0.2 0.2 0.2 0.2 0.2 0.2 0.2 0.2 0.2 0.2 0.2 0.2 0.2 0.2 0.2 0.2 0.2 0.2 0.2 0.2 0.2 0.2 0.2 0.2 0.2 0.2 0.2 0.2 0.2 0.2 0.2 0.2 0.2 0.2 0.2 0.2 0.2 0.2 0.2 0.2 0.2 0.2 0.2 0.2 0.2 0.2 0.2 0.2 0.2 0.2 0.2 0.2 0.2 0.2 0.2 0.2 0.2 0.2 0.2 0.2 0.2 0.2 0.2 0.2 0.2 0.2 0.2 0.2 0.2 0.2 0.2 0.2 0.2 0.2 0.2 0.2 0.2 0.2 0.2 0.2 0.2 0.2 0.2 0.2 0.2 0.2 0.2 0.2 0.2 0.2 0.2 0.2 0.2 0.2 0.2 0.2 0.2 0.2 0.2 0.2 0.2 0.2 0.2 0.2 0.478132 0.163825 0.312083 0.045219 0.000741 0.2 0.2 0.2 0.2 0.2 0.5 0.125 0.125 0.125 0.125 0.970372 0.007407 0.007407 0.007407 0.007407 0.2 0.2 0.2 0.2 0.2 0.932204 0.016949 0.016949 0.016949 0.016949 0.972972 0.006757 0.006757 0.006757 0.006757 0.84 0.04 0.04 0.04 0.04 0.955556 0.011111 0.011111 0.011111 0.011111 0.27266 0.679543 0.047301 0.000248 0.000248 0.2 0.2 0.2 0.2 0.2 0.2 0.2 0.2 0.2 0.2 0.95122 0.012195 0.012195 0.012195 0.012195 0.2 0.2 0.2 0.2 0.2 0.2 0.2 0.2 0.2 0.2 0.63958 0.358005 0.000805 0.000805 0.000805 0.2 0.2 0.2 0.2 0.2 0.2 0.2 0.2 0.2 0.2 0.251324 0.639788 0.10771 0.000589 0.000589 0.2 0.2 0.2 0.2 0.2 0.636364 0.090909 0.090909 0.090909 0.090909 0.979168 0.005208 0.005208 0.005208 0.005208 0.2 0.2 0.2 0.2 0.2 0.934428 0.016393 0.016393 0.016393 0.016393 0.958218 0.039694 0.000696 0.000696 0.000696 0.2 0.2 0.2 0.2 0.2 0.9774 0.00565 0.00565 0.00565 0.00565 0.2 0.2 0.2 0.2 0.2 0.764704 0.058824 0.058824 0.058824 0.058824 0.2 0.2 0.2 0.2 0.2 0.2 0.2 0.2 0.2 0.2 0.374723 0.416851 0.186253 0.019956 0.002217 0.2 0.2 0.2 0.2 0.2 0.2 0.2 0.2 0.2 0.2 0.00885 0.9646 0.00885 0.00885 0.00885 0.2 0.2 0.2 0.2 0.2 0.130435 0.739131 0.043478 0.043478 0.043478 0.058824 0.058824 0.411763 0.411765 0.058824 0.090909 0.687499 0.107955 0.107955 0.005682 0.2 0.2 0.2 0.2 0.2 0.769058 0.130045 0.096413 0.002242 0.002242 0.533557 0.033557 0.426174 0.003356 0.003356 0.076923 0.692308 0.076923 0.076923 0.076923 0.627551 0.005102 0.188776 0.173469 0.005102 0.614509 0.086771 0.15505 0.142248 0.001422 0.2 0.2 0.2 0.2 0.2 0.076923 0.076923 0.384616 0.384615 0.076923 0.034483 0.034483 0.448275 0.448276 0.034483 0.2 0.2 0.2 0.2 0.2 0.383764 0.501845 0.107011 0.00369 0.00369 0.010526 0.073684 0.894738 0.010526 0.010526 0.2 0.2 0.2 0.2 0.2 0.548387 0.368421 0.042445 0.039049 0.001698 0.330189 0.004717 0.344339 0.316038 0.004717 0.2 0.2 0.2 0.2 0.2 0.764704 0.058824 0.058824 0.058824 0.058824 0.714284 0.071429 0.071429 0.071429 0.071429 0.2 0.2 0.2 0.2 0.2 0.410579 0.450881 0.13686 0.00084 0.00084 0.147436 0.561699 0.289263 0.000801 0.000801 0.2 0.2 0.2 0.2 0.2 0.759426 0.109515 0.127469 0.001795 0.001795 0.98556 0.00361 0.00361 0.00361 0.00361 0.766821 0.073086 0.157773 0.00116 0.00116 0.2 0.2 0.2 0.2 0.2 0.498127 0.385768 0.05618 0.05618 0.003745 0.981044 0.004739 0.004739 0.004739 0.004739 0.2 0.2 0.2 0.2 0.2 0.42328 0.042328 0.52381 0.005291 0.005291 0.822293 0.029887 0.146204 0.000808 0.000808 0.2 0.2 0.2 0.2 0.2 0.854309 0.097128 0.02517 0.023097 0.000296 0.862068 0.034483 0.034483 0.034483 0.034483 0.2 0.2 0.2 0.2 0.2 0.558693 0.395245 0.022288 0.022288 0.001486 0.2 0.2 0.2 0.2 0.2 0.428572 0.142857 0.142857 0.142857 0.142857 0.137731 0.495372 0.364583 0.001157 0.001157 0.973856 0.006536 0.006536 0.006536 0.006536 0.2 0.2 0.2 0.2 0.2 0.748498 0.175682 0.039297 0.036061 0.000462 0.308431 0.227321 0.404483 0.058698 0.001067 0.2 0.2 0.2 0.2 0.2 0.2 0.2 0.2 0.2 0.2 0.2 0.2 0.2 0.2 0.2 0.00578 0.421965 0.560695 0.00578 0.00578 0.2 0.2 0.2 0.2 0.2 0.034483 0.862068 0.034483 0.034483 0.034483 0.822581 0.129032 0.016129 0.016129 0.016129 0.001497 0.994012 0.001497 0.001497 0.001497 0.182796 0.753101 0.063275 0.000414 0.000414 0.2 0.2 0.2 0.2 0.2 0.2 0.2 0.2 0.2 0.2 0.2 0.2 0.2 0.2 0.2 0.2 0.2 0.2 0.2 0.2 0.2 0.2 0.2 0.2 0.2 0.341959 0.512016 0.142329 0.001848 0.001848 0.2 0.2 0.2 0.2 0.2 0.2 0.2 0.2 0.2 0.2 0.210588 0.654449 0.133799 0.000582 0.000582 0.2 0.2 0.2 0.2 0.2 0.3 0.3225 0.3725 0.0025 0.0025 0.2 0.2 0.2 0.2 0.2 0.2 0.2 0.2 0.2 0.2 0.2 0.2 0.2 0.2 0.2 0.389091 0.605455 0.001818 0.001818 0.001818 0.2 0.2 0.2 0.2 0.2 0.561798 0.404494 0.011236 0.011236 0.011236 0.2 0.2 0.2 0.2 0.2 0.2 0.2 0.2 0.2 0.2 0.2 0.2 0.2 0.2 0.2 0.2 0.2 0.2 0.2 0.2 0.772973 0.167568 0.027027 0.027027 0.005405 0.2 0.2 0.2 0.2 0.2 0.2 0.2 0.2 0.2 0.2 0.00625 0.00625 0.975 0.00625 0.00625 0.2 0.2 0.2 0.2 0.2 0.2 0.2 0.2 0.2 0.2 0.037037 0.166667 0.388888 0.388889 0.018519 0.12 0.82 0.02 0.02 0.02 0.2 0.2 0.2 0.2 0.2 0.44 0.04 0.512728 0.003636 0.003636 0.219373 0.002849 0.720798 0.054131 0.002849 0.2 0.2 0.2 0.2 0.2 0.327684 0.014124 0.341808 0.313559 0.002825 0.8 0.022581 0.175269 0.001075 0.001075 0.2 0.2 0.2 0.2 0.2 0.089109 0.678219 0.113861 0.113861 0.00495 0.2 0.2 0.2 0.2 0.2 0.2 0.2 0.2 0.2 0.2 0.051163 0.153488 0.753489 0.037209 0.004651 0.2 0.2 0.2 0.2 0.2 0.2 0.2 0.2 0.2 0.2 0.068768 0.197708 0.381089 0.34957 0.002865 0.2 0.2 0.2 0.2 0.2 0.2 0.2 0.2 0.2 0.2 0.2 0.2 0.2 0.2 0.2 0.2 0.2 0.2 0.2 0.2 0.2 0.2 0.2 0.2 0.2 0.172414 0.479885 0.345785 0.000958 0.000958 0.59375 0.3125 0.03125 0.03125 0.03125 0.2 0.2 0.2 0.2 0.2 0.739349 0.002506 0.253133 0.002506 0.002506 0.2 0.2 0.2 0.2 0.2 0.172446 0.478913 0.346767 0.000937 0.000937 0.2 0.2 0.2 0.2 0.2 0.218227 0.779265 0.000836 0.000836 0.000836 0.948052 0.012987 0.012987 0.012987 0.012987 0.2 0.2 0.2 0.2 0.2 0.014706 0.544117 0.411765 0.014706 0.014706 0.118812 0.391089 0.488119 0.00099 0.00099 0.2 0.2 0.2 0.2 0.2 0.144144 0.853399 0.000819 0.000819 0.000819 0.500001 0.392857 0.035714 0.035714 0.035714 0.2 0.2 0.2 0.2 0.2 0.252519 0.745591 0.00063 0.00063 0.00063 0.2 0.2 0.2 0.2 0.2 0.2 0.2 0.2 0.2 0.2 0.15873 0.460318 0.349206 0.015873 0.015873 0.487806 0.439024 0.02439 0.02439 0.02439 0.2 0.2 0.2 0.2 0.2 0.277812 0.720343 0.000615 0.000615 0.000615 0.311538 0.215385 0.407693 0.061538 0.003846 0.2 0.2 0.2 0.2 0.2 0.008696 0.321739 0.652173 0.008696 0.008696 0.2 0.2 0.2 0.2 0.2 0.010753 0.956988 0.010753 0.010753 0.010753 0.2 0.2 0.2 0.2 0.2 0.2 0.2 0.2 0.2 0.2 0.2 0.2 0.2 0.2 0.2 0.2 0.2 0.2 0.2 0.2 0.405093 0.159722 0.416666 0.016204 0.002315 0.2 0.2 0.2 0.2 0.2 0.2 0.2 0.2 0.2 0.2 0.025 0.4 0.525 0.025 0.025 0.2 0.2 0.2 0.2 0.2 0.2 0.2 0.2 0.2 0.2 0.002381 0.002381 0.990476 0.002381 0.002381 0.2 0.2 0.2 0.2 0.2 0.2 0.2 0.2 0.2 0.2 0.079179 0.457477 0.402737 0.059629 0.000978 0.2 0.2 0.2 0.2 0.2 0.000693 0.240305 0.726453 0.031856 0.000693 0.003623 0.014493 0.775362 0.202899 0.003623 0.2 0.2 0.2 0.2 0.2 0.004525 0.004525 0.77828 0.208145 0.004525 0.001089 0.733116 0.191721 0.072985 0.001089 0.2 0.2 0.2 0.2 0.2 0.001905 0.367619 0.523809 0.104762 0.001905 0.2 0.2 0.2 0.2 0.2 0.130435 0.739131 0.043478 0.043478 0.043478 0.2 0.2 0.2 0.2 0.2 0.2 0.2 0.2 0.2 0.2 0.902912 0.067961 0.009709 0.009709 0.009709 0.2 0.2 0.2 0.2 0.2 0.2 0.2 0.2 0.2 0.2 0.022727 0.204545 0.727274 0.022727 0.022727 0.2 0.2 0.2 0.2 0.2 0.125 0.125 0.5 0.125 0.125 0.04 0.04 0.44 0.44 0.04 0.166667 0.166667 0.333332 0.166667 0.166667 0.2 0.2 0.2 0.2 0.2 0.00625 0.05625 0.8875 0.04375 0.00625 0.00274 0.00274 0.923287 0.068493 0.00274 0.01087 0.01087 0.95652 0.01087 0.01087 0.006061 0.006061 0.642423 0.339394 0.006061 0.004 0.004 0.984 0.004 0.004 0.2 0.2 0.2 0.2 0.2 0.116883 0.844156 0.012987 0.012987 0.012987 0.2 0.2 0.2 0.2 0.2 0.2 0.2 0.2 0.2 0.2 0.573099 0.216374 0.146199 0.05848 0.005848 0.2 0.2 0.2 0.2 0.2 0.2 0.2 0.2 0.2 0.2 0.003509 0.115789 0.873684 0.003509 0.003509 0.2 0.2 0.2 0.2 0.2 0.2 0.2 0.2 0.2 0.2 0.2 0.2 0.2 0.2 0.2 0.00113 0.326554 0.670056 0.00113 0.00113 0.2 0.2 0.2 0.2 0.2 0.076923 0.692308 0.076923 0.076923 0.076923 0.2 0.2 0.2 0.2 0.2 0.2 0.2 0.2 0.2 0.2 0.862068 0.034483 0.034483 0.034483 0.034483 0.2 0.2 0.2 0.2 0.2 0.004202 0.004202 0.974789 0.012605 0.004202 0.2 0.2 0.2 0.2 0.2 0.034483 0.034483 0.862068 0.034483 0.034483 0.016393 0.409836 0.540985 0.016393 0.016393 0.2 0.2 0.2 0.2 0.2 0.010417 0.416667 0.552082 0.010417 0.010417 0.003571 0.003571 0.985716 0.003571 0.003571 0.2 0.2 0.2 0.2 0.2 0.002941 0.002941 0.988236 0.002941 0.002941 0.2 0.2 0.2 0.2 0.2 0.2 0.2 0.2 0.2 0.2 0.004608 0.004608 0.944701 0.041475 0.004608 0.052632 0.368421 0.473683 0.052632 0.052632 0.2 0.2 0.2 0.2 0.2 0.188732 0.323944 0.48169 0.002817 0.002817 0.047619 0.047619 0.809524 0.047619 0.047619 0.2 0.2 0.2 0.2 0.2 0.002299 0.002299 0.990804 0.002299 0.002299 0.2 0.2 0.2 0.2 0.2 0.2 0.2 0.2 0.2 0.2 0.005988 0.005988 0.976048 0.005988 0.005988 0.2 0.2 0.2 0.2 0.2 0.2 0.2 0.2 0.2 0.2 0.2 0.2 0.2 0.2 0.2 0.2 0.2 0.2 0.2 0.2 0.2 0.2 0.2 0.2 0.2 0.2 0.2 0.2 0.2 0.2 0.073519 0.069236 0.739472 0.117059 0.000714 0.2 0.2 0.2 0.2 0.2 0.2 0.2 0.2 0.2 0.2 0.003717 0.003717 0.780671 0.208178 0.003717 0.2 0.2 0.2 0.2 0.2 0.2 0.2 0.2 0.2 0.2 0.002208 0.055188 0.792493 0.147903 0.002208 0.2 0.2 0.2 0.2 0.2 0.2 0.2 0.2 0.2 0.2 0.148438 0.285807 0.48112 0.083984 0.000651 0.2 0.2 0.2 0.2 0.2 0.009524 0.009524 0.723809 0.247619 0.009524 0.003413 0.003413 0.78157 0.208191 0.003413 0.2 0.2 0.2 0.2 0.2 0.008 0.008 0.768 0.208 0.008 0.001062 0.608279 0.312102 0.077495 0.001062 0.2 0.2 0.2 0.2 0.2 0.02 0.02 0.32 0.62 0.02 0.2 0.2 0.2 0.2 0.2 0.115385 0.85577 0.009615 0.009615 0.009615 0.2 0.2 0.2 0.2 0.2 0.2 0.2 0.2 0.2 0.2 0.629371 0.13986 0.216783 0.006993 0.006993 0.2 0.2 0.2 0.2 0.2 0.2 0.2 0.2 0.2 0.2 0.020408 0.918368 0.020408 0.020408 0.020408 0.2 0.2 0.2 0.2 0.2 0.2 0.2 0.2 0.2 0.2 0.2 0.2 0.2 0.2 0.2 0.000725 0.000725 0.904279 0.093546 0.000725 0.826088 0.043478 0.043478 0.043478 0.043478 0.18958 0.154848 0.594791 0.059334 0.001447 0.585715 0.228571 0.085714 0.085714 0.014286 0.2 0.2 0.2 0.2 0.2 0.001208 0.001208 0.995168 0.001208 0.001208 0.001825 0.001825 0.281022 0.713503 0.001825 0.2 0.2 0.2 0.2 0.2 0.2 0.2 0.2 0.2 0.2 0.008065 0.008065 0.854837 0.120968 0.008065 0.2 0.2 0.2 0.2 0.2 0.229167 0.304924 0.4375 0.026515 0.001894 0.636364 0.090909 0.090909 0.090909 0.090909 0.2 0.2 0.2 0.2 0.2 0.002558 0.002558 0.989768 0.002558 0.002558 0.014925 0.014925 0.9403 0.014925 0.014925 0.2 0.2 0.2 0.2 0.2 0.004444 0.324444 0.662224 0.004444 0.004444 0.002262 0.205882 0.787332 0.002262 0.002262 0.2 0.2 0.2 0.2 0.2 0.313514 0.256757 0.427027 0.001351 0.001351 0.2 0.2 0.2 0.2 0.2 0.2 0.2 0.2 0.2 0.2 0.764704 0.058824 0.058824 0.058824 0.058824 0.2 0.2 0.2 0.2 0.2 0.004444 0.026667 0.871112 0.093333 0.004444 0.2 0.2 0.2 0.2 0.2 0.001333 0.004 0.934667 0.058667 0.001333 0.015385 0.56923 0.2 0.2 0.015385 0.2 0.2 0.2 0.2 0.2 0.005236 0.445026 0.513088 0.031414 0.005236 0.004425 0.048673 0.938052 0.004425 0.004425 0.2 0.2 0.2 0.2 0.2 0.000869 0.004344 0.868809 0.125109 0.000869 0.2 0.2 0.2 0.2 0.2 0.2 0.2 0.2 0.2 0.2 0.000898 0.012567 0.901256 0.084381 0.000898 0.2 0.2 0.2 0.2 0.2 0.2 0.2 0.2 0.2 0.2 0.009091 0.418182 0.554545 0.009091 0.009091 0.052632 0.052632 0.789472 0.052632 0.052632 0.2 0.2 0.2 0.2 0.2 0.001131 0.030543 0.804299 0.162896 0.001131 0.2 0.2 0.2 0.2 0.2 0.2 0.2 0.2 0.2 0.2 0.2 0.2 0.2 0.2 0.2 0.2 0.2 0.2 0.2 0.2 0.2 0.2 0.2 0.2 0.2 0.2 0.2 0.2 0.2 0.2 0.2 0.2 0.2 0.2 0.2 0.2 0.2 0.2 0.2 0.2 0.2 0.2 0.2 0.2 0.2 0.354839 0.419355 0.16129 0.032258 0.032258 0.2 0.2 0.2 0.2 0.2 0.2 0.2 0.2 0.2 0.2 0.2 0.2 0.2 0.2 0.2 0.2 0.2 0.2 0.2 0.2 0.2 0.2 0.2 0.2 0.2 0.2 0.2 0.2 0.2 0.2 0.2 0.2 0.2 0.2 0.2 0.2 0.2 0.2 0.2 0.2 0.2 0.2 0.2 0.2 0.2 0.2 0.2 0.2 0.2 0.2 0.2 0.2 0.2 0.2 0.2 0.2 0.2 0.2 0.2 0.2 0.2 0.2 0.2 0.2 0.2 0.2 0.2 0.2 0.2 0.2 0.2 0.2 0.2 0.2 0.2 0.2 0.2 0.2 0.2 0.2 0.2 0.2 0.2 0.2 0.2 0.2 0.2 0.2 0.2 0.2 0.125 0.78125 0.03125 0.03125 0.03125 0.2 0.2 0.2 0.2 0.2 0.2 0.2 0.2 0.2 0.2 0.733332 0.066667 0.066667 0.066667 0.066667 0.2 0.2 0.2 0.2 0.2 0.2 0.2 0.2 0.2 0.2 0.058824 0.764704 0.058824 0.058824 0.058824 0.2 0.2 0.2 0.2 0.2 0.2 0.2 0.2 0.2 0.2 0.2 0.2 0.2 0.2 0.2 0.2 0.2 0.2 0.2 0.2 0.2 0.2 0.2 0.2 0.2 0.2 0.2 0.2 0.2 0.2 0.2 0.2 0.2 0.2 0.2 0.2 0.2 0.2 0.2 0.2 0.2 0.2 0.2 0.2 0.2 0.2 0.2 0.2 0.2 0.2 0.2 0.2 0.2 0.2 0.2 0.2 0.2 0.2 0.2 0.2 0.2 0.2 0.2 0.2 0.2 0.2 0.2 0.2 0.2 0.2 0.2 0.2 0.2 0.2 0.2 0.2 0.2 0.2 0.2 0.2 0.2 0.2 0.2 0.2 0.2 0.2 0.2 0.2 0.2 0.2 0.2 0.2 0.2 0.2 0.2 0.2 0.2 0.2 0.2 0.2 0.2 0.2 0.2 0.2 0.2 0.2 0.2 0.2 0.2 0.2 0.2 0.2 0.2 0.2 0.2 0.2 0.2 0.2 0.2 0.2 0.2 0.2 0.2 0.2 0.2 0.2 0.2 0.2 0.2 0.2 0.2 0.2 0.2 0.2 0.2 0.2 0.2 0.2 0.2 0.2 0.2 0.2 0.2 0.2 0.2 0.2 0.2 0.2 0.2 0.2 0.007042 0.007042 0.957747 0.021127 0.007042 0.018182 0.563636 0.2 0.2 0.018182 0.2 0.2 0.2 0.2 0.2 0.2 0.2 0.2 0.2 0.2 0.013333 0.013333 0.946668 0.013333 0.013333 0.2 0.2 0.2 0.2 0.2 0.004184 0.004184 0.983264 0.004184 0.004184 0.2 0.2 0.2 0.2 0.2 0.2 0.2 0.2 0.2 0.2 0.003135 0.025078 0.877743 0.090909 0.003135 0.2 0.2 0.2 0.2 0.2 0.2 0.2 0.2 0.2 0.2 0.2 0.2 0.2 0.2 0.2 0.030303 0.030303 0.878788 0.030303 0.030303 0.2 0.2 0.2 0.2 0.2 0.003937 0.059055 0.929134 0.003937 0.003937 0.2 0.2 0.2 0.2 0.2 0.2 0.2 0.2 0.2 0.2 0.2 0.2 0.2 0.2 0.2 0.2 0.2 0.2 0.2 0.2 0.2 0.2 0.2 0.2 0.2 0.2 0.2 0.2 0.2 0.2 0.2 0.2 0.2 0.2 0.2 0.2 0.2 0.2 0.2 0.2 0.2 0.2 0.2 0.2 0.2 0.2 0.2 0.2 0.2 0.2 0.2 0.2 0.2 0.2 0.2 0.2 0.2 0.2 0.2 0.2 0.2 0.2 0.2 0.2 0.2 0.2 0.2 0.2 0.2 0.2 0.2 0.2 0.2 0.2 0.2 0.2 0.2 0.2 0.2 0.2 0.2 0.2 0.2 0.2 0.2 0.2 0.2 0.2 0.2 0.2 0.2 0.2 0.2 0.2 0.2 0.2 0.2 0.2 0.2 0.2 0.2 0.2 0.2 0.2 0.2 0.2 0.2 0.2 0.2 0.2 0.2 0.2 0.2 0.2 0.2 0.2 0.2 0.2 0.2 0.2 0.2 0.2 0.2 0.2 0.2 0.2 0.2 0.2 0.2 0.2 0.2 0.2 0.2 0.2 0.2 0.2 0.2 0.2 0.2 0.2 0.2 0.2 0.2 0.2 0.2 0.2 0.2 0.2 0.2 0.2 0.2 0.2 0.2 0.2 0.2 0.2 0.2 0.2 0.2 0.2 0.2 0.2 0.2 0.2 0.2 0.2 0.2 0.2 0.2 0.2 0.2 0.2 0.2 0.2 0.2 0.2 0.2 0.2 0.2 0.2 0.2 0.2 0.2 0.2 0.2 0.2 0.2 0.2 0.2 0.2 0.2 0.2 0.2 0.2 0.2 0.2 0.2 0.2 0.2 0.2 0.2 0.2 0.2 0.2 0.2 0.2 0.2 0.2 0.2 0.2 0.2 0.2 0.2 0.2 0.2 0.2 0.2 0.2 0.2 0.2 0.2 0.2 0.2 0.2 0.2 0.2 0.2 0.2 0.2 0.2 0.2 0.2 0.2 0.2 0.2 0.2 0.2 0.2 0.2 0.2 0.2 0.2 0.2 0.2 0.2 0.2 0.2 0.2 0.2 0.2 0.2 0.2 0.2 0.2 0.2 0.2 0.2 0.2 0.2 0.2 0.2 0.2 0.2 0.2 0.2 0.2 0.2 0.2 0.2 0.2 0.2 0.2 0.2 0.2 0.2 0.2 0.2 0.2 0.2 0.2 0.2 0.2 0.2 0.2 0.2 0.2 0.2 0.2 0.2 0.2 0.2 0.2 0.2 0.2 0.2 0.2 0.2 0.2 0.2 0.2 0.2 0.2 0.2 0.2 0.2 0.2 0.2 0.2 0.2 0.2 0.2 0.2 0.2 0.2 0.2 0.2 0.2 0.2 0.2 0.2 0.2 0.2 0.2 0.2 0.2 0.2 0.2 0.2 0.2 0.2 0.2 0.2 0.2 0.2 0.2 0.2 0.2 0.2 0.2 0.2 0.2 0.2 0.2 0.2 0.2 0.2 0.2 0.2 0.2 0.2 0.2 0.2 0.2 0.2 0.2 0.2 0.2 0.2 0.2 0.2 0.2 0.2 0.2 0.2 0.2 0.2 0.2 0.2 0.2 0.2 0.2 0.2 0.2 0.2 0.2 0.2 0.2 0.2 0.2 0.2 0.2 0.2 0.2 0.2 0.2 0.2 0.2 0.2 0.2 0.2 0.2 0.2 0.2 0.2 0.2 0.2 0.2 0.2 0.2 0.2 0.2 0.2 0.2 0.2 0.2 0.2 0.2 0.2 0.2 0.2 0.2 0.2 0.2 0.2 0.2 0.2 0.2 0.2 0.2 0.2 0.2 0.2 0.2 0.2 0.2 0.2 0.2 0.2 0.2 0.2 0.2 0.2 0.2 0.2 0.2 0.2 0.2 0.2 0.2 0.2 0.2 0.2 0.2 0.2 0.2 0.2 0.2 0.2 0.2 0.2 0.2 0.2 0.2 0.2 0.2 0.2 0.2 0.2 0.2 0.2 0.2 0.2 0.2 0.2 0.2 0.2 0.2 0.2 0.2 0.2 0.2 0.2 0.2 0.2 0.2 0.2 0.2 0.2 0.2 0.2 0.2 0.2 0.2 0.2 0.2 0.2 0.2 0.2 0.2 0.2 0.2 0.2 0.2 0.2 0.2 0.2 0.2 0.2 0.2 0.2 0.2 0.2 0.2 0.2 0.2 0.2 0.2 0.2 0.2 0.2 0.2 0.2 0.2 0.2 0.2 0.2 0.2 0.2 0.2 0.2 0.2 0.2 0.2 0.2 0.2 0.2 0.2 0.2 0.2 0.2 0.2 0.2 0.2 0.2 0.2 0.2 0.2 0.2 0.2 0.2 0.2 0.2 0.2 0.2 0.2 0.2 0.2 0.2 0.2 0.2 0.2 0.2 0.2 0.2 0.2 0.2 0.2 0.2 0.2 0.2 0.2 0.2 0.2 0.2 0.2 0.2 0.2 0.2 0.2 0.2 0.2 0.2 0.2 0.2 0.2 0.2 0.2 0.2 0.2 0.2 0.2 0.2 0.2 0.2 0.2 0.2 0.2 0.2 0.2 0.2 0.2 0.2 0.2 0.2 0.2 0.2 0.2 0.2 0.2 0.2 0.2 0.2 0.2 0.2 0.2 0.2 0.2 0.2 0.2 0.2 0.2 0.2 0.2 0.2 0.2 0.2 0.2 0.2 0.2 0.2 0.2 0.2 0.2 0.2 0.2 0.2 0.2 0.2 0.2 0.2 0.2 0.2 0.2 0.2 0.2 0.2 0.2 0.2 0.2 0.2 0.2 0.2 0.2 0.2 0.2 0.2 0.2 0.2 0.2 0.2 0.2 0.2 0.2 0.2 0.2 0.2 0.2 0.2 0.2 0.2 0.2 0.2 0.2 0.2 0.2 0.2 0.2 0.2 0.2 0.2 0.2 0.2 0.2 0.2 0.2 0.2 0.2 0.2 0.2 0.2 0.2 0.2 0.2 0.2 0.2 0.2 0.2 0.2 0.2 0.2 0.2 0.2 0.2 0.2 0.2 0.2 0.2 0.2 0.2 0.2 0.2 0.2 0.2 0.2 0.2 0.2 0.2 0.2 0.2 0.2 0.2 0.2 0.2 0.2 0.2 0.2 0.2 0.2 0.2 0.2 0.2 0.2 0.2 0.2 0.2 0.2 0.2 0.2 0.2 0.2 0.2 0.2 0.2 0.2 0.2 0.2 0.2 0.2 0.2 0.2 0.2 0.2 0.2 0.2 0.2 0.2 0.2 0.2 0.2 0.2 0.2 0.2 0.2 0.2 0.2 0.2 0.2 0.2 0.2 0.2 0.2 0.2 0.2 0.2 0.2 0.2 0.2 0.2 0.2 0.2 0.2 0.2 0.2 0.2 0.2 0.2 0.2 0.2 0.2 0.2 0.2 0.2 0.2 0.2 0.2 0.2 0.2 0.2 0.2 0.2 0.2 0.2 0.2 0.2 0.2 0.2 0.2 0.2 0.2 0.2 0.2 0.2 0.2 0.2 0.2 0.2 0.2 0.2 0.2 0.2 0.2 0.2 0.2 0.2 0.2 0.2 0.2 0.2 0.2 0.2 0.2 0.2 0.2 0.2 0.2 0.2 0.2 0.2 0.2 0.2 0.2 0.2 0.2 0.2 0.2 0.2 0.2 0.2 0.2 0.2 0.2 0.2 0.2 0.2 0.2 0.2 0.2 0.2 0.2 0.2 0.2 0.2 0.2 0.2 0.2 0.2 0.2 0.2 0.2 0.2 0.2 0.2 0.2 0.2 0.2 0.2 0.2 0.2 0.2 0.2 0.2 0.2 0.2 0.2 0.2 0.2 0.2 0.2 0.2 0.2 0.2 0.2 0.2 0.2 0.2 0.2 0.2 0.2 0.2 0.2 0.2 0.2 0.2 0.2 0.2 0.2 0.2 0.2 0.2 0.2 0.2 0.2 0.2 0.2 0.2 0.2 0.2 0.2 0.2 0.2 0.2 0.2 0.2 0.2 0.2 0.2 0.2 0.2 0.2 0.2 0.2 0.2 0.2 0.2 0.2 0.2 0.2 0.2 0.2 0.2 0.2 0.2 0.2 0.2 0.2 0.2 0.2 0.2 0.2 0.2 0.2 0.2 0.2 0.2 0.2 0.2 0.2 0.2 0.2 0.2 0.2 0.2 0.2 0.2 0.2 0.2 0.2 0.2 0.2 0.2 0.2 0.2 0.2 0.2 0.2 0.2 0.2 0.2 0.2 0.2 0.2 0.2 0.2 0.2 0.2 0.2 0.2 0.2 0.2 0.2 0.2 0.2 0.2 0.2 0.2 0.2 0.2 0.2 0.2 0.2 0.2 0.2 0.2 0.2 0.2 0.2 0.2 0.2 0.2 0.2 0.2 0.2 0.2 0.2 0.2 0.2 0.2 0.2 0.2 0.2 0.2 0.2 0.2 0.2 0.2 0.2 0.2 0.2 0.2 0.2 0.2 0.2 0.2 0.2 0.2 0.2 0.2 0.2 0.2 0.2 0.2 0.2 0.2 0.2 0.2 0.2 0.2 0.2 0.2 0.2 0.2 0.2 0.2 0.2 0.2 0.2 0.2 0.2 0.2 0.2 0.2 0.2 0.2 0.2 0.2 0.2 0.2 0.2 0.2 0.2 0.2 0.2 0.2 0.2 0.2 0.2 0.2 0.2 0.2 0.2 0.2 0.2 0.2 0.2 0.2 0.2 0.2 0.2 0.2 0.2 0.2 0.2 0.2 0.2 0.2 0.2 0.2 0.2 0.2 0.2 0.2 0.2 0.2 0.2 0.2 0.2 0.2 0.2 0.2 0.2 0.2 0.2 0.2 0.2 0.2 0.2 0.2 0.2 0.2 0.2 0.2 0.2 0.2 0.2 0.2 0.2 0.2 0.2 0.2 0.2 0.2 0.2 0.2 0.2 0.2 0.2 0.2 0.2 0.2 0.2 0.2 0.2 0.2 0.2 0.2 0.2 0.2 0.2 0.2 0.2 0.2 0.2 0.2 0.2 0.2 0.2 0.2 0.2 0.2 0.2 0.2 0.2 0.2 0.2 0.2 0.2 0.2 0.2 0.2 0.2 0.2 0.2 0.2 0.2 0.2 0.2 0.2 0.2 0.2 0.2 0.2 0.2 0.2 0.2 0.2 0.2 0.2 0.2 0.2 0.2 0.2 0.2 0.2 0.2 0.2 0.2 0.2 0.2 0.2 0.2 0.2 0.2 0.2 0.2 0.2 0.2 0.2 0.2 0.2 0.2 0.2 0.2 0.2 0.2 0.2 0.2 0.2 0.2 0.2 0.2 0.2 0.2 0.2 0.2 0.2 0.2 0.2 0.2 0.2 0.2 0.2 0.2 0.2 0.2 0.2 0.2 0.2 0.2 0.2 0.2 0.2 0.2 0.2 0.2 0.2 0.2 0.2 0.2 0.2 0.2 0.2 0.2 0.2 0.2 0.2 0.2 0.2 0.2 0.2 0.2 0.2 0.2 0.2 0.2 0.2 0.2 0.2 0.2 0.2 0.2 0.2 0.2 0.2 0.2 0.2 0.2 0.2 0.2 0.2 0.2 0.2 0.2 0.2 0.2 0.2 0.2 0.2 0.2 0.2 0.2 0.2 0.2 0.2 0.2 0.2 0.2 0.2 0.2 0.2 0.2 0.2 0.2 0.2 0.2 0.2 0.2 0.2 0.2 0.2 0.2 0.2 0.2 0.2 0.2 0.2 0.2 0.2 0.2 0.2 0.2 0.2 0.2 0.2 0.2 0.2 0.2 0.2 0.2 0.2 0.2 0.2 0.2 0.2 0.2 0.2 0.2 0.2 0.2 0.2 0.2 0.2 0.2 0.2 0.2 0.2 0.2 0.2 0.2 0.2 0.2 0.2 0.2 0.2 0.2 0.2 0.2 0.2 0.2 0.2 0.2 0.2 0.2 0.2 0.2 0.2 0.2 0.2 0.2 0.2 0.2 0.2 0.2 0.2 0.2 0.2 0.2 0.2 0.2 0.2 0.2 0.2 0.2 0.2 0.2 0.2 0.2 0.2 0.2 0.2 0.2 0.2 0.2 0.2 0.2 0.2 0.2 0.2 0.2 0.2 0.2 0.2 0.2 0.2 0.2 0.2 0.2 0.2 0.2 0.2 0.2 0.2 0.2 0.2 0.2 0.2 0.2 0.2 0.2 0.2 0.2 0.2 0.2 0.2 0.2 0.2 0.2 0.2 0.2 0.2 0.2 0.2 0.2 0.2 0.2 0.2 0.2 0.2 0.2 0.2 0.2 0.2 0.2 0.2 0.2 0.2 0.2 0.2 0.2 0.2 0.2 0.2 0.2 0.2 0.2 0.2 0.2 0.2 0.2 0.2 0.2 0.2 0.2 0.2 0.2 0.2 0.2 0.2 0.2 0.2 0.2 0.2 0.2 0.2 0.2 0.2 0.2 0.2 0.2 0.2 0.2 0.2 0.2 0.2 0.2 0.2 0.2 0.2 0.2 0.2 0.2 0.2 0.2 0.2 0.2 0.2 0.2 0.2 0.2 0.2 0.2 0.2 0.2 0.2 0.2 0.2 0.2 0.2 0.2 0.2 0.2 0.2 0.2 0.2 0.2 0.2 0.2 0.2 0.2 0.2 0.2 0.2 0.2 0.2 0.2 0.2 0.2 0.2 0.2 0.2 0.2 0.2 0.2 0.2 0.2 0.2 0.2 0.2 0.2 0.2 0.2 0.2 0.2 0.2 0.2 0.2 0.2 0.2 0.2 0.2 0.2 0.2 0.2 0.2 0.2 0.2 0.2 0.2 0.2 0.2 0.2 0.2 0.2 0.2 0.2 0.2 0.2 0.2 0.2 0.2 0.2 0.2 0.2 0.2 0.2 0.2 0.2 0.2 0.2 0.2 0.2 0.2 0.2 0.2 0.2 0.2 0.2 0.2 0.2 0.2 0.2 0.2 0.2 0.2 0.2 0.2 0.2 0.2 0.2 0.2 0.2 0.2 0.2 0.2 0.2 0.2 0.2 0.2 0.2 0.2 0.2 0.2 0.2 0.2 0.2 0.2 0.2 0.2 0.2 0.2 0.2 0.2 0.2 0.2 0.2 0.2 0.2 0.2 0.2 0.2 0.2 0.2 0.2 0.2 0.2 0.2 0.2 0.2 0.2 0.2 0.2 0.2 0.2 0.2 0.2 0.2 0.2 0.2 0.2 0.2 0.2 0.2 0.2 0.2 0.2 0.2 0.2 0.2 0.2 0.2 0.2 0.2 0.2 0.2 0.2 0.2 0.2 0.2 0.2 0.2 0.2 0.2 0.2 0.2 0.2 0.2 0.2 0.2 0.2 0.2 0.2 0.2 0.2 0.2 0.2 0.2 0.2 0.2 0.2 0.2 0.2 0.2 0.2 0.2 0.2 0.2 0.2 0.2 0.2 0.2 0.2 0.2 0.2 0.2 0.2 0.2 0.2 0.2 0.2 0.2 0.2 0.2 0.2 0.2 0.2 0.2 0.2 0.2 0.2 0.2 0.2 0.2 0.2 0.2 0.2 0.2 0.2 0.2 0.2 0.2 0.2 0.2 0.2 0.2 0.2 0.2 0.2 0.2 0.2 0.2 0.2 0.2 0.2 0.2 0.2 0.2 0.2 0.2 0.2 0.2 0.2 0.2 0.2 0.2 0.2 0.2 0.2 0.2 0.2 0.2 0.2 0.2 0.2 0.2 0.2 0.2 0.2 0.2 0.2 0.2 0.2 0.2 0.2 0.2 0.2 0.2 0.2 0.2 0.2 0.2 0.2 0.2 0.2 0.2 0.2 0.2 0.2 0.2 0.2 0.2 0.2 0.2 0.2 0.2 0.2 0.2 0.2 0.2 0.2 0.2 0.2 0.2 0.2 0.2 0.2 0.2 0.2 0.2 0.2 0.2 0.2 0.2 0.2 0.2 0.2 0.2 0.2 0.2 0.2 0.2 0.2 0.2 0.2 0.2 0.2 0.2 0.2 0.2 0.2 0.2 0.2 0.2 0.2 0.2 0.2 0.2 0.2 0.2 0.2 0.2 0.2 0.2 0.2 0.2 0.2 0.2 0.2 0.2 0.2 0.2 0.2 0.2 0.2 0.2 0.2 0.2 0.2 0.2 0.2 0.2 0.2 0.2 0.2 0.2 0.2 0.2 0.2 0.2 0.2 0.2 0.2 0.2 0.2 0.2 0.2 0.2 0.2 0.2 0.2 0.2 0.2 0.2 0.2 0.2 0.2 0.2 0.2 0.2 0.2 0.2 0.2 0.2 0.2 0.2 0.2 0.2 0.2 0.2 0.2 0.2 0.2 0.2 0.2 0.2 0.2 0.2 0.2 0.2 0.2 0.2 0.2 0.2 0.2 0.2 0.2 0.2 0.2 0.2 0.2 0.2 0.2 0.2 0.2 0.2 0.2 0.2 0.2 0.2 0.2 0.2 0.2 0.2 0.2 0.2 0.2 0.2 0.2 0.2 0.2 0.2 0.2 0.2 0.2 0.2 0.2 0.2 0.2 0.2 0.2 0.2 0.2 0.2 0.2 0.2 0.2 0.2 0.2 0.2 0.2 0.2 0.2 0.2 0.2 0.2 0.2 0.2 0.2 0.2 0.2 0.2 0.2 0.2 0.2 0.2 0.2 0.2 0.2 0.2 0.2 0.2 0.2 0.2 0.2 0.2 0.2 0.2 0.2 0.2 0.2 0.2 0.2 0.2 0.2 0.2 0.2 0.2 0.2 0.2 0.2 0.2 0.2 0.2 0.2 0.2 0.2 0.2 0.2 0.2 0.2 0.2 0.2 0.2 0.2 0.2 0.2 0.2 0.2 0.2 0.2 0.2 0.2 0.2 0.2 0.2 0.2 0.2 0.2 0.2 0.2 0.2 0.2 0.2 0.2 0.2 0.2 0.2 0.993276 0.001681 0.001681 0.001681 0.001681 0.977144 0.005714 0.005714 0.005714 0.005714 0.996184 0.000954 0.000954 0.000954 0.000954 0.2 0.2 0.2 0.2 0.2 0.002801 0.002801 0.033613 0.957984 0.002801 0.517565 0.456674 0.021077 0.002342 0.002342 0.2 0.2 0.2 0.2 0.2 0.421488 0.008264 0.55372 0.008264 0.008264 0.992972 0.001757 0.001757 0.001757 0.001757 0.542077 0.257377 0.092896 0.101639 0.006011 0.2 0.2 0.2 0.2 0.2 0.2 0.2 0.2 0.2 0.2 0.2 0.2 0.2 0.2 0.2 0.2 0.2 0.2 0.2 0.2 0.2 0.2 0.2 0.2 0.2 0.551724 0.433498 0.004926 0.004926 0.004926 0.2 0.2 0.2 0.2 0.2 0.2 0.2 0.2 0.2 0.2 0.548258 0.242627 0.11126 0.097185 0.00067 0.2 0.2 0.2 0.2 0.2 0.958332 0.010417 0.010417 0.010417 0.010417 0.862068 0.034483 0.034483 0.034483 0.034483 0.2 0.2 0.2 0.2 0.2 0.90244 0.02439 0.02439 0.02439 0.02439 0.862068 0.034483 0.034483 0.034483 0.034483 0.2 0.2 0.2 0.2 0.2 0.714284 0.071429 0.071429 0.071429 0.071429 0.2 0.2 0.2 0.2 0.2 0.866668 0.033333 0.033333 0.033333 0.033333 0.2 0.2 0.2 0.2 0.2 0.2 0.2 0.2 0.2 0.2 0.292135 0.321348 0.208989 0.152809 0.024719 0.2 0.2 0.2 0.2 0.2 0.2 0.2 0.2 0.2 0.2 0.75 0.0625 0.0625 0.0625 0.0625 0.2 0.2 0.2 0.2 0.2 0.428572 0.142857 0.142857 0.142857 0.142857 0.764704 0.058824 0.058824 0.058824 0.058824 0.636364 0.090909 0.090909 0.090909 0.090909 0.021277 0.404255 0.234043 0.255319 0.085106 0.467996 0.186344 0.11522 0.229018 0.001422 0.807229 0.156627 0.012048 0.012048 0.012048 0.64 0.24 0.04 0.04 0.04 0.671642 0.313433 0.004975 0.004975 0.004975 0.52 0.465 0.005 0.005 0.005 0.2 0.2 0.2 0.2 0.2 0.2 0.2 0.2 0.2 0.2 0.2 0.2 0.2 0.2 0.2 0.2 0.2 0.2 0.2 0.2 0.972412 0.006897 0.006897 0.006897 0.006897 0.722772 0.247525 0.009901 0.009901 0.009901 0.2 0.2 0.2 0.2 0.2 0.61702 0.319149 0.021277 0.021277 0.021277 0.37561 0.609756 0.004878 0.004878 0.004878 0.2 0.2 0.2 0.2 0.2 0.807378 0.14959 0.002049 0.038934 0.002049 0.961904 0.009524 0.009524 0.009524 0.009524 0.2 0.2 0.2 0.2 0.2 0.72636 0.25788 0.010029 0.004298 0.001433 0.376923 0.503846 0.065385 0.05 0.003846 0.2 0.2 0.2 0.2 0.2 0.846919 0.055666 0.001988 0.093439 0.001988 0.991544 0.002114 0.002114 0.002114 0.002114 0.494904 0.501697 0.001133 0.001133 0.001133 0.2 0.2 0.2 0.2 0.2 0.807921 0.19045 0.000543 0.000543 0.000543 0.2 0.2 0.2 0.2 0.2 0.2 0.2 0.2 0.2 0.2 0.739778 0.249071 0.003717 0.003717 0.003717 0.350536 0.646542 0.000974 0.000974 0.000974 0.2 0.2 0.2 0.2 0.2 0.815601 0.183658 0.000247 0.000247 0.000247 0.552631 0.368421 0.026316 0.026316 0.026316 0.2 0.2 0.2 0.2 0.2 0.798722 0.198083 0.001065 0.001065 0.001065 0.2 0.2 0.2 0.2 0.2 0.2 0.2 0.2 0.2 0.2 0.767442 0.22093 0.003876 0.003876 0.003876 0.492307 0.461538 0.015385 0.015385 0.015385 0.2 0.2 0.2 0.2 0.2 0.685463 0.3125 0.000679 0.000679 0.000679 0.249445 0.242043 0.285714 0.222058 0.00074 0.2 0.2 0.2 0.2 0.2 0.000728 0.105608 0.490168 0.402768 0.000728 0.2 0.2 0.2 0.2 0.2 0.005291 0.132275 0.031746 0.825397 0.005291 0.083333 0.666668 0.083333 0.083333 0.083333 0.009174 0.009174 0.963304 0.009174 0.009174 0.028571 0.028571 0.885716 0.028571 0.028571 0.002252 0.558559 0.434685 0.002252 0.002252 0.593792 0.356815 0.0278 0.020243 0.00135 0.2 0.2 0.2 0.2 0.2 0.2 0.2 0.2 0.2 0.2 0.047619 0.047619 0.047619 0.809524 0.047619 0.2 0.2 0.2 0.2 0.2 0.2 0.2 0.2 0.2 0.2 0.001321 0.804492 0.165125 0.027741 0.001321 0.2 0.2 0.2 0.2 0.2 0.2 0.2 0.2 0.2 0.2 0.49019 0.416694 0.034586 0.055537 0.002993 0.2 0.2 0.2 0.2 0.2 0.752475 0.217822 0.009901 0.009901 0.009901 0.016393 0.016393 0.016393 0.934428 0.016393 0.2 0.2 0.2 0.2 0.2 0.2 0.2 0.2 0.2 0.2 0.001681 0.095798 0.744538 0.144538 0.013445 0.2 0.2 0.2 0.2 0.2 0.004184 0.983264 0.004184 0.004184 0.004184 0.2 0.2 0.2 0.2 0.2 0.037037 0.037037 0.037037 0.481482 0.407407 0.2 0.2 0.2 0.2 0.2 0.2 0.2 0.2 0.2 0.2 0.421751 0.509283 0.045093 0.02122 0.002653 0.2 0.2 0.2 0.2 0.2 0.2 0.2 0.2 0.2 0.2 0.971718 0.00202 0.00202 0.022222 0.00202 0.2 0.2 0.2 0.2 0.2 0.809524 0.047619 0.047619 0.047619 0.047619 0.2 0.2 0.2 0.2 0.2 0.692308 0.076923 0.076923 0.076923 0.076923 0.002933 0.425219 0.237537 0.260997 0.073314 0.21673 0.08365 0.022814 0.673004 0.003802 0.653924 0.146881 0.082495 0.090543 0.026157 0.733332 0.248485 0.006061 0.006061 0.006061 0.882352 0.029412 0.029412 0.029412 0.029412 0.717646 0.247059 0.011765 0.011765 0.011765 0.2 0.2 0.2 0.2 0.2 0.020408 0.020408 0.020408 0.510205 0.428571 0.2 0.2 0.2 0.2 0.2 0.2 0.2 0.2 0.2 0.2 0.753192 0.097872 0.089362 0.055319 0.004255 0.2 0.2 0.2 0.2 0.2 0.2 0.2 0.2 0.2 0.2 0.04 0.04 0.04 0.84 0.04 0.2 0.2 0.2 0.2 0.2 0.2 0.2 0.2 0.2 0.2 0.018868 0.018868 0.924528 0.018868 0.018868 0.872833 0.109827 0.00578 0.00578 0.00578 0.2 0.2 0.2 0.2 0.2 0.461404 0.339474 0.088596 0.109649 0.000877 0.93846 0.015385 0.015385 0.015385 0.015385 0.2 0.2 0.2 0.2 0.2 0.682641 0.061768 0.132055 0.122471 0.001065 0.2 0.2 0.2 0.2 0.2 0.106774 0.889782 0.001148 0.001148 0.001148 0.2 0.2 0.2 0.2 0.2 0.210918 0.781639 0.002481 0.002481 0.002481 0.2 0.2 0.2 0.2 0.2 0.2 0.2 0.2 0.2 0.2 0.2 0.2 0.2 0.2 0.2 0.19849 0.799893 0.000539 0.000539 0.000539 0.2 0.2 0.2 0.2 0.2 0.332549 0.665099 0.000784 0.000784 0.000784 0.631578 0.210526 0.052632 0.052632 0.052632 0.2 0.2 0.2 0.2 0.2 0.274038 0.657452 0.001202 0.066106 0.001202 0.2 0.2 0.2 0.2 0.2 0.2 0.2 0.2 0.2 0.2 0.2 0.2 0.2 0.2 0.2 0.009901 0.960396 0.009901 0.009901 0.009901 0.047619 0.809524 0.047619 0.047619 0.047619 0.14838 0.827065 0.000522 0.016196 0.007837 0.287671 0.534246 0.150685 0.013699 0.013699 0.2 0.2 0.2 0.2 0.2 0.002618 0.138743 0.649215 0.206806 0.002618 0.164179 0.641792 0.164179 0.014925 0.014925 0.047619 0.809524 0.047619 0.047619 0.047619 0.162304 0.66492 0.162304 0.005236 0.005236 0.936508 0.015873 0.015873 0.015873 0.015873 0.2 0.2 0.2 0.2 0.2 0.502872 0.002874 0.488506 0.002874 0.002874 0.116085 0.127017 0.124935 0.631442 0.000521 0.2 0.2 0.2 0.2 0.2 0.2 0.2 0.2 0.2 0.2 0.011765 0.011765 0.011765 0.95294 0.011765 0.2 0.2 0.2 0.2 0.2 0.2 0.2 0.2 0.2 0.2 0.000389 0.031505 0.324776 0.584987 0.058343 0.2 0.2 0.2 0.2 0.2 0.2 0.2 0.2 0.2 0.2 0.266884 0.311636 0.134662 0.284784 0.002034 0.2 0.2 0.2 0.2 0.2 0.005587 0.139665 0.642457 0.206704 0.005587 0.013699 0.013699 0.013699 0.945204 0.013699 0.2 0.2 0.2 0.2 0.2 0.2 0.2 0.2 0.2 0.2 0.000537 0.037037 0.325819 0.587761 0.048846 0.2 0.2 0.2 0.2 0.2 0.012048 0.012048 0.951808 0.012048 0.012048 0.2 0.2 0.2 0.2 0.2 0.2 0.2 0.2 0.2 0.2 0.2 0.2 0.2 0.2 0.2 0.2 0.2 0.2 0.2 0.2 0.72549 0.215686 0.019608 0.019608 0.019608 0.2 0.2 0.2 0.2 0.2 0.2 0.2 0.2 0.2 0.2 0.891892 0.027027 0.027027 0.027027 0.027027 0.2 0.2 0.2 0.2 0.2 0.125 0.125 0.5 0.125 0.125 0.006135 0.006135 0.276074 0.644171 0.067485 0.01087 0.01087 0.95652 0.01087 0.01087 0.2 0.2 0.2 0.2 0.2 0.076352 0.324496 0.144221 0.453871 0.00106 0.110687 0.236641 0.116412 0.534352 0.001908 0.142857 0.142857 0.285715 0.285714 0.142857 0.433439 0.211928 0.320554 0.033014 0.001065 0.166667 0.308712 0.465909 0.056818 0.001894 0.2 0.2 0.2 0.2 0.2 0.001942 0.001942 0.32233 0.671844 0.001942 0.2 0.2 0.2 0.2 0.2 0.2 0.2 0.2 0.2 0.2 0.314607 0.061798 0.089888 0.528089 0.005618 0.39726 0.561643 0.013699 0.013699 0.013699 0.2 0.2 0.2 0.2 0.2 0.002933 0.16129 0.60997 0.222874 0.002933 0.2 0.2 0.2 0.2 0.2 0.2 0.2 0.2 0.2 0.2 0.047619 0.047619 0.809524 0.047619 0.047619 0.2 0.2 0.2 0.2 0.2 0.2 0.2 0.2 0.2 0.2 0.117155 0.377615 0.016736 0.487448 0.001046 0.2 0.2 0.2 0.2 0.2 0.2 0.2 0.2 0.2 0.2 0.718998 0.064644 0.163588 0.051451 0.001319 0.2 0.2 0.2 0.2 0.2 0.062753 0.168016 0.704454 0.062753 0.002024 0.2 0.2 0.2 0.2 0.2 0.147876 0.402777 0.276144 0.132353 0.04085 0.2 0.2 0.2 0.2 0.2 0.2 0.2 0.2 0.2 0.2 0.000983 0.114061 0.204523 0.67945 0.000983 0.000648 0.000648 0.325777 0.563471 0.109456 0.2 0.2 0.2 0.2 0.2 0.000652 0.000652 0.277705 0.633638 0.087353 0.03125 0.03125 0.03125 0.875 0.03125 0.018868 0.018868 0.924528 0.018868 0.018868 0.001193 0.001193 0.21957 0.718378 0.059666 0.2 0.2 0.2 0.2 0.2 0.401869 0.570093 0.009346 0.009346 0.009346 0.035556 0.231111 0.195556 0.535555 0.002222 0.005464 0.005464 0.005464 0.939892 0.043716 0.004587 0.004587 0.458716 0.527523 0.004587 0.05075 0.000577 0.212226 0.542099 0.194348 0.2 0.2 0.2 0.2 0.2 0.2 0.2 0.2 0.2 0.2 0.2 0.2 0.2 0.2 0.2 0.164179 0.641792 0.164179 0.014925 0.014925 0.2 0.2 0.2 0.2 0.2 0.163265 0.653062 0.163265 0.010204 0.010204 0.936508 0.015873 0.015873 0.015873 0.015873 0.2 0.2 0.2 0.2 0.2 0.95652 0.01087 0.01087 0.01087 0.01087 0.002882 0.002882 0.158501 0.832853 0.002882 0.2 0.2 0.2 0.2 0.2 0.2 0.2 0.2 0.2 0.2 0.2 0.2 0.2 0.2 0.2 0.2 0.2 0.2 0.2 0.2 0.2 0.2 0.2 0.2 0.2 0.004525 0.004525 0.20362 0.647059 0.140271 0.2 0.2 0.2 0.2 0.2 0.2 0.2 0.2 0.2 0.2 0.356725 0.321637 0.175439 0.140351 0.005848 0.2 0.2 0.2 0.2 0.2 0.2 0.2 0.2 0.2 0.2 0.2 0.2 0.2 0.2 0.2 0.2 0.2 0.2 0.2 0.2 0.2 0.2 0.2 0.2 0.2 0.052632 0.052632 0.526315 0.315789 0.052632 0.2 0.2 0.2 0.2 0.2 0.2 0.2 0.2 0.2 0.2 0.2 0.2 0.2 0.2 0.2 0.2 0.2 0.2 0.2 0.2 0.2 0.2 0.2 0.2 0.2 0.2 0.2 0.2 0.2 0.2 0.333332 0.166667 0.166667 0.166667 0.166667 0.2 0.2 0.2 0.2 0.2 0.2 0.2 0.2 0.2 0.2 0.2 0.2 0.2 0.2 0.2 0.2 0.2 0.2 0.2 0.2 0.2 0.2 0.2 0.2 0.2 0.006135 0.006135 0.276074 0.644171 0.067485 0.013699 0.013699 0.315068 0.643835 0.013699 0.2 0.2 0.2 0.2 0.2 0.028986 0.173913 0.231884 0.550724 0.014493 0.162791 0.658914 0.162791 0.007752 0.007752 0.2 0.2 0.2 0.2 0.2 0.00885 0.168142 0.539822 0.274336 0.00885 0.785235 0.006711 0.127517 0.073826 0.006711 0.2 0.2 0.2 0.2 0.2 0.025641 0.025641 0.307692 0.615385 0.025641 0.2 0.2 0.2 0.2 0.2 0.2 0.2 0.2 0.2 0.2 0.259259 0.037037 0.037037 0.62963 0.037037 0.2 0.2 0.2 0.2 0.2 0.2 0.2 0.2 0.2 0.2 0.052632 0.052632 0.526315 0.315789 0.052632 0.2 0.2 0.2 0.2 0.2 0.2 0.2 0.2 0.2 0.2 0.2 0.2 0.2 0.2 0.2 0.2 0.2 0.2 0.2 0.2 0.2 0.2 0.2 0.2 0.2 0.2 0.2 0.2 0.2 0.2 0.166667 0.61111 0.166667 0.027778 0.027778 0.2 0.2 0.2 0.2 0.2 0.2 0.2 0.2 0.2 0.2 0.882352 0.029412 0.029412 0.029412 0.029412 0.2 0.2 0.2 0.2 0.2 0.2 0.2 0.2 0.2 0.2 0.025641 0.025641 0.307692 0.615385 0.025641 0.2 0.2 0.2 0.2 0.2 0.2 0.2 0.2 0.2 0.2 0.2 0.2 0.2 0.2 0.2 0.006211 0.006211 0.006211 0.975156 0.006211 0.2 0.2 0.2 0.2 0.2 0.002611 0.002611 0.02611 0.966057 0.002611 0.2 0.2 0.2 0.2 0.2 0.2 0.2 0.2 0.2 0.2 0.009346 0.009346 0.317757 0.654205 0.009346 0.2 0.2 0.2 0.2 0.2 0.2 0.2 0.2 0.2 0.2 0.163265 0.653062 0.163265 0.010204 0.010204 0.2 0.2 0.2 0.2 0.2 0.2 0.2 0.2 0.2 0.2 0.197309 0.002242 0.06278 0.735427 0.002242 0.2 0.2 0.2 0.2 0.2 0.2 0.2 0.2 0.2 0.2 0.2 0.2 0.2 0.2 0.2 0.2 0.2 0.2 0.2 0.2 0.2 0.2 0.2 0.2 0.2 0.2 0.2 0.2 0.2 0.2 0.2 0.2 0.2 0.2 0.2 0.2 0.2 0.2 0.2 0.2 0.2 0.2 0.2 0.2 0.2 0.2 0.2 0.2 0.2 0.2 0.2 0.2 0.2 0.2 0.2 0.2 0.2 0.2 0.2 0.2 0.2 0.2 0.2 0.2 0.2 0.2 0.2 0.2 0.2 0.2 0.2 0.2 0.2 0.2 0.2 0.2 0.2 0.2 0.2 0.2 0.2 0.2 0.2 0.2 0.2 0.2 0.2 0.2 0.2 0.2 0.2 0.2 0.2 0.2 0.2 0.2 0.2 0.2 0.2 0.2 0.2 0.2 0.2 0.2 0.2 0.2 0.2 0.2 0.2 0.2 0.2 0.2 0.2 0.2 0.2 0.2 0.2 0.2 0.2 0.2 0.2 0.2 0.2 0.2 0.2 0.2 0.2 0.2 0.2 0.2 0.2 0.2 0.2 0.2 0.2 0.2 0.2 0.2 0.2 0.2 0.2 0.2 0.2 0.2 0.2 0.2 0.2 0.2 0.2 0.2 0.2 0.2 0.2 0.2 0.2 0.2 0.2 0.2 0.2 0.2 0.2 0.2 0.2 0.2 0.2 0.2 0.2 0.2 0.2 0.2 0.2 0.2 0.2 0.2 0.2 0.2 0.2 0.2 0.2 0.2 0.2 0.2 0.2 0.2 0.2 0.2 0.2 0.2 0.2 0.2 0.2 0.2 0.2 0.2 0.2 0.2 0.2 0.2 0.2 0.2 0.2 0.2 0.2 0.2 0.2 0.2 0.2 0.2 0.2 0.2 0.2 0.2 0.2 0.2 0.2 0.2 0.2 0.2 0.2 0.2 0.2 0.2 0.2 0.2 0.2 0.2 0.2 0.2 0.2 0.2 0.2 0.2 0.2 0.2 0.2 0.2 0.2 0.2 0.2 0.2 0.2 0.2 0.2 0.2 0.2 0.2 0.2 0.2 0.2 0.2 0.2 0.2 0.2 0.2 0.2 0.2 0.2 0.2 0.2 0.2 0.2 0.2 0.2 0.2 0.2 0.2 0.2 0.2 0.2 0.2 0.2 0.2 0.2 0.2 0.2 0.2 0.2 0.2 0.2 0.2 0.2 0.2 0.2 0.2 0.2 0.2 0.2 0.2 0.2 0.2 0.2 0.2 0.2 0.2 0.2 0.2 0.2 0.2 0.2 0.2 0.2 0.2 0.2 0.2 0.2 0.2 0.2 0.2 0.2 0.2 0.2 0.2 0.2 0.2 0.2 0.2 0.2 0.2 0.2 0.2 0.2 0.2 0.2 0.2 0.2 0.2 0.2 0.2 0.2 0.2 0.2 0.2 0.2 0.2 0.2 0.2 0.2 0.2 0.2 0.2 0.2 0.2 0.2 0.2 0.2 0.2 0.2 0.2 0.2 0.2 0.2 0.2 0.2 0.2 0.2 0.2 0.2 0.2 0.2 0.2 0.2 0.2 0.2 0.2 0.2 0.2 0.2 0.2 0.2 0.2 0.2 0.2 0.2 0.2 0.2 0.2 0.2 0.2 0.2 0.2 0.2 0.2 0.2 0.2 0.2 0.2 0.2 0.2 0.2 0.2 0.2 0.2 0.2 0.2 0.2 0.2 0.2 0.2 0.2 0.2 0.2 0.2 0.2 0.2 0.2 0.808812 0.149188 0.041484 0.000258 0.000258 0.988119 0.008911 0.00099 0.00099 0.00099 0.986668 0.010476 0.000952 0.000952 0.000952 0.555556 0.396825 0.015873 0.015873 0.015873 0.567407 0.238126 0.078043 0.098513 0.017911 0.586731 0.234951 0.060518 0.101942 0.015858 0.931624 0.059829 0.002849 0.002849 0.002849 0.997708 0.000573 0.000573 0.000573 0.000573 0.996396 0.003034 0.00019 0.00019 0.00019 0.705842 0.213275 0.059942 0.02006 0.000881 0.2 0.2 0.2 0.2 0.2 0.2 0.2 0.2 0.2 0.2 0.696842 0.23228 0.042373 0.02812 0.000385 0.2 0.2 0.2 0.2 0.2 0.2 0.2 0.2 0.2 0.2 0.896379 0.069081 0.02734 0.007096 0.000104 0.2 0.2 0.2 0.2 0.2 0.2 0.2 0.2 0.2 0.2 0.790036 0.175326 0.028154 0.006238 0.000246 0.2 0.2 0.2 0.2 0.2 0.996039 0.001585 0.000792 0.000792 0.000792 0.749866 0.193949 0.033495 0.02215 0.00054 0.2 0.2 0.2 0.2 0.2 0.765932 0.120098 0.060049 0.052696 0.001225 0.931928 0.047542 0.014587 0.005808 0.000135 0.2 0.2 0.2 0.2 0.2 0.997751 0.001124 0.000375 0.000375 0.000375 0.2 0.2 0.2 0.2 0.2 0.469012 0.375209 0.11809 0.028476 0.009213 0.2 0.2 0.2 0.2 0.2 0.2 0.2 0.2 0.2 0.2 0.54646 0.274019 0.084496 0.087391 0.007634 0.2 0.2 0.2 0.2 0.2 0.2 0.2 0.2 0.2 0.2 0.635561 0.052168 0.288024 0.023512 0.000735 0.2 0.2 0.2 0.2 0.2 0.60859 0.368472 0.021962 0.000488 0.000488 0.447991 0.531919 0.009951 0.009951 0.000188 0.793701 0.199327 0.006492 0.00024 0.00024 0.759948 0.148909 0.042362 0.039795 0.008986 0.551184 0.226774 0.090965 0.102752 0.028325 0.588505 0.238667 0.090664 0.075283 0.006881 0.936003 0.054714 0.008305 0.000489 0.000489 0.305683 0.475619 0.071586 0.091017 0.056095 0.891901 0.10027 0.000056 0.001408 0.006365 0.2 0.2 0.2 0.2 0.2 0.447993 0.540353 0.000432 0.01079 0.000432 0.9887 0.002825 0.002825 0.002825 0.002825 0.2 0.2 0.2 0.2 0.2 0.523696 0.234659 0.089046 0.123456 0.029143 0.638917 0.30281 0.046826 0.010406 0.001041 0.2 0.2 0.2 0.2 0.2 0.587936 0.317957 0.026381 0.060475 0.007251 0.912092 0.08645 0.000486 0.000486 0.000486 0.2 0.2 0.2 0.2 0.2 0.909761 0.081128 0.000434 0.008243 0.000434 0.987656 0.003086 0.003086 0.003086 0.003086 0.2 0.2 0.2 0.2 0.2 0.643326 0.269735 0.047807 0.035563 0.003569 0.50867 0.327312 0.093208 0.070087 0.000723 0.2 0.2 0.2 0.2 0.2 0.790963 0.193659 0.006265 0.008923 0.00019 0.946358 0.05294 0.000234 0.000234 0.000234 0.816924 0.159346 0.023103 0.000582 0.000045 0.2 0.2 0.2 0.2 0.2 0.809246 0.152686 0.027355 0.010661 0.000052 0.842551 0.119831 0.022172 0.015197 0.000249 0.2 0.2 0.2 0.2 0.2 0.671014 0.187658 0.078645 0.054896 0.007787 0.928987 0.069185 0.001692 0.000068 0.000068 0.2 0.2 0.2 0.2 0.2 0.922274 0.077006 0.00044 0.00026 0.000020 0.912279 0.084211 0.00117 0.00117 0.00117 0.976472 0.005882 0.005882 0.005882 0.005882 0.860139 0.139106 0.000587 0.000084 0.000084 0.866667 0.066667 0.022222 0.022222 0.022222 0.512758 0.219927 0.127582 0.104496 0.035237 0.541957 0.293699 0.093255 0.067131 0.003958 0.993588 0.001603 0.001603 0.001603 0.001603 0.831259 0.166407 0.000778 0.000778 0.000778 0.906317 0.093608 0.000025 0.000025 0.000025 0.199474 0.695718 0.081893 0.022539 0.000376 0.445682 0.092618 0.000696 0.460308 0.000696 0.056878 0.836913 0.105049 0.00058 0.00058 0.519877 0.447248 0.019113 0.012997 0.000765 0.228872 0.589766 0.126542 0.045683 0.009137 0.298529 0.532353 0.166176 0.001471 0.001471 0.002203 0.837003 0.112335 0.046256 0.002203 0.263037 0.00605 0.273984 0.456641 0.000288 0.174614 0.62254 0.202372 0.000237 0.000237 0.350126 0.463128 0.141252 0.044179 0.001315 0.2 0.2 0.2 0.2 0.2 0.2 0.2 0.2 0.2 0.2 0.3922 0.426048 0.14496 0.036056 0.000736 0.2 0.2 0.2 0.2 0.2 0.2 0.2 0.2 0.2 0.2 0.295068 0.579746 0.097147 0.027874 0.000165 0.2 0.2 0.2 0.2 0.2 0.2 0.2 0.2 0.2 0.2 0.300988 0.568539 0.10104 0.028705 0.000728 0.2 0.2 0.2 0.2 0.2 0.113281 0.875001 0.003906 0.003906 0.003906 0.636363 0.310944 0.031847 0.020556 0.00029 0.2 0.2 0.2 0.2 0.2 0.007937 0.523808 0.325397 0.134921 0.007937 0.171166 0.55364 0.247774 0.027279 0.000141 0.2 0.2 0.2 0.2 0.2 0.152794 0.67959 0.142531 0.023945 0.00114 0.2 0.2 0.2 0.2 0.2 0.001531 0.552834 0.254211 0.116386 0.075038 0.2 0.2 0.2 0.2 0.2 0.2 0.2 0.2 0.2 0.2 0.336254 0.330135 0.146711 0.167153 0.019747 0.2 0.2 0.2 0.2 0.2 0.2 0.2 0.2 0.2 0.2 0.50309 0.112974 0.274492 0.085613 0.023831 0.2 0.2 0.2 0.2 0.2 0.47935 0.519633 0.000339 0.000339 0.000339 0.204792 0.704507 0.00057 0.089561 0.00057 0.354286 0.641427 0.001429 0.001429 0.001429 0.794467 0.199605 0.001976 0.001976 0.001976 0.340762 0.327109 0.140224 0.148215 0.04369 0.371486 0.276052 0.14183 0.184422 0.02621 0.81361 0.181953 0.001479 0.001479 0.001479 0.146136 0.429601 0.198052 0.148672 0.077539 0.160428 0.603658 0.195923 0.039913 0.000078 0.2 0.2 0.2 0.2 0.2 0.198193 0.517003 0.05101 0.196068 0.037726 0.197183 0.643192 0.150235 0.004695 0.004695 0.2 0.2 0.2 0.2 0.2 0.323916 0.319459 0.147054 0.167893 0.041678 0.352113 0.44014 0.137324 0.042254 0.028169 0.2 0.2 0.2 0.2 0.2 0.216315 0.395516 0.148656 0.196018 0.043495 0.403718 0.526561 0.043825 0.025232 0.000664 0.2 0.2 0.2 0.2 0.2 0.301429 0.694284 0.001429 0.001429 0.001429 0.127753 0.779737 0.0837 0.004405 0.004405 0.2 0.2 0.2 0.2 0.2 0.420906 0.414706 0.095469 0.063434 0.005485 0.679386 0.313846 0.005538 0.000615 0.000615 0.2 0.2 0.2 0.2 0.2 0.604255 0.301756 0.093495 0.000247 0.000247 0.046187 0.837809 0.113856 0.001074 0.001074 0.21691 0.664745 0.115395 0.002883 0.000067 0.2 0.2 0.2 0.2 0.2 0.12228 0.842904 0.034536 0.00014 0.00014 0.465005 0.484624 0.045069 0.004772 0.00053 0.2 0.2 0.2 0.2 0.2 0.444642 0.426536 0.112793 0.015732 0.000297 0.184719 0.72183 0.090125 0.003222 0.000104 0.2 0.2 0.2 0.2 0.2 0.149762 0.79142 0.053528 0.005242 0.000048 0.081776 0.911216 0.002336 0.002336 0.002336 0.030928 0.938145 0.010309 0.010309 0.010309 0.103729 0.871494 0.024535 0.000121 0.000121 0.579709 0.376812 0.014493 0.014493 0.014493 0.363344 0.42926 0.159164 0.046624 0.001608 0.453755 0.402273 0.135503 0.008246 0.000223 0.129762 0.866668 0.00119 0.00119 0.00119 0.035294 0.957647 0.002353 0.002353 0.002353 0.138282 0.806751 0.054347 0.000576 0.000044 0.279858 0.268271 0.259358 0.191622 0.000891 0.437126 0.005988 0.005988 0.54491 0.005988 0.000639 0.317775 0.177749 0.503198 0.000639 0.010526 0.010526 0.578948 0.389474 0.010526 0.117193 0.355441 0.328397 0.164842 0.034127 0.054768 0.704252 0.113402 0.124356 0.003222 0.008333 0.008333 0.3 0.675001 0.008333 0.486171 0.001456 0.195051 0.315866 0.001456 0.00025 0.054095 0.499374 0.446031 0.00025 0.160123 0.300485 0.294694 0.214718 0.02998 0.2 0.2 0.2 0.2 0.2 0.2 0.2 0.2 0.2 0.2 0.219466 0.215649 0.274809 0.288168 0.001908 0.2 0.2 0.2 0.2 0.2 0.2 0.2 0.2 0.2 0.2 0.124209 0.000288 0.497125 0.362277 0.016101 0.2 0.2 0.2 0.2 0.2 0.2 0.2 0.2 0.2 0.2 0.154802 0.257796 0.324636 0.223382 0.039384 0.2 0.2 0.2 0.2 0.2 0.040823 0.40684 0.378576 0.173412 0.000349 0.352679 0.263393 0.25 0.129464 0.004464 0.2 0.2 0.2 0.2 0.2 0.096386 0.108434 0.108434 0.674698 0.012048 0.050753 0.155605 0.575014 0.216955 0.001673 0.2 0.2 0.2 0.2 0.2 0.000325 0.253251 0.634265 0.111834 0.000325 0.2 0.2 0.2 0.2 0.2 0.177165 0.346457 0.28937 0.137795 0.049213 0.2 0.2 0.2 0.2 0.2 0.2 0.2 0.2 0.2 0.2 0.262332 0.294158 0.203228 0.212094 0.028188 0.2 0.2 0.2 0.2 0.2 0.2 0.2 0.2 0.2 0.2 0.433163 0.306261 0.037225 0.089679 0.133672 0.2 0.2 0.2 0.2 0.2 0.006329 0.006329 0.974684 0.006329 0.006329 0.001592 0.001592 0.288217 0.601911 0.106688 0.039749 0.416318 0.253138 0.211297 0.079498 0.001965 0.001965 0.332024 0.379174 0.284872 0.241404 0.25006 0.204843 0.22385 0.079843 0.139012 0.237767 0.129893 0.391905 0.101423 0.009346 0.009346 0.934579 0.037383 0.009346 0.144869 0.349499 0.171464 0.24781 0.086358 0.001674 0.219414 0.624435 0.131381 0.023096 0.2 0.2 0.2 0.2 0.2 0.194805 0.241187 0.09833 0.296847 0.168831 0.045455 0.348485 0.151515 0.424242 0.030303 0.2 0.2 0.2 0.2 0.2 0.215429 0.269714 0.208714 0.277143 0.029 0.143187 0.561201 0.096998 0.193995 0.004619 0.2 0.2 0.2 0.2 0.2 0.124793 0.294361 0.221393 0.269486 0.089967 0.002789 0.23152 0.520224 0.242678 0.002789 0.2 0.2 0.2 0.2 0.2 0.118182 0.472727 0.318182 0.086364 0.004545 0.00295 0.144543 0.846607 0.00295 0.00295 0.2 0.2 0.2 0.2 0.2 0.331909 0.334846 0.194393 0.125768 0.013084 0.218543 0.218543 0.086093 0.470198 0.006623 0.2 0.2 0.2 0.2 0.2 0.508487 0.317539 0.069307 0.080622 0.024045 0.000608 0.054103 0.895441 0.04924 0.000608 0.151564 0.331195 0.378709 0.126303 0.012229 0.2 0.2 0.2 0.2 0.2 0.015417 0.184704 0.517533 0.251209 0.031137 0.00625 0.56875 0.175 0.24375 0.00625 0.2 0.2 0.2 0.2 0.2 0.173701 0.421672 0.144886 0.245942 0.013799 0.010556 0.113552 0.665906 0.20485 0.005136 0.2 0.2 0.2 0.2 0.2 0.001118 0.138036 0.601951 0.239785 0.01911 0.267925 0.328301 0.30566 0.09434 0.003774 0.090909 0.636364 0.090909 0.090909 0.090909 0.057048 0.183679 0.46994 0.271937 0.017396 0.2 0.2 0.2 0.2 0.2 0.327273 0.363636 0.272727 0.018182 0.018182 0.112916 0.33225 0.149472 0.40455 0.000812 0.005025 0.005025 0.497488 0.487437 0.005025 0.006993 0.783217 0.195804 0.006993 0.006993 0.000204 0.214315 0.557995 0.225648 0.001838 0.133666 0.103685 0.149282 0.500313 0.113054 0.122449 0.095238 0.136054 0.14966 0.496599 0.036894 0.037752 0.184041 0.727156 0.014157 0.002247 0.694382 0.217978 0.083146 0.002247 0.015068 0.021918 0.272603 0.575343 0.115068 0.003846 0.765866 0.130288 0.095192 0.004808 0.001199 0.001199 0.33693 0.659473 0.001199 0.001096 0.001096 0.188596 0.067982 0.74123 0.000124 0.000124 0.245583 0.700051 0.054118 0.031243 0.061528 0.167416 0.615504 0.124309 0.2 0.2 0.2 0.2 0.2 0.2 0.2 0.2 0.2 0.2 0.00207 0.118012 0.217391 0.660457 0.00207 0.2 0.2 0.2 0.2 0.2 0.2 0.2 0.2 0.2 0.2 0.007629 0.000218 0.273758 0.653661 0.064734 0.2 0.2 0.2 0.2 0.2 0.2 0.2 0.2 0.2 0.2 0.030549 0.047977 0.20022 0.651643 0.069611 0.2 0.2 0.2 0.2 0.2 0.003401 0.078231 0.258503 0.656464 0.003401 0.018018 0.414415 0.182637 0.384111 0.000819 0.2 0.2 0.2 0.2 0.2 0.131148 0.147541 0.147541 0.557377 0.016393 0.000248 0.000248 0.324331 0.606788 0.068385 0.2 0.2 0.2 0.2 0.2 0.000942 0.000942 0.046139 0.771186 0.180791 0.2 0.2 0.2 0.2 0.2 0.247312 0.010753 0.010753 0.204301 0.526881 0.2 0.2 0.2 0.2 0.2 0.2 0.2 0.2 0.2 0.2 0.252625 0.254693 0.158288 0.299714 0.03468 0.2 0.2 0.2 0.2 0.2 0.2 0.2 0.2 0.2 0.2 0.690814 0.072445 0.016818 0.016818 0.203105 0.2 0.2 0.2 0.2 0.2 0.00156 0.00156 0.00156 0.99376 0.00156 0.000857 0.000857 0.227935 0.692373 0.077978 0.008366 0.085586 0.066281 0.806948 0.032819 0.086758 0.004566 0.127854 0.639269 0.141553 0.204094 0.198839 0.172157 0.351213 0.073697 0.128796 0.221913 0.196356 0.346154 0.106781 0.000998 0.000998 0.015968 0.981038 0.000998 0.043072 0.286104 0.341844 0.267004 0.061976 0.00545 0.042018 0.122011 0.728904 0.101617 0.2 0.2 0.2 0.2 0.2 0.077027 0.077027 0.154054 0.52027 0.171622 0.020794 0.20983 0.071834 0.695652 0.00189 0.2 0.2 0.2 0.2 0.2 0.220673 0.215386 0.172197 0.339781 0.051963 0.076246 0.372434 0.196481 0.351906 0.002933 0.2 0.2 0.2 0.2 0.2 0.074015 0.132909 0.341425 0.293275 0.158376 0.007895 0.119737 0.302632 0.557894 0.011842 0.2 0.2 0.2 0.2 0.2 0.309456 0.212034 0.137536 0.131805 0.209169 0.007042 0.267606 0.612676 0.049296 0.06338 0.2 0.2 0.2 0.2 0.2 0.237869 0.249209 0.155327 0.341509 0.016086 0.034043 0.042553 0.378723 0.348936 0.195745 0.2 0.2 0.2 0.2 0.2 0.458796 0.009936 0.159556 0.098188 0.273524 0.001799 0.03777 0.458633 0.343525 0.158273 0.032548 0.081025 0.141274 0.701293 0.04386 0.2 0.2 0.2 0.2 0.2 0.000548 0.004201 0.144292 0.80968 0.041279 0.086829 0.367804 0.250732 0.293659 0.000976 0.2 0.2 0.2 0.2 0.2 0.258989 0.353309 0.167796 0.219385 0.000521 0.029718 0.000174 0.06326 0.750783 0.156065 0.2 0.2 0.2 0.2 0.2 0.000079 0.001382 0.090496 0.75844 0.149603 0.003226 0.003226 0.216129 0.751613 0.025806 0.2 0.2 0.2 0.2 0.2 0.000209 0.000209 0.214271 0.765908 0.019403 0.02439 0.365854 0.219512 0.365854 0.02439 0.270853 0.203374 0.203374 0.321462 0.000937 0.242335 0.306014 0.173349 0.277712 0.00059 0.002347 0.002347 0.190141 0.748827 0.056338 0.001835 0.001835 0.365138 0.629357 0.001835 0.000070 0.021831 0.157746 0.695142 0.125211 0.003509 0.003509 0.003509 0.635087 0.354386 0.2 0.2 0.2 0.2 0.2 0.003817 0.003817 0.038168 0.335878 0.61832 0.2 0.2 0.2 0.2 0.2 0.007752 0.007752 0.410853 0.44186 0.131783 0.003003 0.063063 0.189189 0.741742 0.003003 0.2 0.2 0.2 0.2 0.2 0.111111 0.111111 0.555556 0.111111 0.111111 0.001028 0.001028 0.010277 0.356629 0.631038 0.013461 0.010171 0.132516 0.436134 0.407718 0.2 0.2 0.2 0.2 0.2 0.2 0.2 0.2 0.2 0.2 0.005208 0.005208 0.270833 0.713543 0.005208 0.2 0.2 0.2 0.2 0.2 0.2 0.2 0.2 0.2 0.2 0.006579 0.006579 0.973684 0.006579 0.006579 0.2 0.2 0.2 0.2 0.2 0.2 0.2 0.2 0.2 0.2 0.000556 0.008338 0.151195 0.46637 0.373541 0.2 0.2 0.2 0.2 0.2 0.037037 0.037037 0.037037 0.259259 0.62963 0.006667 0.06 0.2 0.726666 0.006667 0.2 0.2 0.2 0.2 0.2 0.027027 0.081081 0.189189 0.675676 0.027027 0.003356 0.003356 0.204698 0.083893 0.704697 0.2 0.2 0.2 0.2 0.2 0.010989 0.010989 0.010989 0.296703 0.67033 0.2 0.2 0.2 0.2 0.2 0.636364 0.090909 0.090909 0.090909 0.090909 0.2 0.2 0.2 0.2 0.2 0.2 0.2 0.2 0.2 0.2 0.233526 0.287862 0.171098 0.252023 0.055491 0.2 0.2 0.2 0.2 0.2 0.2 0.2 0.2 0.2 0.2 0.831857 0.141593 0.00885 0.00885 0.00885 0.2 0.2 0.2 0.2 0.2 0.2 0.2 0.2 0.2 0.2 0.005587 0.005587 0.810055 0.173184 0.005587 0.014493 0.014493 0.014493 0.014493 0.942028 0.2 0.2 0.2 0.2 0.2 0.155293 0.189633 0.194007 0.288057 0.17301 0.229197 0.284433 0.173601 0.286585 0.026184 0.2 0.2 0.2 0.2 0.2 0.000958 0.151341 0.415709 0.386015 0.045977 0.028593 0.000253 0.066549 0.325658 0.578947 0.2 0.2 0.2 0.2 0.2 0.2 0.2 0.2 0.2 0.2 0.2 0.2 0.2 0.2 0.2 0.2 0.2 0.2 0.2 0.2 0.293757 0.229017 0.156346 0.193961 0.126919 0.2 0.2 0.2 0.2 0.2 0.2 0.2 0.2 0.2 0.2 0.034091 0.517045 0.323864 0.113636 0.011364 0.2 0.2 0.2 0.2 0.2 0.2 0.2 0.2 0.2 0.2 0.034483 0.034483 0.034483 0.034483 0.862068 0.037037 0.037037 0.037037 0.259259 0.62963 0.2 0.2 0.2 0.2 0.2 0.24295 0.223427 0.106291 0.190889 0.236443 0.008 0.024 0.144 0.24 0.584 0.2 0.2 0.2 0.2 0.2 0.152745 0.002387 0.002387 0.131265 0.711216 0.00565 0.00565 0.00565 0.305085 0.677965 0.002183 0.002183 0.024017 0.515285 0.456332 0.2 0.2 0.2 0.2 0.2 0.000654 0.000654 0.018313 0.527142 0.453237 0.026634 0.268765 0.244552 0.399516 0.060533 0.2 0.2 0.2 0.2 0.2 0.018083 0.011754 0.006329 0.783906 0.179928 0.000874 0.000874 0.000874 0.270979 0.726399 0.2 0.2 0.2 0.2 0.2 0.000074 0.000074 0.005006 0.299323 0.695523 0.014493 0.014493 0.072464 0.681159 0.217391 0.2 0.2 0.2 0.2 0.2 0.001319 0.001319 0.051451 0.775726 0.170185 0.2 0.2 0.2 0.2 0.2 0.2 0.2 0.2 0.2 0.2 0.011494 0.034483 0.333333 0.574713 0.045977 0.008547 0.008547 0.008547 0.641026 0.333333 0.2 0.2 0.2 0.2 0.2 0.000317 0.000317 0.001585 0.344642 0.653139 0.496064 0.331424 0.105941 0.065855 0.000716 0.987012 0.003247 0.003247 0.003247 0.003247 0.995364 0.001159 0.001159 0.001159 0.001159 0.2 0.2 0.2 0.2 0.2 0.415686 0.450981 0.095098 0.028431 0.009804 0.885716 0.028571 0.028571 0.028571 0.028571 0.555556 0.111111 0.111111 0.111111 0.111111 0.986576 0.003356 0.003356 0.003356 0.003356 0.997052 0.000737 0.000737 0.000737 0.000737 0.511492 0.343801 0.100032 0.044351 0.000324 0.2 0.2 0.2 0.2 0.2 0.2 0.2 0.2 0.2 0.2 0.982224 0.004444 0.004444 0.004444 0.004444 0.2 0.2 0.2 0.2 0.2 0.2 0.2 0.2 0.2 0.2 0.612962 0.177778 0.103704 0.103704 0.001852 0.2 0.2 0.2 0.2 0.2 0.2 0.2 0.2 0.2 0.2 0.537546 0.264381 0.098895 0.081893 0.017285 0.2 0.2 0.2 0.2 0.2 0.9 0.025 0.025 0.025 0.025 0.8 0.05 0.05 0.05 0.05 0.2 0.2 0.2 0.2 0.2 0.2 0.2 0.2 0.2 0.2 0.341464 0.012195 0.317073 0.317073 0.012195 0.2 0.2 0.2 0.2 0.2 0.98182 0.004545 0.004545 0.004545 0.004545 0.2 0.2 0.2 0.2 0.2 0.2 0.2 0.2 0.2 0.2 0.2 0.2 0.2 0.2 0.2 0.2 0.2 0.2 0.2 0.2 0.684209 0.157895 0.052632 0.052632 0.052632 0.2 0.2 0.2 0.2 0.2 0.2 0.2 0.2 0.2 0.2 0.2 0.2 0.2 0.2 0.2 0.2 0.2 0.2 0.2 0.2 0.866668 0.033333 0.033333 0.033333 0.033333 0.933332 0.016667 0.016667 0.016667 0.016667 0.862068 0.034483 0.034483 0.034483 0.034483 0.2 0.2 0.2 0.2 0.2 0.403405 0.229862 0.168959 0.197119 0.000655 0.237624 0.754951 0.002475 0.002475 0.002475 0.972412 0.006897 0.006897 0.006897 0.006897 0.116751 0.124365 0.756346 0.001269 0.001269 0.01 0.96 0.01 0.01 0.01 0.2 0.2 0.2 0.2 0.2 0.944444 0.013889 0.013889 0.013889 0.013889 0.2 0.2 0.2 0.2 0.2 0.2 0.2 0.2 0.2 0.2 0.263383 0.295504 0.216274 0.222698 0.002141 0.2 0.2 0.2 0.2 0.2 0.2 0.2 0.2 0.2 0.2 0.819673 0.131148 0.016393 0.016393 0.016393 0.2 0.2 0.2 0.2 0.2 0.2 0.2 0.2 0.2 0.2 0.764704 0.058824 0.058824 0.058824 0.058824 0.2 0.2 0.2 0.2 0.2 0.2 0.2 0.2 0.2 0.2 0.428571 0.558442 0.004329 0.004329 0.004329 0.931036 0.017241 0.017241 0.017241 0.017241 0.2 0.2 0.2 0.2 0.2 0.855025 0.120264 0.021417 0.001647 0.001647 0.931036 0.017241 0.017241 0.017241 0.017241 0.916339 0.081294 0.000789 0.000789 0.000789 0.2 0.2 0.2 0.2 0.2 0.873361 0.122271 0.001456 0.001456 0.001456 0.711609 0.282772 0.001873 0.001873 0.001873 0.2 0.2 0.2 0.2 0.2 0.980676 0.004831 0.004831 0.004831 0.004831 0.632289 0.365869 0.000614 0.000614 0.000614 0.2 0.2 0.2 0.2 0.2 0.938864 0.060398 0.000246 0.000246 0.000246 0.789472 0.052632 0.052632 0.052632 0.052632 0.2 0.2 0.2 0.2 0.2 0.692857 0.3 0.002381 0.002381 0.002381 0.2 0.2 0.2 0.2 0.2 0.2 0.2 0.2 0.2 0.2 0.547873 0.203457 0.118351 0.097074 0.033245 0.2 0.2 0.2 0.2 0.2 0.2 0.2 0.2 0.2 0.2 0.927484 0.070941 0.000525 0.000525 0.000525 0.297214 0.214241 0.266254 0.221672 0.000619 0.96154 0.009615 0.009615 0.009615 0.009615 0.073491 0.030184 0.171916 0.381889 0.34252 0.2 0.2 0.2 0.2 0.2 0.714285 0.265306 0.006803 0.006803 0.006803 0.04 0.04 0.04 0.84 0.04 0.028571 0.028571 0.457144 0.457143 0.028571 0.972412 0.006897 0.006897 0.006897 0.006897 0.250524 0.649895 0.095388 0.003145 0.001048 0.32442 0.261084 0.106263 0.235749 0.072484 0.2 0.2 0.2 0.2 0.2 0.2 0.2 0.2 0.2 0.2 0.006211 0.378882 0.527951 0.080745 0.006211 0.2 0.2 0.2 0.2 0.2 0.2 0.2 0.2 0.2 0.2 0.039409 0.953202 0.002463 0.002463 0.002463 0.2 0.2 0.2 0.2 0.2 0.2 0.2 0.2 0.2 0.2 0.246605 0.167762 0.133158 0.322383 0.130092 0.2 0.2 0.2 0.2 0.2 0.285714 0.03632 0.138015 0.285714 0.254237 0.032258 0.354839 0.483871 0.096774 0.032258 0.2 0.2 0.2 0.2 0.2 0.2 0.2 0.2 0.2 0.2 0.032704 0.774844 0.095597 0.095597 0.001258 0.2 0.2 0.2 0.2 0.2 0.107843 0.862745 0.009804 0.009804 0.009804 0.2 0.2 0.2 0.2 0.2 0.2 0.2 0.2 0.2 0.2 0.2 0.2 0.2 0.2 0.2 0.2 0.2 0.2 0.2 0.2 0.841861 0.144186 0.004651 0.004651 0.004651 0.2 0.2 0.2 0.2 0.2 0.2 0.2 0.2 0.2 0.2 0.2 0.2 0.2 0.2 0.2 0.2 0.2 0.2 0.2 0.2 0.2 0.2 0.2 0.2 0.2 0.015385 0.93846 0.015385 0.015385 0.015385 0.011765 0.95294 0.011765 0.011765 0.011765 0.2 0.2 0.2 0.2 0.2 0.377924 0.141813 0.163743 0.315789 0.000731 0.466666 0.171852 0.137778 0.155556 0.068148 0.2 0.2 0.2 0.2 0.2 0.141985 0.334351 0.52061 0.001527 0.001527 0.065625 0.79375 0.0125 0.125 0.003125 0.2 0.2 0.2 0.2 0.2 0.030303 0.95671 0.004329 0.004329 0.004329 0.2 0.2 0.2 0.2 0.2 0.2 0.2 0.2 0.2 0.2 0.26062 0.161883 0.184845 0.391504 0.001148 0.2 0.2 0.2 0.2 0.2 0.2 0.2 0.2 0.2 0.2 0.791909 0.190751 0.00578 0.00578 0.00578 0.2 0.2 0.2 0.2 0.2 0.2 0.2 0.2 0.2 0.2 0.2 0.2 0.2 0.2 0.2 0.007634 0.053435 0.923663 0.007634 0.007634 0.2 0.2 0.2 0.2 0.2 0.5137 0.465753 0.006849 0.006849 0.006849 0.043478 0.565218 0.304348 0.043478 0.043478 0.2 0.2 0.2 0.2 0.2 0.2 0.2 0.2 0.2 0.2 0.004785 0.464115 0.52153 0.004785 0.004785 0.001192 0.766388 0.185936 0.045292 0.001192 0.2 0.2 0.2 0.2 0.2 0.000321 0.696794 0.245833 0.056731 0.000321 0.274162 0.278107 0.38856 0.057199 0.001972 0.2 0.2 0.2 0.2 0.2 0.64821 0.199319 0.133731 0.017888 0.000852 0.02042 0.650029 0.328417 0.000567 0.000567 0.2 0.2 0.2 0.2 0.2 0.029785 0.749034 0.220077 0.000552 0.000552 0.008547 0.794872 0.17094 0.017094 0.008547 0.2 0.2 0.2 0.2 0.2 0.000421 0.627525 0.319024 0.052609 0.000421 0.2 0.2 0.2 0.2 0.2 0.454546 0.272727 0.090909 0.090909 0.090909 0.386667 0.293333 0.281212 0.037576 0.001212 0.045455 0.81818 0.045455 0.045455 0.045455 0.2 0.2 0.2 0.2 0.2 0.023743 0.758729 