<?xml version="1.0" encoding="UTF-8"?>
<BIF VERSION="0.3"  xmlns="http://www.cs.ubc.ca/labs/lci/fopi/ve/XMLBIFv0_3"
xmlns:xsi="http://www.w3.org/2001/XMLSchema-instance"
xsi:schemaLocation="http://www.cs.ubc.ca/labs/lci/fopi/ve/XMLBIFv0_3 http://www.cs.ubc.ca/labs/lci/fopi/ve/XMLBIFv0_3/XMLBIFv0_3.xsd">
<NETWORK>
<NAME>imdb</NAME>
<VARIABLE TYPE="nature">
	<NAME>actor_feature_1(actors0)</NAME>
	<OUTCOME>0.0</OUTCOME>
	<OUTCOME>1.0</OUTCOME>
	<PROPERTY> position=(6000.0,4000.0)</PROPERTY>
</VARIABLE>
<VARIABLE TYPE="nature">
	<NAME>actor_feature_2(actors0)</NAME>
	<OUTCOME>0.0</OUTCOME>
	<OUTCOME>1.0</OUTCOME>
	<PROPERTY> position=(6200.0,4000.0)</PROPERTY>
</VARIABLE>
<VARIABLE TYPE="nature">
	<NAME>actor_feature_3(actors0)</NAME>
	<OUTCOME>0.0</OUTCOME>
	<OUTCOME>1.0</OUTCOME>
	<PROPERTY> position=(6400.0,4000.0)</PROPERTY>
</VARIABLE>
<VARIABLE TYPE="nature">
	<NAME>actor_feature_4(actors0)</NAME>
	<OUTCOME>0.0</OUTCOME>
	<OUTCOME>1.0</OUTCOME>
	<PROPERTY> position=(6000.0,4200.0)</PROPERTY>
</VARIABLE>
<VARIABLE TYPE="nature">
	<NAME>actor_feature_5(actors0)</NAME>
	<OUTCOME>0.0</OUTCOME>
	<OUTCOME>1.0</OUTCOME>
	<PROPERTY> position=(6200.0,4200.0)</PROPERTY>
</VARIABLE>
<VARIABLE TYPE="nature">
	<NAME>label(movies0)</NAME>
	<OUTCOME>0.0</OUTCOME>
	<OUTCOME>1.0</OUTCOME>
	<OUTCOME>2.0</OUTCOME>
	<PROPERTY> position=(6400.0,4200.0)</PROPERTY>
</VARIABLE>
<VARIABLE TYPE="nature">
	<NAME>movies_actors(movies0,actors0)</NAME>
	<OUTCOME>T</OUTCOME>
	<PROPERTY> position=(6000.0,4400.0)</PROPERTY>
</VARIABLE>
<VARIABLE TYPE="nature">
	<NAME>movie_feature_1(movies0)</NAME>
	<OUTCOME>0.0</OUTCOME>
	<OUTCOME>1.0</OUTCOME>
	<PROPERTY> position=(6200.0,4400.0)</PROPERTY>
</VARIABLE>
<VARIABLE TYPE="nature">
	<NAME>movie_feature_2(movies0)</NAME>
	<OUTCOME>0.0</OUTCOME>
	<OUTCOME>1.0</OUTCOME>
	<PROPERTY> position=(6400.0,4400.0)</PROPERTY>
</VARIABLE>
<VARIABLE TYPE="nature">
	<NAME>movie_feature_3(movies0)</NAME>
	<OUTCOME>0.0</OUTCOME>
	<OUTCOME>1.0</OUTCOME>
	<PROPERTY> position=(6000.0,4600.0)</PROPERTY>
</VARIABLE>
<VARIABLE TYPE="nature">
	<NAME>movie_feature_4(movies0)</NAME>
	<OUTCOME>0</OUTCOME>
	<OUTCOME>1</OUTCOME>
	<PROPERTY> position=(6200.0,4600.0)</PROPERTY>
</VARIABLE>
<VARIABLE TYPE="nature">
	<NAME>movie_feature_5(movies0)</NAME>
	<OUTCOME>0.0</OUTCOME>
	<OUTCOME>1.0</OUTCOME>
	<PROPERTY> position=(6400.0,4600.0)</PROPERTY>
</VARIABLE>
<VARIABLE TYPE="nature">
	<NAME>director_feature_1(directors0)</NAME>
	<OUTCOME>0.0</OUTCOME>
	<OUTCOME>1.0</OUTCOME>
	<PROPERTY> position=(6000.0,4800.0)</PROPERTY>
</VARIABLE>
<VARIABLE TYPE="nature">
	<NAME>director_feature_2(directors0)</NAME>
	<OUTCOME>0.0</OUTCOME>
	<OUTCOME>1.0</OUTCOME>
	<PROPERTY> position=(6200.0,4800.0)</PROPERTY>
</VARIABLE>
<VARIABLE TYPE="nature">
	<NAME>director_feature_3(directors0)</NAME>
	<OUTCOME>0.0</OUTCOME>
	<OUTCOME>1.0</OUTCOME>
	<PROPERTY> position=(6400.0,4800.0)</PROPERTY>
</VARIABLE>
<VARIABLE TYPE="nature">
	<NAME>director_feature_4(directors0)</NAME>
	<OUTCOME>0.0</OUTCOME>
	<OUTCOME>1.0</OUTCOME>
	<PROPERTY> position=(6000.0,5000.0)</PROPERTY>
</VARIABLE>
<VARIABLE TYPE="nature">
	<NAME>director_feature_5(directors0)</NAME>
	<OUTCOME>0.0</OUTCOME>
	<OUTCOME>1.0</OUTCOME>
	<PROPERTY> position=(6200.0,5000.0)</PROPERTY>
</VARIABLE>
<VARIABLE TYPE="nature">
	<NAME>movies_directors(movies0,directors0)</NAME>
	<OUTCOME>T</OUTCOME>
	<PROPERTY> position=(6400.0,5000.0)</PROPERTY>
</VARIABLE>
<DEFINITION>
	<FOR>actor_feature_1(actors0)</FOR>
	<GIVEN>actor_feature_4(actors0)</GIVEN>
	<GIVEN>actor_feature_5(actors0)</GIVEN>
	<GIVEN>director_feature_1(directors0)</GIVEN>
	<GIVEN>movies_actors(movies0,actors0)</GIVEN>
	<GIVEN>movies_directors(movies0,directors0)</GIVEN>
	<GIVEN>movie_feature_1(movies0)</GIVEN>
	<GIVEN>movie_feature_4(movies0)</GIVEN>
	<GIVEN>movie_feature_5(movies0)</GIVEN>
	<TABLE> 0.999752 0.000248 0.996815 0.003185 0.992308 0.007692 0.5 0.5 0.792453 0.207547 0.933333 0.066667 0.5 0.5 0.5 0.5 0.5 0.5 0.5 0.5 0.5 0.5 0.5 0.5 0.411765 0.588235 0.5 0.5 0.5 0.5 0.5 0.5 0.923077 0.076923 0.992 0.008 0.5 0.5 0.5 0.5 0.666667 0.333333 0.5 0.5 0.5 0.5 0.5 0.5 0.5 0.5 0.5 0.5 0.5 0.5 0.5 0.5 0.5 0.5 0.5 0.5 0.5 0.5 0.5 0.5 0.5 0.5 0.5 0.5 0.974359 0.025641 0.5 0.5 0.5 0.5 0.5 0.5 0.5 0.5 0.5 0.5 0.5 0.5 0.5 0.5 0.5 0.5 0.5 0.5 0.5 0.5 0.5 0.5 0.5 0.5 0.5 0.5 0.5 0.5 0.5 0.5 0.5 0.5 0.5 0.5 0.5 0.5 0.5 0.5 0.5 0.5 0.5 0.5 0.5 0.5 0.5 0.5 0.5 0.5 0.5 0.5 0.5 0.5 0.5 0.5 0.5 0.5 0.5 0.5</TABLE>
</DEFINITION>
<DEFINITION>
	<FOR>actor_feature_2(actors0)</FOR>
	<GIVEN>actor_feature_1(actors0)</GIVEN>
	<GIVEN>actor_feature_4(actors0)</GIVEN>
	<GIVEN>actor_feature_5(actors0)</GIVEN>
	<GIVEN>director_feature_3(directors0)</GIVEN>
	<GIVEN>movies_actors(movies0,actors0)</GIVEN>
	<GIVEN>movies_directors(movies0,directors0)</GIVEN>
	<GIVEN>movie_feature_2(movies0)</GIVEN>
	<GIVEN>movie_feature_4(movies0)</GIVEN>
	<TABLE> 0.999919 0.000081 0.992308 0.007692 0.718182 0.281818 0.5 0.5 0.971429 0.028571 0.5 0.5 0.8 0.2 0.5 0.5 0.992754 0.007246 0.5 0.5 0.5 0.5 0.5 0.5 0.5 0.5 0.5 0.5 0.5 0.5 0.5 0.5 0.5 0.5 0.974359 0.025641 0.5 0.5 0.5 0.5 0.5 0.5 0.5 0.5 0.5 0.5 0.5 0.5 0.5 0.5 0.5 0.5 0.5 0.5 0.5 0.5 0.5 0.5 0.5 0.5 0.5 0.5 0.5 0.5 0.970588 0.029412 0.5 0.5 0.5 0.5 0.5 0.5 0.5 0.5 0.5 0.5 0.5 0.5 0.5 0.5 0.666667 0.333333 0.5 0.5 0.5 0.5 0.5 0.5 0.5 0.5 0.5 0.5 0.5 0.5 0.5 0.5 0.5 0.5 0.5 0.5 0.5 0.5 0.5 0.5 0.5 0.5 0.5 0.5 0.5 0.5 0.5 0.5 0.5 0.5 0.5 0.5 0.5 0.5 0.5 0.5 0.5 0.5 0.5 0.5 0.5 0.5 0.5 0.5</TABLE>
</DEFINITION>
<DEFINITION>
	<FOR>actor_feature_3(actors0)</FOR>
	<GIVEN>actor_feature_1(actors0)</GIVEN>
	<GIVEN>actor_feature_2(actors0)</GIVEN>
	<GIVEN>actor_feature_4(actors0)</GIVEN>
	<GIVEN>actor_feature_5(actors0)</GIVEN>
	<GIVEN>director_feature_3(directors0)</GIVEN>
	<GIVEN>movies_actors(movies0,actors0)</GIVEN>
	<GIVEN>movies_directors(movies0,directors0)</GIVEN>
	<GIVEN>movie_feature_2(movies0)</GIVEN>
	<GIVEN>movie_feature_3(movies0)</GIVEN>
	<TABLE> 0.999919 0.000081 0.849057 0.150943 0.9875 0.0125 0.5 0.5 0.5 0.5 0.485714 0.514286 0.5 0.5 0.8 0.2 0.992701 0.007299 0.333333 0.666667 0.5 0.5 0.5 0.5 0.5 0.5 0.5 0.5 0.5 0.5 0.5 0.5 0.974359 0.025641 0.5 0.5 0.5 0.5 0.5 0.5 0.5 0.5 0.5 0.5 0.5 0.5 0.5 0.5 0.5 0.5 0.5 0.5 0.5 0.5 0.5 0.5 0.5 0.5 0.5 0.5 0.5 0.5 0.5 0.5 0.5 0.5 0.5 0.5 0.96875 0.03125 0.5 0.5 0.5 0.5 0.5 0.5 0.5 0.5 0.5 0.5 0.5 0.5 0.5 0.5 0.5 0.5 0.5 0.5 0.5 0.5 0.5 0.5 0.5 0.5 0.5 0.5 0.5 0.5 0.5 0.5 0.5 0.5 0.5 0.5 0.5 0.5 0.5 0.5 0.5 0.5 0.5 0.5 0.5 0.5 0.5 0.5 0.5 0.5 0.5 0.5 0.5 0.5 0.5 0.5 0.5 0.5 0.5 0.5 0.970588 0.029412 0.5 0.5 0.5 0.5 0.5 0.5 0.5 0.5 0.5 0.5 0.5 0.5 0.5 0.5 0.666667 0.333333 0.5 0.5 0.5 0.5 0.5 0.5 0.5 0.5 0.5 0.5 0.5 0.5 0.5 0.5 0.5 0.5 0.5 0.5 0.5 0.5 0.5 0.5 0.5 0.5 0.5 0.5 0.5 0.5 0.5 0.5 0.5 0.5 0.5 0.5 0.5 0.5 0.5 0.5 0.5 0.5 0.5 0.5 0.5 0.5 0.5 0.5 0.5 0.5 0.5 0.5 0.5 0.5 0.5 0.5 0.5 0.5 0.5 0.5 0.5 0.5 0.5 0.5 0.5 0.5 0.5 0.5 0.5 0.5 0.5 0.5 0.5 0.5 0.5 0.5 0.5 0.5 0.5 0.5 0.5 0.5 0.5 0.5 0.5 0.5 0.5 0.5 0.5 0.5 0.5 0.5 0.5 0.5 0.5 0.5 0.5 0.5 0.5 0.5 0.5 0.5 0.5 0.5 0.5 0.5 0.5 0.5 0.5 0.5 0.5 0.5</TABLE>
</DEFINITION>
<DEFINITION>
	<FOR>actor_feature_4(actors0)</FOR>
	<GIVEN>actor_feature_5(actors0)</GIVEN>
	<GIVEN>director_feature_2(directors0)</GIVEN>
	<GIVEN>movies_actors(movies0,actors0)</GIVEN>
	<GIVEN>movies_directors(movies0,directors0)</GIVEN>
	<GIVEN>movie_feature_1(movies0)</GIVEN>
	<GIVEN>movie_feature_2(movies0)</GIVEN>
	<GIVEN>movie_feature_3(movies0)</GIVEN>
	<GIVEN>movie_feature_4(movies0)</GIVEN>
	<TABLE> 0.999918 0.000082 0.772455 0.227545 0.992806 0.007194 0.5 0.5 0.989796 0.010204 0.5 0.5 0.5 0.5 0.5 0.5 0.992537 0.007463 0.5 0.5 0.5 0.5 0.5 0.5 0.5 0.5 0.5 0.5 0.5 0.5 0.5 0.5 0.5 0.5 0.5 0.5 0.5 0.5 0.5 0.5 0.928571 0.071429 0.5 0.5 0.8 0.2 0.5 0.5 0.5 0.5 0.5 0.5 0.5 0.5 0.5 0.5 0.5 0.5 0.5 0.5 0.5 0.5 0.5 0.5 0.992593 0.007407 0.5 0.5 0.666667 0.333333 0.5 0.5 0.5 0.5 0.5 0.5 0.5 0.5 0.5 0.5 0.8 0.2 0.5 0.5 0.5 0.5 0.5 0.5 0.5 0.5 0.5 0.5 0.5 0.5 0.5 0.5 0.5 0.5 0.5 0.5 0.5 0.5 0.5 0.5 0.5 0.5 0.5 0.5 0.5 0.5 0.5 0.5 0.5 0.5 0.5 0.5 0.5 0.5 0.5 0.5 0.5 0.5 0.5 0.5 0.5 0.5 0.5 0.5</TABLE>
</DEFINITION>
<DEFINITION>
	<FOR>actor_feature_5(actors0)</FOR>
	<GIVEN>director_feature_5(directors0)</GIVEN>
	<GIVEN>movies_actors(movies0,actors0)</GIVEN>
	<GIVEN>movies_directors(movies0,directors0)</GIVEN>
	<GIVEN>movie_feature_1(movies0)</GIVEN>
	<GIVEN>movie_feature_2(movies0)</GIVEN>
	<GIVEN>movie_feature_4(movies0)</GIVEN>
	<GIVEN>movie_feature_5(movies0)</GIVEN>
	<TABLE> 0.998998 0.001002 0.811538 0.188462 0.994012 0.005988 0.5 0.5 0.990909 0.009091 0.8 0.2 0.5 0.5 0.5 0.5 0.983607 0.016393 0.823529 0.176471 0.5 0.5 0.5 0.5 0.5 0.5 0.5 0.5 0.5 0.5 0.5 0.5 0.941176 0.058824 0.568182 0.431818 0.5 0.5 0.5 0.5 0.5 0.5 0.5 0.5 0.5 0.5 0.5 0.5 0.5 0.5 0.5 0.5 0.5 0.5 0.5 0.5 0.5 0.5 0.5 0.5 0.5 0.5 0.5 0.5</TABLE>
</DEFINITION>
<DEFINITION>
	<FOR>label(movies0)</FOR>
	<GIVEN>movie_feature_1(movies0)</GIVEN>
	<GIVEN>movie_feature_2(movies0)</GIVEN>
	<GIVEN>movie_feature_4(movies0)</GIVEN>
	<TABLE> 0.256274 0.369932 0.373794 0.068966 0.827586 0.103448 0.85 0.05 0.1 0.333334 0.333333 0.333333 0.8125 0.104167 0.083333 0.333334 0.333333 0.333333 0.333334 0.333333 0.333333 0.333334 0.333333 0.333333</TABLE>
</DEFINITION>
<DEFINITION>
	<FOR>movies_actors(movies0,actors0)</FOR>
	<TABLE> 1.0</TABLE>
</DEFINITION>
<DEFINITION>
	<FOR>movie_feature_1(movies0)</FOR>
	<GIVEN>movie_feature_4(movies0)</GIVEN>
	<TABLE> 0.989112 0.010888 0.982456 0.017544</TABLE>
</DEFINITION>
<DEFINITION>
	<FOR>movie_feature_2(movies0)</FOR>
	<GIVEN>movie_feature_1(movies0)</GIVEN>
	<GIVEN>movie_feature_4(movies0)</GIVEN>
	<TABLE> 0.990909 0.009091 0.982456 0.017544 0.978723 0.021277 0.5 0.5</TABLE>
</DEFINITION>
<DEFINITION>
	<FOR>movie_feature_3(movies0)</FOR>
	<GIVEN>label(movies0)</GIVEN>
	<GIVEN>movie_feature_1(movies0)</GIVEN>
	<GIVEN>movie_feature_2(movies0)</GIVEN>
	<TABLE> 0.966229 0.033771 0.942857 0.057143 0.975 0.025 0.5 0.5 0.995572 0.004428 0.666667 0.333333 0.833333 0.166667 0.5 0.5 0.996141 0.003859 0.8 0.2 0.8 0.2 0.5 0.5</TABLE>
</DEFINITION>
<DEFINITION>
	<FOR>movie_feature_4(movies0)</FOR>
	<TABLE> 0.986916 0.013084</TABLE>
</DEFINITION>
<DEFINITION>
	<FOR>movie_feature_5(movies0)</FOR>
	<GIVEN>director_feature_2(directors0)</GIVEN>
	<GIVEN>label(movies0)</GIVEN>
	<GIVEN>movies_directors(movies0,directors0)</GIVEN>
	<GIVEN>movie_feature_3(movies0)</GIVEN>
	<TABLE> 0.929809 0.070191 0.945946 0.054054 0.983544 0.016456 0.875 0.125 0.969152 0.030848 0.714286 0.285714 0.833333 0.166667 0.666667 0.333333 0.5 0.5 0.5 0.5 0.5 0.5 0.5 0.5</TABLE>
</DEFINITION>
<DEFINITION>
	<FOR>director_feature_1(directors0)</FOR>
	<GIVEN>director_feature_3(directors0)</GIVEN>
	<GIVEN>movies_directors(movies0,directors0)</GIVEN>
	<GIVEN>movie_feature_1(movies0)</GIVEN>
	<GIVEN>movie_feature_2(movies0)</GIVEN>
	<GIVEN>movie_feature_3(movies0)</GIVEN>
	<GIVEN>movie_feature_4(movies0)</GIVEN>
	<TABLE> 0.999756 0.000244 0.982456 0.017544 0.972973 0.027027 0.5 0.5 0.973684 0.026316 0.5 0.5 0.5 0.5 0.5 0.5 0.87234 0.12766 0.5 0.5 0.5 0.5 0.5 0.5 0.5 0.5 0.5 0.5 0.5 0.5 0.5 0.5 0.5 0.5 0.5 0.5 0.923077 0.076923 0.5 0.5 0.5 0.5 0.5 0.5 0.666667 0.333333 0.5 0.5 0.5 0.5 0.5 0.5 0.5 0.5 0.5 0.5 0.5 0.5 0.5 0.5 0.5 0.5 0.5 0.5</TABLE>
</DEFINITION>
<DEFINITION>
	<FOR>director_feature_2(directors0)</FOR>
	<GIVEN>director_feature_1(directors0)</GIVEN>
	<GIVEN>director_feature_3(directors0)</GIVEN>
	<GIVEN>movies_directors(movies0,directors0)</GIVEN>
	<GIVEN>movie_feature_1(movies0)</GIVEN>
	<GIVEN>movie_feature_2(movies0)</GIVEN>
	<GIVEN>movie_feature_3(movies0)</GIVEN>
	<TABLE> 0.999759 0.000241 0.972973 0.027027 0.868421 0.131579 0.5 0.5 0.97619 0.02381 0.5 0.5 0.5 0.5 0.5 0.5 0.5 0.5 0.923077 0.076923 0.5 0.5 0.333333 0.666667 0.5 0.5 0.5 0.5 0.5 0.5 0.5 0.5 0.5 0.5 0.5 0.5 0.5 0.5 0.5 0.5 0.857143 0.142857 0.5 0.5 0.5 0.5 0.5 0.5 0.5 0.5 0.5 0.5 0.5 0.5 0.5 0.5 0.5 0.5 0.5 0.5 0.5 0.5 0.5 0.5</TABLE>
</DEFINITION>
<DEFINITION>
	<FOR>director_feature_3(directors0)</FOR>
	<GIVEN>movies_directors(movies0,directors0)</GIVEN>
	<GIVEN>movie_feature_1(movies0)</GIVEN>
	<GIVEN>movie_feature_2(movies0)</GIVEN>
	<GIVEN>movie_feature_3(movies0)</GIVEN>
	<GIVEN>movie_feature_4(movies0)</GIVEN>
	<TABLE> 0.999756 0.000244 0.982456 0.017544 0.75 0.25 0.5 0.5 0.973684 0.026316 0.5 0.5 0.333333 0.666667 0.5 0.5 0.978723 0.021277 0.5 0.5 0.5 0.5 0.5 0.5 0.5 0.5 0.5 0.5 0.5 0.5 0.5 0.5</TABLE>
</DEFINITION>
<DEFINITION>
	<FOR>director_feature_4(directors0)</FOR>
	<GIVEN>director_feature_1(directors0)</GIVEN>
	<GIVEN>director_feature_3(directors0)</GIVEN>
	<GIVEN>director_feature_5(directors0)</GIVEN>
	<GIVEN>movies_directors(movies0,directors0)</GIVEN>
	<GIVEN>movie_feature_1(movies0)</GIVEN>
	<GIVEN>movie_feature_3(movies0)</GIVEN>
	<GIVEN>movie_feature_4(movies0)</GIVEN>
	<TABLE> 0.999754 0.000246 0.77193 0.22807 0.972973 0.027027 0.5 0.5 0.97619 0.02381 0.5 0.5 0.5 0.5 0.5 0.5 0.984615 0.015385 0.5 0.5 0.5 0.5 0.5 0.5 0.5 0.5 0.5 0.5 0.5 0.5 0.5 0.5 0.5 0.5 0.5 0.5 0.928571 0.071429 0.5 0.5 0.5 0.5 0.5 0.5 0.5 0.5 0.5 0.5 0.5 0.5 0.5 0.5 0.5 0.5 0.5 0.5 0.5 0.5 0.5 0.5 0.5 0.5 0.5 0.5 0.5 0.5 0.5 0.5 0.5 0.5 0.5 0.5 0.857143 0.142857 0.5 0.5 0.5 0.5 0.5 0.5 0.5 0.5 0.5 0.5 0.5 0.5 0.5 0.5 0.5 0.5 0.5 0.5 0.5 0.5 0.5 0.5 0.5 0.5 0.5 0.5 0.5 0.5 0.5 0.5 0.5 0.5 0.5 0.5 0.5 0.5 0.5 0.5 0.5 0.5 0.5 0.5 0.5 0.5 0.5 0.5 0.5 0.5 0.5 0.5 0.5 0.5 0.5 0.5</TABLE>
</DEFINITION>
<DEFINITION>
	<FOR>director_feature_5(directors0)</FOR>
	<GIVEN>director_feature_1(directors0)</GIVEN>
	<GIVEN>director_feature_2(directors0)</GIVEN>
	<GIVEN>movies_directors(movies0,directors0)</GIVEN>
	<GIVEN>movie_feature_1(movies0)</GIVEN>
	<GIVEN>movie_feature_5(movies0)</GIVEN>
	<TABLE> 0.998531 0.001469 0.598639 0.401361 0.972973 0.027027 0.857143 0.142857 0.857143 0.142857 0.5 0.5 0.5 0.5 0.5 0.5 0.5 0.5 0.5 0.5 0.857143 0.142857 0.5 0.5 0.5 0.5 0.5 0.5 0.5 0.5 0.5 0.5</TABLE>
</DEFINITION>
<DEFINITION>
	<FOR>movies_directors(movies0,directors0)</FOR>
	<TABLE> 1.0</TABLE>
</DEFINITION>
</NETWORK>
</BIF>
