<?xml version="1.0" encoding="UTF-8"?>
<BIF VERSION="0.3"  xmlns="http://www.cs.ubc.ca/labs/lci/fopi/ve/XMLBIFv0_3"
xmlns:xsi="http://www.w3.org/2001/XMLSchema-instance"
xsi:schemaLocation="http://www.cs.ubc.ca/labs/lci/fopi/ve/XMLBIFv0_3 http://www.cs.ubc.ca/labs/lci/fopi/ve/XMLBIFv0_3/XMLBIFv0_3.xsd">
<NETWORK>
<NAME>imdb_new</NAME>
<VARIABLE TYPE="nature">
	<NAME>actor_movie(actors0,movies0)</NAME>
	<OUTCOME>T</OUTCOME>
	<PROPERTY> position=(6000.0,4000.0)</PROPERTY>
</VARIABLE>
<VARIABLE TYPE="nature">
	<NAME>feature_1(movies0)</NAME>
	<OUTCOME>0.0</OUTCOME>
	<OUTCOME>1.0</OUTCOME>
	<OUTCOME>2.0</OUTCOME>
	<PROPERTY> position=(6200.0,4000.0)</PROPERTY>
</VARIABLE>
<VARIABLE TYPE="nature">
	<NAME>feature_2(movies0)</NAME>
	<OUTCOME>0</OUTCOME>
	<OUTCOME>1</OUTCOME>
	<OUTCOME>2</OUTCOME>
	<PROPERTY> position=(6400.0,4000.0)</PROPERTY>
</VARIABLE>
<VARIABLE TYPE="nature">
	<NAME>feature_3(movies0)</NAME>
	<OUTCOME>0.0</OUTCOME>
	<OUTCOME>1.0</OUTCOME>
	<OUTCOME>2.0</OUTCOME>
	<PROPERTY> position=(6000.0,4200.0)</PROPERTY>
</VARIABLE>
<VARIABLE TYPE="nature">
	<NAME>feature_4(movies0)</NAME>
	<OUTCOME>0.0</OUTCOME>
	<OUTCOME>1.0</OUTCOME>
	<OUTCOME>2.0</OUTCOME>
	<PROPERTY> position=(6200.0,4200.0)</PROPERTY>
</VARIABLE>
<VARIABLE TYPE="nature">
	<NAME>feature_5(movies0)</NAME>
	<OUTCOME>0.0</OUTCOME>
	<OUTCOME>1.0</OUTCOME>
	<OUTCOME>2.0</OUTCOME>
	<PROPERTY> position=(6400.0,4200.0)</PROPERTY>
</VARIABLE>
<VARIABLE TYPE="nature">
	<NAME>label(movies0)</NAME>
	<OUTCOME>0.0</OUTCOME>
	<OUTCOME>1.0</OUTCOME>
	<OUTCOME>2.0</OUTCOME>
	<PROPERTY> position=(6000.0,4400.0)</PROPERTY>
</VARIABLE>
<VARIABLE TYPE="nature">
	<NAME>director_movie(directors0,movies0)</NAME>
	<OUTCOME>T</OUTCOME>
	<PROPERTY> position=(6200.0,4400.0)</PROPERTY>
</VARIABLE>
<DEFINITION>
	<FOR>actor_movie(actors0,movies0)</FOR>
	<TABLE> 1.0</TABLE>
</DEFINITION>
<DEFINITION>
	<FOR>feature_1(movies0)</FOR>
	<GIVEN>feature_2(movies0)</GIVEN>
	<TABLE> 0.988926 0.010603 0.000471 0.948718 0.025641 0.025641 0.5 0.25 0.25</TABLE>
</DEFINITION>
<DEFINITION>
	<FOR>feature_2(movies0)</FOR>
	<TABLE> 0.99089 0.008643 0.000467</TABLE>
</DEFINITION>
<DEFINITION>
	<FOR>feature_3(movies0)</FOR>
	<GIVEN>feature_1(movies0)</GIVEN>
	<GIVEN>label(movies0)</GIVEN>
	<TABLE> 0.965455 0.033636 0.000909 0.994947 0.00379 0.001263 0.99551 0.003849 0.000641 0.95 0.025 0.025 0.714286 0.142857 0.142857 0.666666 0.166667 0.166667 0.5 0.25 0.25 0.333334 0.333333 0.333333 0.333334 0.333333 0.333333</TABLE>
</DEFINITION>
<DEFINITION>
	<FOR>feature_4(movies0)</FOR>
	<GIVEN>feature_2(movies0)</GIVEN>
	<GIVEN>label(movies0)</GIVEN>
	<TABLE> 0.988235 0.01086 0.000905 0.923077 0.071248 0.005675 0.954458 0.041693 0.003849 0.942858 0.028571 0.028571 0.5 0.25 0.25 0.666666 0.166667 0.166667 0.5 0.25 0.25 0.333334 0.333333 0.333333 0.333334 0.333333 0.333333</TABLE>
</DEFINITION>
<DEFINITION>
	<FOR>feature_5(movies0)</FOR>
	<GIVEN>feature_1(movies0)</GIVEN>
	<GIVEN>label(movies0)</GIVEN>
	<TABLE> 0.952728 0.044545 0.002727 0.99242 0.006317 0.001263 0.989096 0.010263 0.000641 0.925 0.05 0.025 0.714286 0.142857 0.142857 0.666666 0.166667 0.166667 0.5 0.25 0.25 0.333334 0.333333 0.333333 0.333334 0.333333 0.333333</TABLE>
</DEFINITION>
<DEFINITION>
	<FOR>label(movies0)</FOR>
	<GIVEN>feature_1(movies0)</GIVEN>
	<GIVEN>feature_2(movies0)</GIVEN>
	<TABLE> 0.253632 0.37628 0.370088 0.846154 0.051282 0.102564 0.5 0.25 0.25 0.808511 0.106383 0.085106 0.333334 0.333333 0.333333 0.333334 0.333333 0.333333 0.5 0.25 0.25 0.333334 0.333333 0.333333 0.333334 0.333333 0.333333</TABLE>
</DEFINITION>
<DEFINITION>
	<FOR>director_movie(directors0,movies0)</FOR>
	<TABLE> 1.0</TABLE>
</DEFINITION>
</NETWORK>
</BIF>
