<?xml version="1.0" encoding="UTF-8"?>
<BIF VERSION="0.3"  xmlns="http://www.cs.ubc.ca/labs/lci/fopi/ve/XMLBIFv0_3"
xmlns:xsi="http://www.w3.org/2001/XMLSchema-instance"
xsi:schemaLocation="http://www.cs.ubc.ca/labs/lci/fopi/ve/XMLBIFv0_3 http://www.cs.ubc.ca/labs/lci/fopi/ve/XMLBIFv0_3/XMLBIFv0_3.xsd">
<NETWORK>
<NAME>cora</NAME>
<VARIABLE TYPE="nature">
	<NAME>edges_table(nodes_table0,nodes_table1)</NAME>
	<OUTCOME>T</OUTCOME>
	<PROPERTY> position=(6000.0,4000.0)</PROPERTY>
</VARIABLE>
<VARIABLE TYPE="nature">
	<NAME>feature_1(nodes_table0)</NAME>
	<OUTCOME>0.0</OUTCOME>
	<OUTCOME>1.0</OUTCOME>
	<PROPERTY> position=(6200.0,4000.0)</PROPERTY>
</VARIABLE>
<VARIABLE TYPE="nature">
	<NAME>feature_1(nodes_table1)</NAME>
	<OUTCOME>0</OUTCOME>
	<OUTCOME>1</OUTCOME>
	<PROPERTY> position=(6400.0,4000.0)</PROPERTY>
</VARIABLE>
<VARIABLE TYPE="nature">
	<NAME>feature_2(nodes_table0)</NAME>
	<OUTCOME>0.0</OUTCOME>
	<OUTCOME>1.0</OUTCOME>
	<PROPERTY> position=(6000.0,4200.0)</PROPERTY>
</VARIABLE>
<VARIABLE TYPE="nature">
	<NAME>feature_2(nodes_table1)</NAME>
	<OUTCOME>0</OUTCOME>
	<OUTCOME>1</OUTCOME>
	<PROPERTY> position=(6200.0,4200.0)</PROPERTY>
</VARIABLE>
<VARIABLE TYPE="nature">
	<NAME>feature_3(nodes_table0)</NAME>
	<OUTCOME>0.0</OUTCOME>
	<OUTCOME>1.0</OUTCOME>
	<PROPERTY> position=(6400.0,4200.0)</PROPERTY>
</VARIABLE>
<VARIABLE TYPE="nature">
	<NAME>feature_3(nodes_table1)</NAME>
	<OUTCOME>0</OUTCOME>
	<OUTCOME>1</OUTCOME>
	<PROPERTY> position=(6000.0,4400.0)</PROPERTY>
</VARIABLE>
<VARIABLE TYPE="nature">
	<NAME>feature_4(nodes_table0)</NAME>
	<OUTCOME>0.0</OUTCOME>
	<OUTCOME>1.0</OUTCOME>
	<PROPERTY> position=(6200.0,4400.0)</PROPERTY>
</VARIABLE>
<VARIABLE TYPE="nature">
	<NAME>feature_4(nodes_table1)</NAME>
	<OUTCOME>0</OUTCOME>
	<OUTCOME>1</OUTCOME>
	<PROPERTY> position=(6400.0,4400.0)</PROPERTY>
</VARIABLE>
<VARIABLE TYPE="nature">
	<NAME>feature_5(nodes_table0)</NAME>
	<OUTCOME>0.0</OUTCOME>
	<OUTCOME>1.0</OUTCOME>
	<PROPERTY> position=(6000.0,4600.0)</PROPERTY>
</VARIABLE>
<VARIABLE TYPE="nature">
	<NAME>feature_5(nodes_table1)</NAME>
	<OUTCOME>0</OUTCOME>
	<OUTCOME>1</OUTCOME>
	<PROPERTY> position=(6200.0,4600.0)</PROPERTY>
</VARIABLE>
<VARIABLE TYPE="nature">
	<NAME>label(nodes_table0)</NAME>
	<OUTCOME>0.0</OUTCOME>
	<OUTCOME>1.0</OUTCOME>
	<OUTCOME>2.0</OUTCOME>
	<OUTCOME>3.0</OUTCOME>
	<OUTCOME>4.0</OUTCOME>
	<OUTCOME>5.0</OUTCOME>
	<OUTCOME>6.0</OUTCOME>
	<PROPERTY> position=(6400.0,4600.0)</PROPERTY>
</VARIABLE>
<VARIABLE TYPE="nature">
	<NAME>label(nodes_table1)</NAME>
	<OUTCOME>0</OUTCOME>
	<OUTCOME>1</OUTCOME>
	<OUTCOME>2</OUTCOME>
	<OUTCOME>3</OUTCOME>
	<OUTCOME>4</OUTCOME>
	<OUTCOME>5</OUTCOME>
	<OUTCOME>6</OUTCOME>
	<PROPERTY> position=(6000.0,4800.0)</PROPERTY>
</VARIABLE>
<DEFINITION>
	<FOR>edges_table(nodes_table0,nodes_table1)</FOR>
	<TABLE> 1.0</TABLE>
</DEFINITION>
<DEFINITION>
	<FOR>feature_1(nodes_table0)</FOR>
	<GIVEN>edges_table(nodes_table0,nodes_table1)</GIVEN>
	<GIVEN>label(nodes_table1)</GIVEN>
	<TABLE> 0.988882 0.011118 0.968962 0.031038 0.407002 0.592998 0.989437 0.010563 0.994354 0.005646 0.983456 0.016544 0.992424 0.007576</TABLE>
</DEFINITION>
<DEFINITION>
	<FOR>feature_1(nodes_table1)</FOR>
	<TABLE> 0.906273 0.093727</TABLE>
</DEFINITION>
<DEFINITION>
	<FOR>feature_2(nodes_table0)</FOR>
	<GIVEN>edges_table(nodes_table0,nodes_table1)</GIVEN>
	<GIVEN>feature_2(nodes_table1)</GIVEN>
	<GIVEN>feature_5(nodes_table1)</GIVEN>
	<GIVEN>label(nodes_table1)</GIVEN>
	<TABLE> 0.945736 0.054264 0.914474 0.085526 0.852045 0.147955 0.782531 0.217469 0.965727 0.034273 0.993388 0.006612 0.993789 0.006211 0.954222 0.045778 0.892765 0.107235 0.838527 0.161473 0.672 0.328 0.885463 0.114537 0.960251 0.039749 0.988235 0.011765 0.5 0.5 0.615385 0.384615 0.678689 0.321311 0.503949 0.496051 0.7 0.3 0.75 0.25 0.5 0.5 0.636364 0.363636 0.714286 0.285714 0.518519 0.481481 0.536481 0.463519 0.8 0.2 0.714286 0.285714 0.5 0.5</TABLE>
</DEFINITION>
<DEFINITION>
	<FOR>feature_2(nodes_table1)</FOR>
	<TABLE> 0.851292 0.148708</TABLE>
</DEFINITION>
<DEFINITION>
	<FOR>feature_3(nodes_table0)</FOR>
	<GIVEN>edges_table(nodes_table0,nodes_table1)</GIVEN>
	<GIVEN>feature_3(nodes_table1)</GIVEN>
	<GIVEN>feature_5(nodes_table0)</GIVEN>
	<GIVEN>label(nodes_table0)</GIVEN>
	<TABLE> 0.998099 0.001901 0.931034 0.068966 0.999306 0.000694 0.999427 0.000573 0.999246 0.000754 0.998336 0.001664 0.996894 0.003106 0.99899 0.00101 0.509766 0.490234 0.989011 0.010989 0.996276 0.003724 0.996183 0.003817 0.978723 0.021277 0.997059 0.002941 0.75 0.25 0.877551 0.122449 0.923077 0.076923 0.888889 0.111111 0.857143 0.142857 0.875 0.125 0.5 0.5 0.8 0.2 0.411111 0.588889 0.9375 0.0625 0.882353 0.117647 0.8 0.2 0.733333 0.266667 0.5 0.5</TABLE>
</DEFINITION>
<DEFINITION>
	<FOR>feature_3(nodes_table1)</FOR>
	<TABLE> 0.957196 0.042804</TABLE>
</DEFINITION>
<DEFINITION>
	<FOR>feature_4(nodes_table0)</FOR>
	<GIVEN>edges_table(nodes_table0,nodes_table1)</GIVEN>
	<GIVEN>feature_2(nodes_table0)</GIVEN>
	<GIVEN>feature_4(nodes_table1)</GIVEN>
	<GIVEN>label(nodes_table0)</GIVEN>
	<TABLE> 0.988571 0.011429 0.97037 0.02963 0.98414 0.01586 0.85654 0.14346 0.896725 0.103275 0.985591 0.014409 0.996933 0.003067 0.757576 0.242424 0.922414 0.077586 0.86722 0.13278 0.669039 0.330961 0.406877 0.593123 0.97619 0.02381 0.9 0.1 0.190476 0.809524 0.140845 0.859155 0.023585 0.976415 0.229039 0.770961 0.030303 0.969697 0.125 0.875 0.5 0.5 0.2 0.8 0.125 0.875 0.083333 0.916667 0.15082 0.84918 0.037037 0.962963 0.333333 0.666667 0.5 0.5</TABLE>
</DEFINITION>
<DEFINITION>
	<FOR>feature_4(nodes_table1)</FOR>
	<TABLE> 0.792989 0.207011</TABLE>
</DEFINITION>
<DEFINITION>
	<FOR>feature_5(nodes_table0)</FOR>
	<GIVEN>edges_table(nodes_table0,nodes_table1)</GIVEN>
	<GIVEN>feature_4(nodes_table0)</GIVEN>
	<GIVEN>feature_5(nodes_table1)</GIVEN>
	<GIVEN>label(nodes_table0)</GIVEN>
	<TABLE> 0.479705 0.520295 0.235955 0.764045 0.852659 0.147341 0.756547 0.243453 0.931002 0.068998 0.672384 0.327616 0.628834 0.371166 0.268398 0.731602 0.134247 0.865753 0.496855 0.503145 0.576241 0.423759 0.681818 0.318182 0.409465 0.590535 0.349254 0.650746 0.341463 0.658537 0.222222 0.777778 0.910072 0.089928 0.570588 0.429412 0.745247 0.254753 0.857143 0.142857 0.5 0.5 0.285714 0.714286 0.186275 0.813725 0.714286 0.285714 0.458844 0.541156 0.376 0.624 0.545455 0.454545 0.333333 0.666667</TABLE>
</DEFINITION>
<DEFINITION>
	<FOR>feature_5(nodes_table1)</FOR>
	<TABLE> 0.638007 0.361993</TABLE>
</DEFINITION>
<DEFINITION>
	<FOR>label(nodes_table0)</FOR>
	<GIVEN>edges_table(nodes_table0,nodes_table1)</GIVEN>
	<GIVEN>feature_1(nodes_table0)</GIVEN>
	<GIVEN>feature_2(nodes_table0)</GIVEN>
	<GIVEN>label(nodes_table1)</GIVEN>
	<TABLE> 0.733472 0.020877 0.006263 0.071677 0.059151 0.052888 0.055672 0.03712 0.832396 0.03712 0.034871 0.022497 0.032621 0.003375 0.037855 0.064669 0.801261 0.039432 0.004732 0.048896 0.003155 0.07957 0.031183 0.010753 0.771505 0.068817 0.029032 0.00914 0.056954 0.013907 0.001987 0.064238 0.845695 0.012583 0.004636 0.07197 0.027462 0.017992 0.042614 0.014205 0.782196 0.043561 0.123288 0.004566 0.001522 0.019787 0.010654 0.071537 0.768646 0.181818 0.045455 0.011364 0.681817 0.056818 0.011364 0.011364 0.00813 0.609757 0.04065 0.308943 0.01626 0.00813 0.00813 0.00813 0.081301 0.650407 0.235772 0.00813 0.00813 0.00813 0.015576 0.011423 0.009346 0.949117 0.011423 0.002077 0.001038 0.045455 0.011364 0.011364 0.477271 0.420455 0.022727 0.011364 0.037037 0.037037 0.037037 0.407408 0.222222 0.222222 0.037037 0.090909 0.090909 0.090909 0.454546 0.090909 0.090909 0.090909 0.05 0.05 0.65 0.05 0.05 0.05 0.1 0.034483 0.068966 0.758619 0.034483 0.034483 0.034483 0.034483 0.001147 0.008028 0.98509 0.001147 0.001147 0.001147 0.002294 0.058824 0.058824 0.588233 0.117647 0.058824 0.058824 0.058824 0.066667 0.066667 0.066667 0.066667 0.599998 0.066667 0.066667 0.045455 0.045455 0.499998 0.045455 0.045455 0.227273 0.090909 0.090909 0.090909 0.272728 0.090909 0.090909 0.090909 0.272727 0.1 0.1 0.4 0.1 0.1 0.1 0.1 0.0625 0.3125 0.375 0.0625 0.0625 0.0625 0.0625 0.004444 0.035556 0.937779 0.008889 0.004444 0.004444 0.004444 0.038462 0.038462 0.692305 0.115385 0.038462 0.038462 0.038462 0.142857 0.142857 0.142857 0.142858 0.142857 0.142857 0.142857 0.111111 0.111111 0.333334 0.111111 0.111111 0.111111 0.111111 0.142858 0.142857 0.142857 0.142857 0.142857 0.142857 0.142857</TABLE>
</DEFINITION>
<DEFINITION>
	<FOR>label(nodes_table1)</FOR>
	<TABLE> 0.12965 0.080295 0.154328 0.301657 0.157274 0.110129 0.066667</TABLE>
</DEFINITION>
</NETWORK>
</BIF>
