<?xml version="1.0" encoding="UTF-8"?>
<BIF VERSION="0.3"  xmlns="http://www.cs.ubc.ca/labs/lci/fopi/ve/XMLBIFv0_3"
xmlns:xsi="http://www.w3.org/2001/XMLSchema-instance"
xsi:schemaLocation="http://www.cs.ubc.ca/labs/lci/fopi/ve/XMLBIFv0_3 http://www.cs.ubc.ca/labs/lci/fopi/ve/XMLBIFv0_3/XMLBIFv0_3.xsd">
<NETWORK>
<NAME>acm</NAME>
<VARIABLE TYPE="nature">
	<NAME>edges_table(nodes_table0,nodes_table1)</NAME>
	<OUTCOME>T</OUTCOME>
	<PROPERTY> position=(6000.0,4000.0)</PROPERTY>
</VARIABLE>
<VARIABLE TYPE="nature">
	<NAME>feature_1(nodes_table0)</NAME>
	<OUTCOME>0.0</OUTCOME>
	<OUTCOME>1.0</OUTCOME>
	<PROPERTY> position=(6200.0,4000.0)</PROPERTY>
</VARIABLE>
<VARIABLE TYPE="nature">
	<NAME>feature_1(nodes_table1)</NAME>
	<OUTCOME>0</OUTCOME>
	<OUTCOME>1</OUTCOME>
	<PROPERTY> position=(6400.0,4000.0)</PROPERTY>
</VARIABLE>
<VARIABLE TYPE="nature">
	<NAME>feature_2(nodes_table0)</NAME>
	<OUTCOME>0.0</OUTCOME>
	<OUTCOME>1.0</OUTCOME>
	<PROPERTY> position=(6000.0,4200.0)</PROPERTY>
</VARIABLE>
<VARIABLE TYPE="nature">
	<NAME>feature_2(nodes_table1)</NAME>
	<OUTCOME>0</OUTCOME>
	<OUTCOME>1</OUTCOME>
	<PROPERTY> position=(6200.0,4200.0)</PROPERTY>
</VARIABLE>
<VARIABLE TYPE="nature">
	<NAME>feature_3(nodes_table0)</NAME>
	<OUTCOME>0.0</OUTCOME>
	<OUTCOME>1.0</OUTCOME>
	<PROPERTY> position=(6400.0,4200.0)</PROPERTY>
</VARIABLE>
<VARIABLE TYPE="nature">
	<NAME>feature_3(nodes_table1)</NAME>
	<OUTCOME>0</OUTCOME>
	<OUTCOME>1</OUTCOME>
	<PROPERTY> position=(6000.0,4400.0)</PROPERTY>
</VARIABLE>
<VARIABLE TYPE="nature">
	<NAME>feature_4(nodes_table0)</NAME>
	<OUTCOME>0.0</OUTCOME>
	<OUTCOME>1.0</OUTCOME>
	<PROPERTY> position=(6200.0,4400.0)</PROPERTY>
</VARIABLE>
<VARIABLE TYPE="nature">
	<NAME>feature_4(nodes_table1)</NAME>
	<OUTCOME>0</OUTCOME>
	<OUTCOME>1</OUTCOME>
	<PROPERTY> position=(6400.0,4400.0)</PROPERTY>
</VARIABLE>
<VARIABLE TYPE="nature">
	<NAME>feature_5(nodes_table0)</NAME>
	<OUTCOME>0.0</OUTCOME>
	<OUTCOME>1.0</OUTCOME>
	<PROPERTY> position=(6000.0,4600.0)</PROPERTY>
</VARIABLE>
<VARIABLE TYPE="nature">
	<NAME>feature_5(nodes_table1)</NAME>
	<OUTCOME>0</OUTCOME>
	<OUTCOME>1</OUTCOME>
	<PROPERTY> position=(6200.0,4600.0)</PROPERTY>
</VARIABLE>
<VARIABLE TYPE="nature">
	<NAME>label(nodes_table0)</NAME>
	<OUTCOME>0.0</OUTCOME>
	<OUTCOME>1.0</OUTCOME>
	<OUTCOME>2.0</OUTCOME>
	<PROPERTY> position=(6400.0,4600.0)</PROPERTY>
</VARIABLE>
<VARIABLE TYPE="nature">
	<NAME>label(nodes_table1)</NAME>
	<OUTCOME>0</OUTCOME>
	<OUTCOME>1</OUTCOME>
	<OUTCOME>2</OUTCOME>
	<PROPERTY> position=(6000.0,4800.0)</PROPERTY>
</VARIABLE>
<DEFINITION>
	<FOR>edges_table(nodes_table0,nodes_table1)</FOR>
	<TABLE> 1.0</TABLE>
</DEFINITION>
<DEFINITION>
	<FOR>feature_1(nodes_table0)</FOR>
	<GIVEN>edges_table(nodes_table0,nodes_table1)</GIVEN>
	<GIVEN>feature_1(nodes_table1)</GIVEN>
	<GIVEN>feature_2(nodes_table0)</GIVEN>
	<GIVEN>feature_2(nodes_table1)</GIVEN>
	<GIVEN>feature_3(nodes_table1)</GIVEN>
	<GIVEN>feature_5(nodes_table1)</GIVEN>
	<GIVEN>label(nodes_table0)</GIVEN>
	<GIVEN>label(nodes_table1)</GIVEN>
	<TABLE> 0.5 0.5 0.998141 0.001859 0.75 0.25 0.929771 0.070229 0.5 0.5 0.5 0.5 0.75 0.25 0.5 0.5 0.5 0.5 0.5 0.5 0.996337 0.003663 0.666667 0.333333 0.945392 0.054608 0.5 0.5 0.5 0.5 0.666667 0.333333 0.5 0.5 0.5 0.5 0.5 0.5 0.997748 0.002252 0.666667 0.333333 0.936575 0.063425 0.5 0.5 0.5 0.5 0.5 0.5 0.5 0.5 0.5 0.5 0.5 0.5 0.997101 0.002899 0.5 0.5 0.914384 0.085616 0.5 0.5 0.5 0.5 0.666667 0.333333 0.5 0.5 0.5 0.5 0.5 0.5 0.974359 0.025641 0.5 0.5 0.5 0.5 0.5 0.5 0.5 0.5 0.5 0.5 0.5 0.5 0.5 0.5 0.666667 0.333333 0.983607 0.016393 0.5 0.5 0.5 0.5 0.5 0.5 0.5 0.5 0.5 0.5 0.5 0.5 0.5 0.5 0.5 0.5 0.993333 0.006667 0.5 0.5 0.5 0.5 0.5 0.5 0.666667 0.333333 0.5 0.5 0.5 0.5 0.5 0.5 0.5 0.5 0.99763 0.00237 0.666667 0.333333 0.5 0.5 0.5 0.5 0.4 0.6 0.5 0.5 0.5 0.5 0.5 0.5 0.5 0.5 0.5 0.5 0.5 0.5 0.416923 0.583077 0.5 0.5 0.25 0.75 0.2 0.8 0.5 0.5 0.5 0.5 0.666667 0.333333 0.5 0.5 0.5 0.5 0.419847 0.580153 0.5 0.5 0.5 0.5 0.5 0.5 0.333333 0.666667 0.5 0.5 0.5 0.5 0.5 0.5 0.5 0.5 0.402778 0.597222 0.5 0.5 0.5 0.5 0.5 0.5 0.333333 0.666667 0.5 0.5 0.5 0.5 0.5 0.5 0.5 0.5 0.378378 0.621622 0.5 0.5 0.5 0.5 0.666667 0.333333 0.333333 0.666667 0.5 0.5 0.5 0.5 0.998542 0.001458 0.5 0.5 0.727479 0.272521 0.5 0.5 0.333333 0.666667 0.142857 0.857143 0.2 0.8 0.5 0.5 0.5 0.5 0.997567 0.002433 0.5 0.5 0.736536 0.263464 0.5 0.5 0.666667 0.333333 0.5 0.5 0.4 0.6 0.5 0.5 0.5 0.5 0.99865 0.00135 0.5 0.5 0.712605 0.287395 0.5 0.5 0.666667 0.333333 0.25 0.75 0.4 0.6 0.5 0.5 0.5 0.5 0.998897 0.001103 0.333333 0.666667 0.711185 0.288815 0.5 0.5 0.333333 0.666667 0.5 0.5 0.142857 0.857143 0.5 0.5 0.5 0.5 0.067485 0.932515 0.5 0.5 0.005525 0.994475 0.5 0.5 0.5 0.5 0.5 0.5 0.5 0.5 0.5 0.5 0.5 0.5 0.103448 0.896552 0.5 0.5 0.005128 0.994872 0.5 0.5 0.5 0.5 0.5 0.5 0.5 0.5 0.5 0.5 0.5 0.5 0.118812 0.881188 0.5 0.5 0.005319 0.994681 0.5 0.5 0.5 0.5 0.5 0.5 0.5 0.5 0.5 0.5 0.5 0.5 0.309645 0.690355 0.5 0.5 0.011364 0.988636 0.5 0.5 0.5 0.5 0.5 0.5 0.5 0.5 0.5 0.5 0.5 0.5 0.363636 0.636364 0.5 0.5 0.5 0.5 0.5 0.5 0.333333 0.666667 0.5 0.5 0.5 0.5 0.5 0.5 0.333333 0.666667 0.455882 0.544118 0.5 0.5 0.5 0.5 0.5 0.5 0.5 0.5 0.5 0.5 0.5 0.5 0.5 0.5 0.5 0.5 0.625 0.375 0.5 0.5 0.5 0.5 0.5 0.5 0.333333 0.666667 0.5 0.5 0.666667 0.333333 0.5 0.5 0.5 0.5 0.688719 0.311281 0.666667 0.333333 0.5 0.5 0.5 0.5 0.7 0.3 0.5 0.5 0.5 0.5 0.5 0.5 0.5 0.5 0.5 0.5 0.5 0.5 0.006536 0.993464 0.5 0.5 0.5 0.5 0.333333 0.666667 0.4 0.6 0.5 0.5 0.5 0.5 0.5 0.5 0.5 0.5 0.006623 0.993377 0.5 0.5 0.5 0.5 0.5 0.5 0.333333 0.666667 0.5 0.5 0.333333 0.666667 0.5 0.5 0.5 0.5 0.008065 0.991935 0.5 0.5 0.333333 0.666667 0.5 0.5 0.666667 0.333333 0.5 0.5 0.5 0.5 0.5 0.5 0.5 0.5 0.014286 0.985714 0.5 0.5 0.5 0.5 0.5 0.5 0.333333 0.666667 0.5 0.5 0.5 0.5 0.092593 0.907407 0.5 0.5 0.001736 0.998264 0.5 0.5 0.333333 0.666667 0.333333 0.666667 0.2 0.8 0.5 0.5 0.5 0.5 0.177778 0.822222 0.666667 0.333333 0.003425 0.996575 0.5 0.5 0.5 0.5 0.5 0.5 0.333333 0.666667 0.5 0.5 0.5 0.5 0.239362 0.760638 0.666667 0.333333 0.001949 0.998051 0.5 0.5 0.666667 0.333333 0.5 0.5 0.666667 0.333333 0.5 0.5 0.5 0.5 0.548071 0.451929 0.75 0.25 0.003247 0.996753 0.5 0.5 0.666667 0.333333 0.666667 0.333333 0.4 0.6 0.5 0.5</TABLE>
</DEFINITION>
<DEFINITION>
	<FOR>feature_1(nodes_table1)</FOR>
	<TABLE> 0.658626 0.341374</TABLE>
</DEFINITION>
<DEFINITION>
	<FOR>feature_2(nodes_table0)</FOR>
	<GIVEN>edges_table(nodes_table0,nodes_table1)</GIVEN>
	<GIVEN>feature_2(nodes_table1)</GIVEN>
	<GIVEN>feature_3(nodes_table1)</GIVEN>
	<GIVEN>feature_4(nodes_table1)</GIVEN>
	<GIVEN>feature_5(nodes_table1)</GIVEN>
	<GIVEN>label(nodes_table0)</GIVEN>
	<GIVEN>label(nodes_table1)</GIVEN>
	<TABLE> 0.5 0.5 0.998243 0.001757 0.75 0.25 0.513941 0.486059 0.5 0.5 0.333333 0.666667 0.375 0.625 0.2 0.8 0.5 0.5 0.333333 0.666667 0.996503 0.003497 0.5 0.5 0.517685 0.482315 0.5 0.5 0.5 0.5 0.666667 0.333333 0.25 0.75 0.5 0.5 0.5 0.5 0.992424 0.007576 0.5 0.5 0.493506 0.506494 0.5 0.5 0.333333 0.666667 0.5 0.5 0.25 0.75 0.5 0.5 0.5 0.5 0.994737 0.005263 0.666667 0.333333 0.596364 0.403636 0.5 0.5 0.5 0.5 0.5 0.5 0.5 0.5 0.5 0.5 0.333333 0.666667 0.997788 0.002212 0.666667 0.333333 0.503696 0.496304 0.5 0.5 0.333333 0.666667 0.5 0.5 0.25 0.75 0.5 0.5 0.5 0.5 0.997245 0.002755 0.5 0.5 0.561886 0.438114 0.5 0.5 0.5 0.5 0.5 0.5 0.25 0.75 0.5 0.5 0.5 0.5 0.994845 0.005155 0.5 0.5 0.538462 0.461538 0.5 0.5 0.5 0.5 0.5 0.5 0.5 0.5 0.5 0.5 0.5 0.5 0.994413 0.005587 0.5 0.5 0.578616 0.421384 0.5 0.5 0.5 0.5 0.5 0.5 0.2 0.8 0.5 0.5 0.5 0.5 0.054335 0.945665 0.5 0.5 0.000681 0.999319 0.5 0.5 0.25 0.75 0.166667 0.833333 0.3 0.7 0.5 0.5 0.666667 0.333333 0.110687 0.889313 0.5 0.5 0.001319 0.998681 0.5 0.5 0.333333 0.666667 0.5 0.5 0.2 0.8 0.5 0.5 0.5 0.5 0.086142 0.913858 0.5 0.5 0.002336 0.997664 0.5 0.5 0.666667 0.333333 0.25 0.75 0.5 0.5 0.5 0.5 0.666667 0.333333 0.244681 0.755319 0.333333 0.666667 0.004525 0.995475 0.5 0.5 0.5 0.5 0.5 0.5 0.333333 0.666667 0.5 0.5 0.5 0.5 0.151961 0.848039 0.5 0.5 0.000791 0.999209 0.5 0.5 0.6 0.4 0.333333 0.666667 0.2 0.8 0.5 0.5 0.5 0.5 0.3108 0.6892 0.666667 0.333333 0.001621 0.998379 0.5 0.5 0.166667 0.833333 0.333333 0.666667 0.125 0.875 0.5 0.5 0.5 0.5 0.287805 0.712195 0.333333 0.666667 0.002278 0.997722 0.5 0.5 0.333333 0.666667 0.333333 0.666667 0.5 0.5 0.5 0.5 0.5 0.5 0.433333 0.566667 0.3 0.7 0.003448 0.996552 0.5 0.5 0.461538 0.538462 0.5 0.5 0.25 0.75 0.5 0.5</TABLE>
</DEFINITION>
<DEFINITION>
	<FOR>feature_2(nodes_table1)</FOR>
	<TABLE> 0.378279 0.621721</TABLE>
</DEFINITION>
<DEFINITION>
	<FOR>feature_3(nodes_table0)</FOR>
	<GIVEN>edges_table(nodes_table0,nodes_table1)</GIVEN>
	<GIVEN>feature_1(nodes_table0)</GIVEN>
	<GIVEN>feature_2(nodes_table0)</GIVEN>
	<GIVEN>feature_2(nodes_table1)</GIVEN>
	<GIVEN>feature_3(nodes_table1)</GIVEN>
	<GIVEN>feature_4(nodes_table0)</GIVEN>
	<GIVEN>feature_5(nodes_table0)</GIVEN>
	<GIVEN>feature_5(nodes_table1)</GIVEN>
	<GIVEN>label(nodes_table1)</GIVEN>
	<TABLE> 0.953947 0.046053 0.997773 0.002227 0.666667 0.333333 0.666667 0.333333 0.96 0.04 0.666667 0.333333 0.47619 0.52381 0.5 0.5 0.666667 0.333333 0.901554 0.098446 0.994681 0.005319 0.5 0.5 0.881356 0.118644 0.990099 0.009901 0.5 0.5 0.5 0.5 0.916667 0.083333 0.5 0.5 0.565217 0.434783 0.5 0.5 0.5 0.5 0.908046 0.091954 0.986486 0.013514 0.5 0.5 0.003205 0.996795 0.096154 0.903846 0.5 0.5 0.333333 0.666667 0.442623 0.557377 0.5 0.5 0.045455 0.954545 0.5 0.5 0.333333 0.666667 0.005348 0.994652 0.112971 0.887029 0.5 0.5 0.009901 0.990099 0.07619 0.92381 0.5 0.5 0.5 0.5 0.347826 0.652174 0.5 0.5 0.066667 0.933333 0.5 0.5 0.5 0.5 0.012048 0.987952 0.090909 0.909091 0.5 0.5 0.5 0.5 0.976744 0.023256 0.5 0.5 0.5 0.5 0.97561 0.02439 0.5 0.5 0.5 0.5 0.5 0.5 0.5 0.5 0.666667 0.333333 0.96 0.04 0.5 0.5 0.5 0.5 0.9 0.1 0.5 0.5 0.5 0.5 0.928571 0.071429 0.5 0.5 0.5 0.5 0.5 0.5 0.5 0.5 0.5 0.5 0.941176 0.058824 0.5 0.5 0.5 0.5 0.475248 0.524752 0.5 0.5 0.5 0.5 0.561688 0.438312 0.714286 0.285714 0.5 0.5 0.5 0.5 0.5 0.5 0.5 0.5 0.510086 0.489914 0.333333 0.666667 0.5 0.5 0.323077 0.676923 0.5 0.5 0.5 0.5 0.514124 0.485876 0.666667 0.333333 0.5 0.5 0.5 0.5 0.333333 0.666667 0.5 0.5 0.474747 0.525253 0.333333 0.666667 0.47541 0.52459 0.5 0.5 0.5 0.5 0.5 0.5 0.5 0.5 0.5 0.5 0.338983 0.661017 0.5 0.5 0.5 0.5 0.27907 0.72093 0.5 0.5 0.5 0.5 0.243902 0.756098 0.5 0.5 0.5 0.5 0.5 0.5 0.5 0.5 0.5 0.5 0.153846 0.846154 0.25 0.75 0.5 0.5 0.197183 0.802817 0.5 0.5 0.5 0.5 0.02381 0.97619 0.5 0.5 0.5 0.5 0.5 0.5 0.333333 0.666667 0.5 0.5 0.02439 0.97561 0.5 0.5 0.5 0.5 0.038462 0.961538 0.5 0.5 0.5 0.5 0.020408 0.979592 0.5 0.5 0.5 0.5 0.5 0.5 0.5 0.5 0.5 0.5 0.012821 0.987179 0.333333 0.666667 0.5 0.5 0.016129 0.983871 0.5 0.5 0.5 0.5 0.899514 0.100486 0.998322 0.001678 0.5 0.5 0.5 0.5 0.953846 0.046154 0.5 0.5 0.440678 0.559322 0.5 0.5 0.5 0.5 0.835866 0.164134 0.996785 0.003215 0.5 0.5 0.839744 0.160256 0.992063 0.007937 0.5 0.5 0.5 0.5 0.928571 0.071429 0.5 0.5 0.183824 0.816176 0.5 0.5 0.5 0.5 0.477778 0.522222 0.986667 0.013333 0.5 0.5 0.002096 0.997904 0.17852 0.82148 0.666667 0.333333 0.5 0.5 0.455259 0.544741 0.666667 0.333333 0.014085 0.985915 0.666667 0.333333 0.666667 0.333333 0.004149 0.995851 0.364055 0.635945 0.285714 0.714286 0.005525 0.994475 0.142857 0.857143 0.5 0.5 0.5 0.5 0.444976 0.555024 0.4 0.6 0.015873 0.984127 0.5 0.5 0.333333 0.666667 0.005291 0.994709 0.267717 0.732283 0.666667 0.333333 0.924658 0.075342 0.992188 0.007812 0.5 0.5 0.5 0.5 0.916667 0.083333 0.5 0.5 0.4 0.6 0.5 0.5 0.5 0.5 0.839286 0.160714 0.989583 0.010417 0.5 0.5 0.8 0.2 0.962963 0.037037 0.5 0.5 0.5 0.5 0.75 0.25 0.5 0.5 0.653846 0.346154 0.5 0.5 0.5 0.5 0.84 0.16 0.987013 0.012987 0.5 0.5 0.008929 0.991071 0.072072 0.927928 0.5 0.5 0.5 0.5 0.391304 0.608696 0.5 0.5 0.058824 0.941176 0.5 0.5 0.5 0.5 0.011905 0.988095 0.175824 0.824176 0.5 0.5 0.013158 0.986842 0.028571 0.971429 0.5 0.5 0.5 0.5 0.166667 0.833333 0.5 0.5 0.055556 0.944444 0.5 0.5 0.5 0.5 0.033333 0.966667 0.434783 0.565217 0.5 0.5 0.5 0.5 0.9 0.1 0.5 0.5 0.333333 0.666667 0.888889 0.111111 0.5 0.5 0.5 0.5 0.5 0.5 0.5 0.5 0.5 0.5 0.95 0.05 0.5 0.5 0.5 0.5 0.8 0.2 0.5 0.5 0.5 0.5 0.8 0.2 0.5 0.5 0.5 0.5 0.5 0.5 0.333333 0.666667 0.5 0.5 0.9 0.1 0.5 0.5 0.5 0.5 0.527273 0.472727 0.666667 0.333333 0.5 0.5 0.510345 0.489655 0.6 0.4 0.5 0.5 0.5 0.5 0.5 0.5 0.5 0.5 0.605839 0.394161 0.666667 0.333333 0.5 0.5 0.352941 0.647059 0.5 0.5 0.5 0.5 0.470588 0.529412 0.666667 0.333333 0.5 0.5 0.5 0.5 0.5 0.5 0.5 0.5 0.724138 0.275862 0.5 0.5 0.311475 0.688525 0.333333 0.666667 0.666667 0.333333 0.5 0.5 0.5 0.5 0.5 0.5 0.122222 0.877778 0.5 0.5 0.5 0.5 0.263889 0.736111 0.5 0.5 0.5 0.5 0.233333 0.766667 0.5 0.5 0.333333 0.666667 0.5 0.5 0.5 0.5 0.5 0.5 0.048485 0.951515 0.25 0.75 0.5 0.5 0.103448 0.896552 0.25 0.75 0.5 0.5 0.022727 0.977273 0.5 0.5 0.666667 0.333333 0.5 0.5 0.5 0.5 0.5 0.5 0.014925 0.985075 0.5 0.5 0.5 0.5 0.018182 0.981818 0.5 0.5 0.5 0.5 0.017857 0.982143 0.5 0.5 0.5 0.5 0.5 0.5 0.666667 0.333333 0.5 0.5 0.007576 0.992424 0.333333 0.666667 0.5 0.5 0.006494 0.993506 0.2 0.8 0.5 0.5 0.825 0.175 0.996 0.004 0.5 0.5 0.5 0.5 0.956522 0.043478 0.5 0.5 0.215517 0.784483 0.333333 0.666667 0.5 0.5 0.690821 0.309179 0.979167 0.020833 0.5 0.5 0.619565 0.380435 0.989691 0.010309 0.5 0.5 0.5 0.5 0.947368 0.052632 0.5 0.5 0.122324 0.877676 0.166667 0.833333 0.5 0.5 0.243446 0.756554 0.956522 0.043478 0.5 0.5 0.003636 0.996364 0.166124 0.833876 0.5 0.5 0.5 0.5 0.469613 0.530387 0.75 0.25 0.010204 0.989796 0.5 0.5 0.5 0.5 0.005102 0.994898 0.26087 0.73913 0.333333 0.666667 0.005952 0.994048 0.096 0.904 0.5 0.5 0.5 0.5 0.49505 0.50495 0.666667 0.333333 0.003115 0.996885 0.25 0.75 0.5 0.5 0.003497 0.996503 0.251701 0.748299 0.333333 0.666667</TABLE>
</DEFINITION>
<DEFINITION>
	<FOR>feature_3(nodes_table1)</FOR>
	<TABLE> 0.484438 0.515562</TABLE>
</DEFINITION>
<DEFINITION>
	<FOR>feature_4(nodes_table0)</FOR>
	<GIVEN>edges_table(nodes_table0,nodes_table1)</GIVEN>
	<GIVEN>feature_1(nodes_table0)</GIVEN>
	<GIVEN>feature_1(nodes_table1)</GIVEN>
	<GIVEN>feature_2(nodes_table1)</GIVEN>
	<GIVEN>feature_4(nodes_table1)</GIVEN>
	<GIVEN>feature_5(nodes_table1)</GIVEN>
	<GIVEN>label(nodes_table1)</GIVEN>
	<TABLE> 0.840909 0.159091 0.997389 0.002611 0.8 0.2 0.808743 0.191257 0.997602 0.002398 0.5 0.5 0.002941 0.997059 0.092166 0.907834 0.5 0.5 0.005181 0.994819 0.178218 0.821782 0.666667 0.333333 0.848675 0.151325 0.999161 0.000839 0.5 0.5 0.81 0.19 0.998828 0.001172 0.75 0.25 0.002653 0.997347 0.220903 0.779097 0.5 0.5 0.004255 0.995745 0.52381 0.47619 0.666667 0.333333 0.5 0.5 0.892857 0.107143 0.5 0.5 0.5 0.5 0.97619 0.02381 0.5 0.5 0.5 0.5 0.363636 0.636364 0.5 0.5 0.5 0.5 0.404762 0.595238 0.5 0.5 0.5 0.5 0.986395 0.013605 0.5 0.5 0.666667 0.333333 0.994805 0.005195 0.833333 0.166667 0.5 0.5 0.640523 0.359477 0.5 0.5 0.5 0.5 0.707063 0.292937 0.708333 0.291667 0.345455 0.654545 0.333333 0.666667 0.333333 0.666667 0.344 0.656 0.2 0.8 0.5 0.5 0.006494 0.993506 0.333333 0.666667 0.666667 0.333333 0.012346 0.987654 0.333333 0.666667 0.5 0.5 0.369565 0.630435 0.333333 0.666667 0.666667 0.333333 0.365019 0.634981 0.285714 0.714286 0.666667 0.333333 0.006289 0.993711 0.333333 0.666667 0.5 0.5 0.010753 0.989247 0.25 0.75 0.8 0.2 0.691837 0.308163 0.995708 0.004292 0.666667 0.333333 0.683432 0.316568 0.989637 0.010363 0.5 0.5 0.006494 0.993506 0.059406 0.940594 0.5 0.5 0.006173 0.993827 0.193798 0.806202 0.5 0.5 0.79443 0.20557 0.994595 0.005405 0.75 0.25 0.73494 0.26506 0.99802 0.00198 0.75 0.25 0.002976 0.997024 0.237942 0.762058 0.333333 0.666667 0.010753 0.989247 0.510429 0.489571 0.555556 0.444444</TABLE>
</DEFINITION>
<DEFINITION>
	<FOR>feature_4(nodes_table1)</FOR>
	<TABLE> 0.707648 0.292352</TABLE>
</DEFINITION>
<DEFINITION>
	<FOR>feature_5(nodes_table0)</FOR>
	<GIVEN>edges_table(nodes_table0,nodes_table1)</GIVEN>
	<GIVEN>feature_1(nodes_table0)</GIVEN>
	<GIVEN>feature_1(nodes_table1)</GIVEN>
	<GIVEN>feature_4(nodes_table0)</GIVEN>
	<GIVEN>feature_4(nodes_table1)</GIVEN>
	<GIVEN>feature_5(nodes_table1)</GIVEN>
	<GIVEN>label(nodes_table0)</GIVEN>
	<GIVEN>label(nodes_table1)</GIVEN>
	<TABLE> 0.5 0.5 0.999488 0.000512 0.4 0.6 0.881716 0.118284 0.5 0.5 0.333333 0.666667 0.666667 0.333333 0.333333 0.666667 0.5 0.5 0.25 0.75 0.206788 0.793212 0.333333 0.666667 0.000994 0.999006 0.5 0.5 0.666667 0.333333 0.6 0.4 0.666667 0.333333 0.5 0.5 0.5 0.5 0.99115 0.00885 0.5 0.5 0.5 0.5 0.5 0.5 0.5 0.5 0.5 0.5 0.5 0.5 0.5 0.5 0.5 0.5 0.55283 0.44717 0.666667 0.333333 0.5 0.5 0.5 0.5 0.666667 0.333333 0.5 0.5 0.666667 0.333333 0.5 0.5 0.5 0.5 0.5 0.5 0.5 0.5 0.276543 0.723457 0.5 0.5 0.333333 0.666667 0.333333 0.666667 0.333333 0.666667 0.5 0.5 0.5 0.5 0.5 0.5 0.5 0.5 0.004202 0.995798 0.5 0.5 0.5 0.5 0.5 0.5 0.5 0.5 0.5 0.5 0.5 0.5 0.998095 0.001905 0.5 0.5 0.732867 0.267133 0.5 0.5 0.5 0.5 0.5 0.5 0.5 0.5 0.5 0.5 0.5 0.5 0.310065 0.689935 0.5 0.5 0.002347 0.997653 0.5 0.5 0.5 0.5 0.5 0.5 0.5 0.5 0.5 0.5 0.5 0.5 0.994083 0.005917 0.5 0.5 0.5 0.5 0.5 0.5 0.5 0.5 0.5 0.5 0.666667 0.333333 0.5 0.5 0.5 0.5 0.573113 0.426887 0.75 0.25 0.5 0.5 0.5 0.5 0.5 0.5 0.333333 0.666667 0.5 0.5 0.5 0.5 0.5 0.5 0.990099 0.009901 0.666667 0.333333 0.5 0.5 0.5 0.5 0.5 0.5 0.5 0.5 0.666667 0.333333 0.5 0.5 0.5 0.5 0.659091 0.340909 0.857143 0.142857 0.5 0.5 0.5 0.5 0.384615 0.615385 0.5 0.5 0.5 0.5 0.5 0.5 0.5 0.5 0.5 0.5 0.5 0.5 0.5 0.5 0.5 0.5 0.5 0.5 0.5 0.5 0.4 0.6 0.5 0.5 0.5 0.5 0.5 0.5 0.5 0.5 0.5 0.5 0.5 0.5 0.5 0.5 0.5 0.5 0.333333 0.666667 0.5 0.5 0.5 0.5 0.983871 0.016129 0.5 0.5 0.5 0.5 0.5 0.5 0.333333 0.666667 0.5 0.5 0.5 0.5 0.5 0.5 0.5 0.5 0.591885 0.408115 0.75 0.25 0.5 0.5 0.5 0.5 0.5 0.5 0.5 0.5 0.5 0.5 0.5 0.5 0.5 0.5 0.5 0.5 0.5 0.5 0.408759 0.591241 0.5 0.5 0.666667 0.333333 0.25 0.75 0.333333 0.666667 0.5 0.5 0.5 0.5 0.5 0.5 0.333333 0.666667 0.005495 0.994505 0.5 0.5 0.5 0.5 0.5 0.5 0.333333 0.666667 0.5 0.5 0.5 0.5 0.5 0.5 0.5 0.5 0.5 0.5 0.5 0.5 0.666667 0.333333 0.5 0.5 0.5 0.5 0.5 0.5 0.5 0.5 0.5 0.5 0.5 0.5 0.5 0.5 0.5 0.5 0.6 0.4 0.5 0.5 0.5 0.5 0.5 0.5 0.5 0.5 0.5 0.5 0.5 0.5 0.135501 0.864499 0.5 0.5 0.666667 0.333333 0.25 0.75 0.166667 0.833333 0.5 0.5 0.5 0.5 0.5 0.5 0.5 0.5 0.003021 0.996979 0.5 0.5 0.5 0.5 0.5 0.5 0.111111 0.888889 0.5 0.5 0.5 0.5 0.5 0.5 0.5 0.5 0.197411 0.802589 0.5 0.5 0.5 0.5 0.25 0.75 0.25 0.75 0.5 0.5 0.5 0.5 0.5 0.5 0.5 0.5 0.005814 0.994186 0.5 0.5 0.5 0.5 0.5 0.5 0.4 0.6 0.5 0.5 0.5 0.5 0.99872 0.00128 0.5 0.5 0.831557 0.168443 0.5 0.5 0.8 0.2 0.5 0.5 0.8 0.2 0.5 0.5 0.5 0.5 0.227994 0.772006 0.5 0.5 0.001866 0.998134 0.5 0.5 0.25 0.75 0.5 0.5 0.25 0.75 0.5 0.5 0.5 0.5 0.9875 0.0125 0.5 0.5 0.5 0.5 0.5 0.5 0.5 0.5 0.5 0.5 0.5 0.5 0.5 0.5 0.666667 0.333333 0.510204 0.489796 0.666667 0.333333 0.5 0.5 0.5 0.5 0.6 0.4 0.5 0.5 0.5 0.5 0.5 0.5 0.333333 0.666667 0.5 0.5 0.5 0.5 0.259868 0.740132 0.5 0.5 0.5 0.5 0.333333 0.666667 0.25 0.75 0.5 0.5 0.5 0.5 0.5 0.5 0.5 0.5 0.004608 0.995392 0.5 0.5 0.5 0.5 0.5 0.5 0.333333 0.666667 0.5 0.5 0.5 0.5 0.996979 0.003021 0.5 0.5 0.677618 0.322382 0.5 0.5 0.333333 0.666667 0.333333 0.666667 0.333333 0.666667 0.5 0.5 0.5 0.5 0.313373 0.686627 0.666667 0.333333 0.002899 0.997101 0.5 0.5 0.5 0.5 0.5 0.5 0.5 0.5 0.5 0.5</TABLE>
</DEFINITION>
<DEFINITION>
	<FOR>feature_5(nodes_table1)</FOR>
	<TABLE> 0.598044 0.401956</TABLE>
</DEFINITION>
<DEFINITION>
	<FOR>label(nodes_table0)</FOR>
	<GIVEN>edges_table(nodes_table0,nodes_table1)</GIVEN>
	<GIVEN>label(nodes_table1)</GIVEN>
	<TABLE> 0.000502 0.997591 0.001907 0.995892 0.00010 0.004008 0.316667 0.666666 0.016667</TABLE>
</DEFINITION>
<DEFINITION>
	<FOR>label(nodes_table1)</FOR>
	<TABLE> 0.336334 0.657219 0.006447</TABLE>
</DEFINITION>
</NETWORK>
</BIF>
