<?xml version="1.0" encoding="UTF-8"?>
<BIF VERSION="0.3"  xmlns="http://www.cs.ubc.ca/labs/lci/fopi/ve/XMLBIFv0_3"
xmlns:xsi="http://www.w3.org/2001/XMLSchema-instance"
xsi:schemaLocation="http://www.cs.ubc.ca/labs/lci/fopi/ve/XMLBIFv0_3 http://www.cs.ubc.ca/labs/lci/fopi/ve/XMLBIFv0_3/XMLBIFv0_3.xsd">
<NETWORK>
<NAME>citeseer</NAME>
<VARIABLE TYPE="nature">
	<NAME>edges_table(nodes_table0,nodes_table1)</NAME>
	<OUTCOME>T</OUTCOME>
	<PROPERTY> position=(6000.0,4000.0)</PROPERTY>
</VARIABLE>
<VARIABLE TYPE="nature">
	<NAME>feature_1(nodes_table0)</NAME>
	<OUTCOME>0.0</OUTCOME>
	<OUTCOME>1.0</OUTCOME>
	<PROPERTY> position=(6200.0,4000.0)</PROPERTY>
</VARIABLE>
<VARIABLE TYPE="nature">
	<NAME>feature_1(nodes_table1)</NAME>
	<OUTCOME>0</OUTCOME>
	<OUTCOME>1</OUTCOME>
	<PROPERTY> position=(6400.0,4000.0)</PROPERTY>
</VARIABLE>
<VARIABLE TYPE="nature">
	<NAME>feature_2(nodes_table0)</NAME>
	<OUTCOME>0.0</OUTCOME>
	<OUTCOME>1.0</OUTCOME>
	<PROPERTY> position=(6000.0,4200.0)</PROPERTY>
</VARIABLE>
<VARIABLE TYPE="nature">
	<NAME>feature_2(nodes_table1)</NAME>
	<OUTCOME>0</OUTCOME>
	<OUTCOME>1</OUTCOME>
	<PROPERTY> position=(6200.0,4200.0)</PROPERTY>
</VARIABLE>
<VARIABLE TYPE="nature">
	<NAME>feature_3(nodes_table0)</NAME>
	<OUTCOME>0.0</OUTCOME>
	<OUTCOME>1.0</OUTCOME>
	<PROPERTY> position=(6400.0,4200.0)</PROPERTY>
</VARIABLE>
<VARIABLE TYPE="nature">
	<NAME>feature_3(nodes_table1)</NAME>
	<OUTCOME>0</OUTCOME>
	<OUTCOME>1</OUTCOME>
	<PROPERTY> position=(6000.0,4400.0)</PROPERTY>
</VARIABLE>
<VARIABLE TYPE="nature">
	<NAME>feature_4(nodes_table0)</NAME>
	<OUTCOME>0.0</OUTCOME>
	<OUTCOME>1.0</OUTCOME>
	<PROPERTY> position=(6200.0,4400.0)</PROPERTY>
</VARIABLE>
<VARIABLE TYPE="nature">
	<NAME>feature_4(nodes_table1)</NAME>
	<OUTCOME>0</OUTCOME>
	<OUTCOME>1</OUTCOME>
	<PROPERTY> position=(6400.0,4400.0)</PROPERTY>
</VARIABLE>
<VARIABLE TYPE="nature">
	<NAME>feature_5(nodes_table0)</NAME>
	<OUTCOME>0.0</OUTCOME>
	<OUTCOME>1.0</OUTCOME>
	<PROPERTY> position=(6000.0,4600.0)</PROPERTY>
</VARIABLE>
<VARIABLE TYPE="nature">
	<NAME>feature_5(nodes_table1)</NAME>
	<OUTCOME>0</OUTCOME>
	<OUTCOME>1</OUTCOME>
	<PROPERTY> position=(6200.0,4600.0)</PROPERTY>
</VARIABLE>
<VARIABLE TYPE="nature">
	<NAME>label(nodes_table0)</NAME>
	<OUTCOME>0.0</OUTCOME>
	<OUTCOME>1.0</OUTCOME>
	<OUTCOME>2.0</OUTCOME>
	<OUTCOME>3.0</OUTCOME>
	<OUTCOME>4.0</OUTCOME>
	<OUTCOME>5.0</OUTCOME>
	<PROPERTY> position=(6400.0,4600.0)</PROPERTY>
</VARIABLE>
<VARIABLE TYPE="nature">
	<NAME>label(nodes_table1)</NAME>
	<OUTCOME>0</OUTCOME>
	<OUTCOME>1</OUTCOME>
	<OUTCOME>2</OUTCOME>
	<OUTCOME>3</OUTCOME>
	<OUTCOME>4</OUTCOME>
	<OUTCOME>5</OUTCOME>
	<PROPERTY> position=(6000.0,4800.0)</PROPERTY>
</VARIABLE>
<DEFINITION>
	<FOR>edges_table(nodes_table0,nodes_table1)</FOR>
	<TABLE> 1.0</TABLE>
</DEFINITION>
<DEFINITION>
	<FOR>feature_1(nodes_table0)</FOR>
	<GIVEN>edges_table(nodes_table0,nodes_table1)</GIVEN>
	<GIVEN>feature_1(nodes_table1)</GIVEN>
	<GIVEN>feature_4(nodes_table0)</GIVEN>
	<GIVEN>label(nodes_table0)</GIVEN>
	<TABLE> 0.901596 0.098404 0.965145 0.034855 0.960098 0.039902 0.991183 0.008817 0.311953 0.688047 0.956103 0.043897 0.740741 0.259259 0.690476 0.309524 0.939103 0.060897 0.924528 0.075472 0.347826 0.652174 0.8125 0.1875 0.538462 0.461538 0.647541 0.352459 0.747126 0.252874 0.666667 0.333333 0.110448 0.889552 0.469027 0.530973 0.7 0.3 0.411765 0.588235 0.745098 0.254902 0.6 0.4 0.2 0.8 0.25 0.75</TABLE>
</DEFINITION>
<DEFINITION>
	<FOR>feature_1(nodes_table1)</FOR>
	<TABLE> 0.798438 0.201562</TABLE>
</DEFINITION>
<DEFINITION>
	<FOR>feature_2(nodes_table0)</FOR>
	<GIVEN>edges_table(nodes_table0,nodes_table1)</GIVEN>
	<GIVEN>feature_1(nodes_table1)</GIVEN>
	<GIVEN>feature_3(nodes_table1)</GIVEN>
	<GIVEN>feature_4(nodes_table1)</GIVEN>
	<GIVEN>label(nodes_table1)</GIVEN>
	<TABLE> 0.931232 0.068768 0.944724 0.055276 0.82 0.18 0.572383 0.427617 0.974026 0.025974 0.981339 0.018661 0.9375 0.0625 0.88 0.12 0.90255 0.09745 0.666667 0.333333 0.888889 0.111111 0.98 0.02 0.945455 0.054545 0.939722 0.060278 0.939189 0.060811 0.807692 0.192308 0.961538 0.038462 0.972973 0.027027 0.5 0.5 0.928571 0.071429 0.881579 0.118421 0.666667 0.333333 0.875 0.125 0.857143 0.142857 0.987342 0.012658 0.961538 0.038462 0.830189 0.169811 0.916667 0.083333 0.980306 0.019694 0.967742 0.032258 0.7 0.3 0.933333 0.066667 0.988764 0.011236 0.75 0.25 0.976744 0.023256 0.928571 0.071429 0.928571 0.071429 0.934426 0.065574 0.85 0.15 0.5 0.5 0.983051 0.016949 0.9 0.1 0.8 0.2 0.956522 0.043478 0.933333 0.066667 0.5 0.5 0.5 0.5 0.888889 0.111111</TABLE>
</DEFINITION>
<DEFINITION>
	<FOR>feature_2(nodes_table1)</FOR>
	<TABLE> 0.867227 0.132773</TABLE>
</DEFINITION>
<DEFINITION>
	<FOR>feature_3(nodes_table0)</FOR>
	<GIVEN>edges_table(nodes_table0,nodes_table1)</GIVEN>
	<GIVEN>feature_3(nodes_table1)</GIVEN>
	<GIVEN>label(nodes_table0)</GIVEN>
	<TABLE> 0.895652 0.104348 0.582677 0.417323 0.888941 0.111059 0.983061 0.016939 0.964837 0.035163 0.959087 0.040913 0.684211 0.315789 0.321752 0.678248 0.550373 0.449627 0.54386 0.45614 0.724138 0.275862 0.794118 0.205882</TABLE>
</DEFINITION>
<DEFINITION>
	<FOR>feature_3(nodes_table1)</FOR>
	<TABLE> 0.858516 0.141484</TABLE>
</DEFINITION>
<DEFINITION>
	<FOR>feature_4(nodes_table0)</FOR>
	<GIVEN>edges_table(nodes_table0,nodes_table1)</GIVEN>
	<GIVEN>feature_1(nodes_table1)</GIVEN>
	<GIVEN>feature_4(nodes_table1)</GIVEN>
	<GIVEN>label(nodes_table1)</GIVEN>
	<TABLE> 0.945274 0.054726 0.950081 0.049919 0.724277 0.275723 0.898354 0.101646 0.964706 0.035294 0.960888 0.039112 0.558824 0.441176 0.369231 0.630769 0.307692 0.692308 0.559406 0.440594 0.466667 0.533333 0.527273 0.472727 0.989011 0.010989 0.976471 0.023529 0.535211 0.464789 0.833333 0.166667 0.969188 0.030812 0.910891 0.089109 0.769231 0.230769 0.5 0.5 0.529412 0.470588 0.6 0.4 0.581395 0.418605 0.714286 0.285714</TABLE>
</DEFINITION>
<DEFINITION>
	<FOR>feature_4(nodes_table1)</FOR>
	<TABLE> 0.871433 0.128567</TABLE>
</DEFINITION>
<DEFINITION>
	<FOR>feature_5(nodes_table0)</FOR>
	<GIVEN>edges_table(nodes_table0,nodes_table1)</GIVEN>
	<GIVEN>feature_2(nodes_table0)</GIVEN>
	<GIVEN>feature_5(nodes_table1)</GIVEN>
	<GIVEN>label(nodes_table0)</GIVEN>
	<TABLE> 0.954741 0.045259 0.864499 0.135501 0.857801 0.142199 0.663063 0.336937 0.967332 0.032668 0.933663 0.066337 0.5 0.5 0.57265 0.42735 0.757426 0.242574 0.369231 0.630769 0.849315 0.150685 0.717391 0.282609 0.857143 0.142857 0.547619 0.452381 0.846154 0.153846 0.628947 0.371053 0.923077 0.076923 0.785714 0.214286 0.444444 0.555556 0.222222 0.777778 0.777778 0.222222 0.430303 0.569697 0.5 0.5 0.428571 0.571429</TABLE>
</DEFINITION>
<DEFINITION>
	<FOR>feature_5(nodes_table1)</FOR>
	<TABLE> 0.804145 0.195855</TABLE>
</DEFINITION>
<DEFINITION>
	<FOR>label(nodes_table0)</FOR>
	<GIVEN>edges_table(nodes_table0,nodes_table1)</GIVEN>
	<GIVEN>feature_1(nodes_table1)</GIVEN>
	<GIVEN>feature_2(nodes_table0)</GIVEN>
	<GIVEN>feature_4(nodes_table0)</GIVEN>
	<GIVEN>label(nodes_table1)</GIVEN>
	<TABLE> 0.409574 0.255319 0.055851 0.106383 0.132979 0.039894 0.086766 0.694128 0.133216 0.028046 0.037686 0.020158 0.031336 0.146544 0.696774 0.073733 0.01659 0.035023 0.062578 0.041302 0.107635 0.71214 0.037547 0.038798 0.087302 0.123016 0.031746 0.035714 0.642857 0.079365 0.014009 0.020474 0.033405 0.025862 0.046336 0.859914 0.121951 0.073171 0.487805 0.121951 0.097561 0.097561 0.05 0.23 0.59 0.07 0.02 0.04 0.01086 0.045249 0.882352 0.035294 0.008145 0.0181 0.031646 0.025316 0.373418 0.537975 0.006329 0.025316 0.095238 0.142857 0.285715 0.047619 0.238095 0.190476 0.030769 0.076923 0.323077 0.061538 0.015385 0.492308 0.060606 0.212121 0.151515 0.515152 0.030303 0.030303 0.013699 0.575342 0.082192 0.287671 0.013699 0.027397 0.004762 0.047619 0.695238 0.219048 0.004762 0.028571 0.013817 0.039724 0.037997 0.903281 0.001727 0.003454 0.090909 0.090909 0.090909 0.454546 0.181818 0.090909 0.05 0.1 0.2 0.25 0.05 0.35 0.166667 0.166667 0.166667 0.166665 0.166667 0.166667 0.076923 0.076923 0.461539 0.076923 0.230769 0.076923 0.008929 0.008929 0.848213 0.089286 0.035714 0.008929 0.012048 0.012048 0.144578 0.80723 0.012048 0.012048 0.166665 0.166667 0.166667 0.166667 0.166667 0.166667 0.125 0.125 0.375 0.125 0.125 0.125 0.359223 0.087379 0.029126 0.067961 0.407767 0.048544 0.088235 0.431373 0.088235 0.019608 0.343137 0.029412 0.011111 0.188889 0.533333 0.077778 0.166667 0.022222 0.125 0.025 0.05 0.25 0.525 0.025 0.041607 0.032999 0.01363 0.019369 0.849353 0.043042 0.06422 0.045872 0.06422 0.027523 0.412844 0.385321 0.142857 0.142857 0.142857 0.285715 0.142857 0.142857 0.083333 0.208333 0.5 0.125 0.041667 0.041667 0.037037 0.074074 0.777779 0.024691 0.061728 0.024691 0.222222 0.222222 0.222222 0.166667 0.111111 0.055556 0.186441 0.050847 0.220339 0.033898 0.440678 0.067797 0.157895 0.105263 0.210526 0.105263 0.052632 0.368421 0.142857 0.142857 0.142857 0.285715 0.142857 0.142857 0.111111 0.444445 0.111111 0.111111 0.111111 0.111111 0.083333 0.166667 0.25 0.25 0.083333 0.166667 0.083333 0.083333 0.166667 0.500001 0.083333 0.083333 0.2 0.04 0.04 0.48 0.12 0.12 0.125 0.125 0.125 0.25 0.125 0.25 0.142857 0.142857 0.285715 0.142857 0.142857 0.142857 0.166667 0.166667 0.166667 0.166665 0.166667 0.166667 0.1 0.1 0.4 0.1 0.2 0.1 0.166667 0.166667 0.166667 0.166665 0.166667 0.166667 0.076923 0.076923 0.461539 0.076923 0.230769 0.076923 0.166665 0.166667 0.166667 0.166667 0.166667 0.166667</TABLE>
</DEFINITION>
<DEFINITION>
	<FOR>label(nodes_table1)</FOR>
	<TABLE> 0.079508 0.177318 0.20072 0.210621 0.179118 0.152715</TABLE>
</DEFINITION>
</NETWORK>
</BIF>
